Classifier...: weka.classifiers.trees.J48 -C 0.25 -M 2
Training file: C:\Users\HP\Desktop\AbdulAli\Baseline\Configuration1\dataK=4\6tr.csv

Testing file: C:\Users\HP\Desktop\AbdulAli\Baseline\Configuration1\dataK=4\6test.csv

J48 pruned tree
------------------

rfc <= 19: NO (1542.0)
rfc > 19: YES (1321.0)

Number of Leaves  : 	2

Size of the tree : 	3


Correctly Classified Instances         977               59.7188 %
Incorrectly Classified Instances       659               40.2812 %
Kappa statistic                          0.1625
Mean absolute error                      0.4028
Root mean squared error                  0.6347
Relative absolute error                108.9865 %
Root relative squared error            147.6709 %
Coverage of cases (0.95 level)          59.7188 %
Mean rel. region size (0.95 level)      50      %
Total Number of Instances             1636     

=== Confusion Matrix ===

   a   b   <-- classified as
 728 508 |   a = NO
 151 249 |   b = YES

=== Detailed Accuracy By Class ===

                 TP Rate  FP Rate  Precision  Recall   F-Measure  MCC      ROC Area  PRC Area  Class
                 0.589    0.378    0.828      0.589    0.688      0.182    0.606     0.798     NO
                 0.623    0.411    0.329      0.623    0.430      0.182    0.606     0.297     YES
Weighted Avg.    0.597    0.386    0.706      0.597    0.625      0.182    0.606     0.676     

