Classifier...: weka.classifiers.trees.J48 -C 0.25 -M 2
Training file: C:\Users\HP\Desktop\AbdulAli\Baseline\Configuration3\dataK=12\7tr.csv

Testing file: C:\Users\HP\Desktop\AbdulAli\Baseline\Configuration3\dataK=12\7test.csv

J48 pruned tree
------------------

loc <= 223
|   cbm <= 2
|   |   ce <= 0
|   |   |   moa <= 0
|   |   |   |   loc <= 119
|   |   |   |   |   max_cc <= 1: NO (933.53/169.7)
|   |   |   |   |   max_cc > 1
|   |   |   |   |   |   cam <= 0.30719
|   |   |   |   |   |   |   cam <= 0.225: YES (7.17/1.02)
|   |   |   |   |   |   |   cam > 0.225: NO (4.1)
|   |   |   |   |   |   cam > 0.30719
|   |   |   |   |   |   |   cam <= 0.785714: NO (159.8/29.71)
|   |   |   |   |   |   |   cam > 0.785714
|   |   |   |   |   |   |   |   wmc <= 3: NO (7.17/1.02)
|   |   |   |   |   |   |   |   wmc > 3: YES (8.19/2.05)
|   |   |   |   loc > 119
|   |   |   |   |   dit <= 1
|   |   |   |   |   |   noc <= 0
|   |   |   |   |   |   |   ic <= 0: NO (102.79/38.25)
|   |   |   |   |   |   |   ic > 0
|   |   |   |   |   |   |   |   npm <= 8: NO (3.07)
|   |   |   |   |   |   |   |   npm > 8: YES (7.17/1.02)
|   |   |   |   |   |   noc > 0
|   |   |   |   |   |   |   ca <= 17: NO (2.05)
|   |   |   |   |   |   |   ca > 17: YES (7.86/1.02)
|   |   |   |   |   dit > 1
|   |   |   |   |   |   cbo <= 9
|   |   |   |   |   |   |   rfc <= 20
|   |   |   |   |   |   |   |   cbo <= 4: NO (16.39/4.1)
|   |   |   |   |   |   |   |   cbo > 4: YES (2.05)
|   |   |   |   |   |   |   rfc > 20: NO (24.58)
|   |   |   |   |   |   cbo > 9: YES (2.05)
|   |   |   moa > 0
|   |   |   |   wmc <= 1: YES (6.15/2.05)
|   |   |   |   wmc > 1: NO (164.58/12.29)
|   |   ce > 0
|   |   |   cam <= 0.45
|   |   |   |   dit <= 2
|   |   |   |   |   rfc <= 6
|   |   |   |   |   |   max_cc <= 4: NO (53.27/11.27)
|   |   |   |   |   |   max_cc > 4: YES (3.07)
|   |   |   |   |   rfc > 6
|   |   |   |   |   |   max_cc <= 1
|   |   |   |   |   |   |   amc <= 18.5
|   |   |   |   |   |   |   |   noc <= 1
|   |   |   |   |   |   |   |   |   dit <= 1
|   |   |   |   |   |   |   |   |   |   rfc <= 56
|   |   |   |   |   |   |   |   |   |   |   avg_cc <= 0.8421: NO (43.02/11.27)
|   |   |   |   |   |   |   |   |   |   |   avg_cc > 0.8421
|   |   |   |   |   |   |   |   |   |   |   |   cam <= 0.186667: NO (13.32/2.05)
|   |   |   |   |   |   |   |   |   |   |   |   cam > 0.186667
|   |   |   |   |   |   |   |   |   |   |   |   |   ce <= 6: NO (82.97/34.83)
|   |   |   |   |   |   |   |   |   |   |   |   |   ce > 6: YES (16.74/1.02)
|   |   |   |   |   |   |   |   |   |   rfc > 56: YES (9.22/1.02)
|   |   |   |   |   |   |   |   |   dit > 1
|   |   |   |   |   |   |   |   |   |   moa <= 1
|   |   |   |   |   |   |   |   |   |   |   moa <= 0
|   |   |   |   |   |   |   |   |   |   |   |   mfa <= 0.90099
|   |   |   |   |   |   |   |   |   |   |   |   |   mfa <= 0.82439
|   |   |   |   |   |   |   |   |   |   |   |   |   |   ic <= 0
|   |   |   |   |   |   |   |   |   |   |   |   |   |   |   rfc <= 11: YES (11.27/2.05)
|   |   |   |   |   |   |   |   |   |   |   |   |   |   |   rfc > 11: NO (95.26/44.05)
|   |   |   |   |   |   |   |   |   |   |   |   |   |   ic > 0
|   |   |   |   |   |   |   |   |   |   |   |   |   |   |   npm <= 7: NO (15.37/5.12)
|   |   |   |   |   |   |   |   |   |   |   |   |   |   |   npm > 7: YES (17.41/3.07)
|   |   |   |   |   |   |   |   |   |   |   |   |   mfa > 0.82439: YES (12.29/1.02)
|   |   |   |   |   |   |   |   |   |   |   |   mfa > 0.90099
|   |   |   |   |   |   |   |   |   |   |   |   |   lcom <= 9
|   |   |   |   |   |   |   |   |   |   |   |   |   |   avg_cc <= 0.3333: NO (2.05)
|   |   |   |   |   |   |   |   |   |   |   |   |   |   avg_cc > 0.3333
|   |   |   |   |   |   |   |   |   |   |   |   |   |   |   mfa <= 0.931818: YES (12.29/4.1)
|   |   |   |   |   |   |   |   |   |   |   |   |   |   |   mfa > 0.931818
|   |   |   |   |   |   |   |   |   |   |   |   |   |   |   |   mfa <= 0.934211
|   |   |   |   |   |   |   |   |   |   |   |   |   |   |   |   |   cbo <= 7: NO (2.05)
|   |   |   |   |   |   |   |   |   |   |   |   |   |   |   |   |   cbo > 7: YES (4.1/1.02)
|   |   |   |   |   |   |   |   |   |   |   |   |   |   |   |   mfa > 0.934211
|   |   |   |   |   |   |   |   |   |   |   |   |   |   |   |   |   cam <= 0.404762: YES (3.07/1.02)
|   |   |   |   |   |   |   |   |   |   |   |   |   |   |   |   |   cam > 0.404762: NO (3.07)
|   |   |   |   |   |   |   |   |   |   |   |   |   lcom > 9: NO (16.39)
|   |   |   |   |   |   |   |   |   |   |   moa > 0
|   |   |   |   |   |   |   |   |   |   |   |   ce <= 8
|   |   |   |   |   |   |   |   |   |   |   |   |   loc <= 40: YES (3.07)
|   |   |   |   |   |   |   |   |   |   |   |   |   loc > 40
|   |   |   |   |   |   |   |   |   |   |   |   |   |   cbm <= 1: NO (16.39/1.02)
|   |   |   |   |   |   |   |   |   |   |   |   |   |   cbm > 1: YES (3.07/1.02)
|   |   |   |   |   |   |   |   |   |   |   |   ce > 8: YES (6.15)
|   |   |   |   |   |   |   |   |   |   moa > 1
|   |   |   |   |   |   |   |   |   |   |   amc <= 9.62069: NO (9.22)
|   |   |   |   |   |   |   |   |   |   |   amc > 9.62069: YES (3.07/1.02)
|   |   |   |   |   |   |   |   noc > 1
|   |   |   |   |   |   |   |   |   dit <= 1
|   |   |   |   |   |   |   |   |   |   npm <= 2: NO (3.07)
|   |   |   |   |   |   |   |   |   |   npm > 2
|   |   |   |   |   |   |   |   |   |   |   lcom <= 13
|   |   |   |   |   |   |   |   |   |   |   |   cam <= 0.221739: YES (2.05)
|   |   |   |   |   |   |   |   |   |   |   |   cam > 0.221739: NO (6.15)
|   |   |   |   |   |   |   |   |   |   |   lcom > 13: YES (32.44/6.15)
|   |   |   |   |   |   |   |   |   dit > 1: NO (3.07)
|   |   |   |   |   |   |   amc > 18.5
|   |   |   |   |   |   |   |   noc <= 0
|   |   |   |   |   |   |   |   |   ca <= 1
|   |   |   |   |   |   |   |   |   |   npm <= 5
|   |   |   |   |   |   |   |   |   |   |   cbm <= 1
|   |   |   |   |   |   |   |   |   |   |   |   dit <= 1
|   |   |   |   |   |   |   |   |   |   |   |   |   dam <= 0.5: NO (11.27/4.1)
|   |   |   |   |   |   |   |   |   |   |   |   |   dam > 0.5: YES (3.07)
|   |   |   |   |   |   |   |   |   |   |   |   dit > 1: YES (4.1)
|   |   |   |   |   |   |   |   |   |   |   cbm > 1: NO (2.05)
|   |   |   |   |   |   |   |   |   |   npm > 5: NO (4.1)
|   |   |   |   |   |   |   |   |   ca > 1: YES (47.12/3.07)
|   |   |   |   |   |   |   |   noc > 0: NO (4.1/1.02)
|   |   |   |   |   |   max_cc > 1
|   |   |   |   |   |   |   moa <= 1
|   |   |   |   |   |   |   |   npm <= 8
|   |   |   |   |   |   |   |   |   lcom3 <= 0.47619
|   |   |   |   |   |   |   |   |   |   dit <= 1
|   |   |   |   |   |   |   |   |   |   |   max_cc <= 7
|   |   |   |   |   |   |   |   |   |   |   |   max_cc <= 5
|   |   |   |   |   |   |   |   |   |   |   |   |   max_cc <= 4
|   |   |   |   |   |   |   |   |   |   |   |   |   |   loc <= 76: NO (10.24/1.02)
|   |   |   |   |   |   |   |   |   |   |   |   |   |   loc > 76
|   |   |   |   |   |   |   |   |   |   |   |   |   |   |   moa <= 0
|   |   |   |   |   |   |   |   |   |   |   |   |   |   |   |   amc <= 15.857143: YES (4.1)
|   |   |   |   |   |   |   |   |   |   |   |   |   |   |   |   amc > 15.857143: NO (14.34/6.15)
|   |   |   |   |   |   |   |   |   |   |   |   |   |   |   moa > 0
|   |   |   |   |   |   |   |   |   |   |   |   |   |   |   |   rfc <= 31: NO (4.1/1.02)
|   |   |   |   |   |   |   |   |   |   |   |   |   |   |   |   rfc > 31: YES (2.05)
|   |   |   |   |   |   |   |   |   |   |   |   |   max_cc > 4: YES (2.05)
|   |   |   |   |   |   |   |   |   |   |   |   max_cc > 5: NO (7.17)
|   |   |   |   |   |   |   |   |   |   |   max_cc > 7: YES (4.1)
|   |   |   |   |   |   |   |   |   |   dit > 1
|   |   |   |   |   |   |   |   |   |   |   max_cc <= 4: YES (11.27)
|   |   |   |   |   |   |   |   |   |   |   max_cc > 4: NO (5.12/2.05)
|   |   |   |   |   |   |   |   |   lcom3 > 0.47619
|   |   |   |   |   |   |   |   |   |   ca <= 1
|   |   |   |   |   |   |   |   |   |   |   lcom <= 0
|   |   |   |   |   |   |   |   |   |   |   |   cam <= 0.3875: NO (9.22/3.07)
|   |   |   |   |   |   |   |   |   |   |   |   cam > 0.3875: YES (7.17)
|   |   |   |   |   |   |   |   |   |   |   lcom > 0
|   |   |   |   |   |   |   |   |   |   |   |   moa <= 0: NO (60.44/7.17)
|   |   |   |   |   |   |   |   |   |   |   |   moa > 0
|   |   |   |   |   |   |   |   |   |   |   |   |   lcom3 <= 0.721154
|   |   |   |   |   |   |   |   |   |   |   |   |   |   cam <= 0.275: YES (4.1)
|   |   |   |   |   |   |   |   |   |   |   |   |   |   cam > 0.275
|   |   |   |   |   |   |   |   |   |   |   |   |   |   |   amc <= 15.791667: NO (5.12)
|   |   |   |   |   |   |   |   |   |   |   |   |   |   |   amc > 15.791667
|   |   |   |   |   |   |   |   |   |   |   |   |   |   |   |   wmc <= 4: YES (2.05)
|   |   |   |   |   |   |   |   |   |   |   |   |   |   |   |   wmc > 4: NO (8.19/3.07)
|   |   |   |   |   |   |   |   |   |   |   |   |   lcom3 > 0.721154: NO (17.41/1.02)
|   |   |   |   |   |   |   |   |   |   ca > 1
|   |   |   |   |   |   |   |   |   |   |   amc <= 35: NO (131.12/38.92)
|   |   |   |   |   |   |   |   |   |   |   amc > 35: YES (6.15/1.02)
|   |   |   |   |   |   |   |   npm > 8
|   |   |   |   |   |   |   |   |   dam <= 0.6: YES (33.8/9.22)
|   |   |   |   |   |   |   |   |   dam > 0.6: NO (54.29/18.44)
|   |   |   |   |   |   |   moa > 1
|   |   |   |   |   |   |   |   avg_cc <= 2.2105
|   |   |   |   |   |   |   |   |   max_cc <= 3
|   |   |   |   |   |   |   |   |   |   noc <= 1
|   |   |   |   |   |   |   |   |   |   |   max_cc <= 2
|   |   |   |   |   |   |   |   |   |   |   |   rfc <= 15: NO (2.05)
|   |   |   |   |   |   |   |   |   |   |   |   rfc > 15
|   |   |   |   |   |   |   |   |   |   |   |   |   ic <= 0: YES (19.46/3.07)
|   |   |   |   |   |   |   |   |   |   |   |   |   ic > 0
|   |   |   |   |   |   |   |   |   |   |   |   |   |   wmc <= 11: YES (4.1)
|   |   |   |   |   |   |   |   |   |   |   |   |   |   wmc > 11: NO (2.05)
|   |   |   |   |   |   |   |   |   |   |   max_cc > 2
|   |   |   |   |   |   |   |   |   |   |   |   amc <= 17.30303: YES (11.27/2.05)
|   |   |   |   |   |   |   |   |   |   |   |   amc > 17.30303: NO (5.81/1.02)
|   |   |   |   |   |   |   |   |   |   noc > 1
|   |   |   |   |   |   |   |   |   |   |   cam <= 0.298611: YES (6.15/1.02)
|   |   |   |   |   |   |   |   |   |   |   cam > 0.298611: NO (9.22)
|   |   |   |   |   |   |   |   |   max_cc > 3
|   |   |   |   |   |   |   |   |   |   npm <= 7
|   |   |   |   |   |   |   |   |   |   |   moa <= 2: YES (3.07)
|   |   |   |   |   |   |   |   |   |   |   moa > 2
|   |   |   |   |   |   |   |   |   |   |   |   cbo <= 6: YES (3.07/1.02)
|   |   |   |   |   |   |   |   |   |   |   |   cbo > 6: NO (8.19/1.02)
|   |   |   |   |   |   |   |   |   |   npm > 7: NO (27.66/5.12)
|   |   |   |   |   |   |   |   avg_cc > 2.2105: YES (7.17)
|   |   |   |   dit > 2
|   |   |   |   |   mfa <= 0.966667
|   |   |   |   |   |   moa <= 0
|   |   |   |   |   |   |   mfa <= 0.681818
|   |   |   |   |   |   |   |   lcom <= 1: NO (4.1)
|   |   |   |   |   |   |   |   lcom > 1
|   |   |   |   |   |   |   |   |   ic <= 0
|   |   |   |   |   |   |   |   |   |   ca <= 5: YES (4.1)
|   |   |   |   |   |   |   |   |   |   ca > 5: NO (2.05)
|   |   |   |   |   |   |   |   |   ic > 0
|   |   |   |   |   |   |   |   |   |   cbm <= 1
|   |   |   |   |   |   |   |   |   |   |   wmc <= 7: NO (2.05)
|   |   |   |   |   |   |   |   |   |   |   wmc > 7: YES (3.07/1.02)
|   |   |   |   |   |   |   |   |   |   cbm > 1: YES (4.1/1.02)
|   |   |   |   |   |   |   mfa > 0.681818: NO (92.19/10.24)
|   |   |   |   |   |   moa > 0
|   |   |   |   |   |   |   mfa <= 0.567901: YES (5.12)
|   |   |   |   |   |   |   mfa > 0.567901
|   |   |   |   |   |   |   |   noc <= 4
|   |   |   |   |   |   |   |   |   mfa <= 0.886364
|   |   |   |   |   |   |   |   |   |   npm <= 6: NO (10.24)
|   |   |   |   |   |   |   |   |   |   npm > 6
|   |   |   |   |   |   |   |   |   |   |   cbo <= 5: YES (2.05)
|   |   |   |   |   |   |   |   |   |   |   cbo > 5
|   |   |   |   |   |   |   |   |   |   |   |   noc <= 0
|   |   |   |   |   |   |   |   |   |   |   |   |   loc <= 151
|   |   |   |   |   |   |   |   |   |   |   |   |   |   lcom <= 10
|   |   |   |   |   |   |   |   |   |   |   |   |   |   |   loc <= 98: NO (3.07)
|   |   |   |   |   |   |   |   |   |   |   |   |   |   |   loc > 98: YES (6.15/1.02)
|   |   |   |   |   |   |   |   |   |   |   |   |   |   lcom > 10: NO (3.07)
|   |   |   |   |   |   |   |   |   |   |   |   |   loc > 151: NO (15.37)
|   |   |   |   |   |   |   |   |   |   |   |   noc > 0
|   |   |   |   |   |   |   |   |   |   |   |   |   dit <= 3: YES (6.15/2.05)
|   |   |   |   |   |   |   |   |   |   |   |   |   dit > 3: NO (3.07)
|   |   |   |   |   |   |   |   |   mfa > 0.886364: YES (16.39/4.1)
|   |   |   |   |   |   |   |   noc > 4: NO (7.17)
|   |   |   |   |   mfa > 0.966667: YES (18.45/5.12)
|   |   |   cam > 0.45
|   |   |   |   lcom <= 43
|   |   |   |   |   ca <= 0: NO (465.4/87.07)
|   |   |   |   |   ca > 0
|   |   |   |   |   |   cbm <= 1
|   |   |   |   |   |   |   moa <= 0
|   |   |   |   |   |   |   |   npm <= 0
|   |   |   |   |   |   |   |   |   ce <= 4: NO (44.05/2.05)
|   |   |   |   |   |   |   |   |   ce > 4
|   |   |   |   |   |   |   |   |   |   loc <= 19: NO (2.05)
|   |   |   |   |   |   |   |   |   |   loc > 19: YES (5.12/1.02)
|   |   |   |   |   |   |   |   npm > 0
|   |   |   |   |   |   |   |   |   avg_cc <= 0.7273
|   |   |   |   |   |   |   |   |   |   ca <= 7
|   |   |   |   |   |   |   |   |   |   |   noc <= 0
|   |   |   |   |   |   |   |   |   |   |   |   mfa <= 0.708333
|   |   |   |   |   |   |   |   |   |   |   |   |   dit <= 1
|   |   |   |   |   |   |   |   |   |   |   |   |   |   wmc <= 4
|   |   |   |   |   |   |   |   |   |   |   |   |   |   |   npm <= 2
|   |   |   |   |   |   |   |   |   |   |   |   |   |   |   |   rfc <= 12: NO (19.46/4.1)
|   |   |   |   |   |   |   |   |   |   |   |   |   |   |   |   rfc > 12
|   |   |   |   |   |   |   |   |   |   |   |   |   |   |   |   |   lcom <= 0: NO (4.1/1.02)
|   |   |   |   |   |   |   |   |   |   |   |   |   |   |   |   |   lcom > 0: YES (9.22/1.02)
|   |   |   |   |   |   |   |   |   |   |   |   |   |   |   npm > 2: YES (18.44/6.15)
|   |   |   |   |   |   |   |   |   |   |   |   |   |   wmc > 4: NO (22.54/1.02)
|   |   |   |   |   |   |   |   |   |   |   |   |   dit > 1
|   |   |   |   |   |   |   |   |   |   |   |   |   |   amc <= 5.75: NO (4.1)
|   |   |   |   |   |   |   |   |   |   |   |   |   |   amc > 5.75: YES (16.39/3.07)
|   |   |   |   |   |   |   |   |   |   |   |   mfa > 0.708333
|   |   |   |   |   |   |   |   |   |   |   |   |   dam <= 0.125
|   |   |   |   |   |   |   |   |   |   |   |   |   |   lcom3 <= 1.767442
|   |   |   |   |   |   |   |   |   |   |   |   |   |   |   ic <= 0
|   |   |   |   |   |   |   |   |   |   |   |   |   |   |   |   lcom <= 2: YES (2.05)
|   |   |   |   |   |   |   |   |   |   |   |   |   |   |   |   lcom > 2: NO (13.32/3.07)
|   |   |   |   |   |   |   |   |   |   |   |   |   |   |   ic > 0: YES (11.27)
|   |   |   |   |   |   |   |   |   |   |   |   |   |   lcom3 > 1.767442
|   |   |   |   |   |   |   |   |   |   |   |   |   |   |   avg_cc <= 0.5833
|   |   |   |   |   |   |   |   |   |   |   |   |   |   |   |   cbo <= 4
|   |   |   |   |   |   |   |   |   |   |   |   |   |   |   |   |   ce <= 2
|   |   |   |   |   |   |   |   |   |   |   |   |   |   |   |   |   |   ic <= 0
|   |   |   |   |   |   |   |   |   |   |   |   |   |   |   |   |   |   |   ce <= 1
|   |   |   |   |   |   |   |   |   |   |   |   |   |   |   |   |   |   |   |   mfa <= 0.861538: YES (3.07)
|   |   |   |   |   |   |   |   |   |   |   |   |   |   |   |   |   |   |   |   mfa > 0.861538: NO (50.19/20.49)
|   |   |   |   |   |   |   |   |   |   |   |   |   |   |   |   |   |   |   ce > 1
|   |   |   |   |   |   |   |   |   |   |   |   |   |   |   |   |   |   |   |   wmc <= 1: YES (3.07/1.02)
|   |   |   |   |   |   |   |   |   |   |   |   |   |   |   |   |   |   |   |   wmc > 1: NO (7.17/1.02)
|   |   |   |   |   |   |   |   |   |   |   |   |   |   |   |   |   |   ic > 0
|   |   |   |   |   |   |   |   |   |   |   |   |   |   |   |   |   |   |   mfa <= 0.908257: NO (4.1)
|   |   |   |   |   |   |   |   |   |   |   |   |   |   |   |   |   |   |   mfa > 0.908257: YES (4.1)
|   |   |   |   |   |   |   |   |   |   |   |   |   |   |   |   |   ce > 2
|   |   |   |   |   |   |   |   |   |   |   |   |   |   |   |   |   |   loc <= 13: NO (12.29)
|   |   |   |   |   |   |   |   |   |   |   |   |   |   |   |   |   |   loc > 13
|   |   |   |   |   |   |   |   |   |   |   |   |   |   |   |   |   |   |   rfc <= 4: YES (5.12)
|   |   |   |   |   |   |   |   |   |   |   |   |   |   |   |   |   |   |   rfc > 4: NO (19.46/6.15)
|   |   |   |   |   |   |   |   |   |   |   |   |   |   |   |   cbo > 4
|   |   |   |   |   |   |   |   |   |   |   |   |   |   |   |   |   wmc <= 2: NO (37.9/7.17)
|   |   |   |   |   |   |   |   |   |   |   |   |   |   |   |   |   wmc > 2
|   |   |   |   |   |   |   |   |   |   |   |   |   |   |   |   |   |   mfa <= 0.964286: YES (3.07)
|   |   |   |   |   |   |   |   |   |   |   |   |   |   |   |   |   |   mfa > 0.964286: NO (15.37/2.05)
|   |   |   |   |   |   |   |   |   |   |   |   |   |   |   avg_cc > 0.5833: NO (26.63/1.02)
|   |   |   |   |   |   |   |   |   |   |   |   |   dam > 0.125: NO (38.92/5.12)
|   |   |   |   |   |   |   |   |   |   |   noc > 0: NO (43.02/7.17)
|   |   |   |   |   |   |   |   |   |   ca > 7
|   |   |   |   |   |   |   |   |   |   |   lcom3 <= 0.291667: NO (4.1)
|   |   |   |   |   |   |   |   |   |   |   lcom3 > 0.291667: YES (24.58/7.17)
|   |   |   |   |   |   |   |   |   avg_cc > 0.7273
|   |   |   |   |   |   |   |   |   |   max_cc <= 5
|   |   |   |   |   |   |   |   |   |   |   cbo <= 8: NO (482.46/95.26)
|   |   |   |   |   |   |   |   |   |   |   cbo > 8
|   |   |   |   |   |   |   |   |   |   |   |   noc <= 8
|   |   |   |   |   |   |   |   |   |   |   |   |   amc <= 28.142857
|   |   |   |   |   |   |   |   |   |   |   |   |   |   dam <= 0.75
|   |   |   |   |   |   |   |   |   |   |   |   |   |   |   max_cc <= 1
|   |   |   |   |   |   |   |   |   |   |   |   |   |   |   |   ce <= 2
|   |   |   |   |   |   |   |   |   |   |   |   |   |   |   |   |   lcom3 <= 1.692308
|   |   |   |   |   |   |   |   |   |   |   |   |   |   |   |   |   |   wmc <= 5: YES (3.07)
|   |   |   |   |   |   |   |   |   |   |   |   |   |   |   |   |   |   wmc > 5: NO (2.05)
|   |   |   |   |   |   |   |   |   |   |   |   |   |   |   |   |   lcom3 > 1.692308: NO (76.83/17.41)
|   |   |   |   |   |   |   |   |   |   |   |   |   |   |   |   ce > 2
|   |   |   |   |   |   |   |   |   |   |   |   |   |   |   |   |   avg_cc <= 0.8125: NO (7.17/1.02)
|   |   |   |   |   |   |   |   |   |   |   |   |   |   |   |   |   avg_cc > 0.8125
|   |   |   |   |   |   |   |   |   |   |   |   |   |   |   |   |   |   wmc <= 7: YES (19.46/7.17)
|   |   |   |   |   |   |   |   |   |   |   |   |   |   |   |   |   |   wmc > 7: NO (3.07)
|   |   |   |   |   |   |   |   |   |   |   |   |   |   |   max_cc > 1: NO (16.39/2.05)
|   |   |   |   |   |   |   |   |   |   |   |   |   |   dam > 0.75
|   |   |   |   |   |   |   |   |   |   |   |   |   |   |   rfc <= 7: YES (5.12)
|   |   |   |   |   |   |   |   |   |   |   |   |   |   |   rfc > 7
|   |   |   |   |   |   |   |   |   |   |   |   |   |   |   |   dit <= 1
|   |   |   |   |   |   |   |   |   |   |   |   |   |   |   |   |   npm <= 4: YES (5.12/1.02)
|   |   |   |   |   |   |   |   |   |   |   |   |   |   |   |   |   npm > 4: NO (6.15/1.02)
|   |   |   |   |   |   |   |   |   |   |   |   |   |   |   |   dit > 1: NO (5.12)
|   |   |   |   |   |   |   |   |   |   |   |   |   amc > 28.142857: YES (10.24/2.05)
|   |   |   |   |   |   |   |   |   |   |   |   noc > 8: NO (10.93)
|   |   |   |   |   |   |   |   |   |   max_cc > 5
|   |   |   |   |   |   |   |   |   |   |   ce <= 1
|   |   |   |   |   |   |   |   |   |   |   |   wmc <= 4: NO (3.07/1.02)
|   |   |   |   |   |   |   |   |   |   |   |   wmc > 4: YES (9.22)
|   |   |   |   |   |   |   |   |   |   |   ce > 1
|   |   |   |   |   |   |   |   |   |   |   |   ca <= 5
|   |   |   |   |   |   |   |   |   |   |   |   |   max_cc <= 10
|   |   |   |   |   |   |   |   |   |   |   |   |   |   ce <= 11: NO (33.8/1.02)
|   |   |   |   |   |   |   |   |   |   |   |   |   |   ce > 11: YES (5.12/2.05)
|   |   |   |   |   |   |   |   |   |   |   |   |   max_cc > 10
|   |   |   |   |   |   |   |   |   |   |   |   |   |   mfa <= 0.634615
|   |   |   |   |   |   |   |   |   |   |   |   |   |   |   dam <= 0.166667
|   |   |   |   |   |   |   |   |   |   |   |   |   |   |   |   cbo <= 8: YES (2.05)
|   |   |   |   |   |   |   |   |   |   |   |   |   |   |   |   cbo > 8: NO (3.07/1.02)
|   |   |   |   |   |   |   |   |   |   |   |   |   |   |   dam > 0.166667: NO (5.12)
|   |   |   |   |   |   |   |   |   |   |   |   |   |   mfa > 0.634615: YES (3.07)
|   |   |   |   |   |   |   |   |   |   |   |   ca > 5: YES (8.19/2.05)
|   |   |   |   |   |   |   moa > 0
|   |   |   |   |   |   |   |   dit <= 2
|   |   |   |   |   |   |   |   |   max_cc <= 0
|   |   |   |   |   |   |   |   |   |   cbo <= 3: NO (4.1)
|   |   |   |   |   |   |   |   |   |   cbo > 3
|   |   |   |   |   |   |   |   |   |   |   dit <= 1: YES (14.34/2.05)
|   |   |   |   |   |   |   |   |   |   |   dit > 1: NO (3.07/1.02)
|   |   |   |   |   |   |   |   |   max_cc > 0
|   |   |   |   |   |   |   |   |   |   ic <= 0
|   |   |   |   |   |   |   |   |   |   |   dit <= 1
|   |   |   |   |   |   |   |   |   |   |   |   lcom3 <= 0.067568: NO (19.46/3.07)
|   |   |   |   |   |   |   |   |   |   |   |   lcom3 > 0.067568
|   |   |   |   |   |   |   |   |   |   |   |   |   wmc <= 2
|   |   |   |   |   |   |   |   |   |   |   |   |   |   ca <= 2
|   |   |   |   |   |   |   |   |   |   |   |   |   |   |   moa <= 3: YES (2.05)
|   |   |   |   |   |   |   |   |   |   |   |   |   |   |   moa > 3: NO (5.12/1.02)
|   |   |   |   |   |   |   |   |   |   |   |   |   |   ca > 2: YES (4.1)
|   |   |   |   |   |   |   |   |   |   |   |   |   wmc > 2: NO (121.9/45.07)
|   |   |   |   |   |   |   |   |   |   |   dit > 1
|   |   |   |   |   |   |   |   |   |   |   |   lcom3 <= 0.447368
|   |   |   |   |   |   |   |   |   |   |   |   |   rfc <= 23
|   |   |   |   |   |   |   |   |   |   |   |   |   |   dam <= 0.75: NO (4.1/1.02)
|   |   |   |   |   |   |   |   |   |   |   |   |   |   dam > 0.75: YES (20.49/5.12)
|   |   |   |   |   |   |   |   |   |   |   |   |   rfc > 23: NO (3.07)
|   |   |   |   |   |   |   |   |   |   |   |   lcom3 > 0.447368: NO (22.54/5.12)
|   |   |   |   |   |   |   |   |   |   ic > 0
|   |   |   |   |   |   |   |   |   |   |   noc <= 0
|   |   |   |   |   |   |   |   |   |   |   |   ca <= 6
|   |   |   |   |   |   |   |   |   |   |   |   |   lcom <= 2: NO (4.1)
|   |   |   |   |   |   |   |   |   |   |   |   |   lcom > 2: YES (7.17/3.07)
|   |   |   |   |   |   |   |   |   |   |   |   ca > 6: YES (2.05)
|   |   |   |   |   |   |   |   |   |   |   noc > 0: NO (6.15)
|   |   |   |   |   |   |   |   dit > 2
|   |   |   |   |   |   |   |   |   mfa <= 0.816425: YES (3.07/1.02)
|   |   |   |   |   |   |   |   |   mfa > 0.816425
|   |   |   |   |   |   |   |   |   |   dam <= 0.25: YES (3.07/1.02)
|   |   |   |   |   |   |   |   |   |   dam > 0.25: NO (21.51)
|   |   |   |   |   |   cbm > 1
|   |   |   |   |   |   |   ic <= 1
|   |   |   |   |   |   |   |   dit <= 2: NO (29.71/10.24)
|   |   |   |   |   |   |   |   dit > 2
|   |   |   |   |   |   |   |   |   cam <= 0.575: YES (11.27/1.02)
|   |   |   |   |   |   |   |   |   cam > 0.575
|   |   |   |   |   |   |   |   |   |   lcom <= 4
|   |   |   |   |   |   |   |   |   |   |   lcom3 <= 1.692308: YES (6.15/1.02)
|   |   |   |   |   |   |   |   |   |   |   lcom3 > 1.692308
|   |   |   |   |   |   |   |   |   |   |   |   npm <= 1: NO (4.1)
|   |   |   |   |   |   |   |   |   |   |   |   npm > 1: YES (7.17/3.07)
|   |   |   |   |   |   |   |   |   |   lcom > 4: NO (2.05)
|   |   |   |   |   |   |   ic > 1
|   |   |   |   |   |   |   |   dit <= 3: NO (17.41/2.05)
|   |   |   |   |   |   |   |   dit > 3
|   |   |   |   |   |   |   |   |   ce <= 5: YES (2.05)
|   |   |   |   |   |   |   |   |   ce > 5
|   |   |   |   |   |   |   |   |   |   loc <= 50: NO (4.1)
|   |   |   |   |   |   |   |   |   |   loc > 50: YES (3.07/1.02)
|   |   |   |   lcom > 43
|   |   |   |   |   dit <= 3
|   |   |   |   |   |   ce <= 6: YES (34.83/10.24)
|   |   |   |   |   |   ce > 6: NO (2.05)
|   |   |   |   |   dit > 3: NO (3.07)
|   cbm > 2
|   |   dam <= 0.9375
|   |   |   moa <= 0
|   |   |   |   cam <= 0.326531
|   |   |   |   |   wmc <= 7: NO (6.15/1.02)
|   |   |   |   |   wmc > 7
|   |   |   |   |   |   ce <= 3
|   |   |   |   |   |   |   loc <= 166: NO (8.19/2.05)
|   |   |   |   |   |   |   loc > 166: YES (5.12)
|   |   |   |   |   |   ce > 3: YES (84.68/4.1)
|   |   |   |   cam > 0.326531
|   |   |   |   |   cbm <= 5
|   |   |   |   |   |   ic <= 2
|   |   |   |   |   |   |   ca <= 0: NO (45.07/14.34)
|   |   |   |   |   |   |   ca > 0
|   |   |   |   |   |   |   |   dit <= 4
|   |   |   |   |   |   |   |   |   ic <= 1
|   |   |   |   |   |   |   |   |   |   avg_cc <= 0.4286: YES (4.1)
|   |   |   |   |   |   |   |   |   |   avg_cc > 0.4286
|   |   |   |   |   |   |   |   |   |   |   dam <= 0.363636
|   |   |   |   |   |   |   |   |   |   |   |   max_cc <= 8: NO (35.85/11.27)
|   |   |   |   |   |   |   |   |   |   |   |   max_cc > 8: YES (2.05)
|   |   |   |   |   |   |   |   |   |   |   dam > 0.363636
|   |   |   |   |   |   |   |   |   |   |   |   cbo <= 2: NO (2.05)
|   |   |   |   |   |   |   |   |   |   |   |   cbo > 2: YES (11.27/2.05)
|   |   |   |   |   |   |   |   |   ic > 1: YES (51.22/20.49)
|   |   |   |   |   |   |   |   dit > 4
|   |   |   |   |   |   |   |   |   ca <= 3
|   |   |   |   |   |   |   |   |   |   amc <= 21.631579: YES (7.17/1.02)
|   |   |   |   |   |   |   |   |   |   amc > 21.631579: NO (2.05)
|   |   |   |   |   |   |   |   |   ca > 3: NO (9.22)
|   |   |   |   |   |   ic > 2: NO (26.31/6.16)
|   |   |   |   |   cbm > 5
|   |   |   |   |   |   dit <= 2: YES (179.26/82.97)
|   |   |   |   |   |   dit > 2
|   |   |   |   |   |   |   lcom3 <= 1.692308: YES (30.06)
|   |   |   |   |   |   |   lcom3 > 1.692308
|   |   |   |   |   |   |   |   mfa <= 0.961538: NO (28.01/8.88)
|   |   |   |   |   |   |   |   mfa > 0.961538
|   |   |   |   |   |   |   |   |   npm <= 3
|   |   |   |   |   |   |   |   |   |   lcom <= 2: YES (73.75/23.56)
|   |   |   |   |   |   |   |   |   |   lcom > 2: NO (18.44/7.17)
|   |   |   |   |   |   |   |   |   npm > 3: YES (9.22)
|   |   |   moa > 0
|   |   |   |   cbo <= 6
|   |   |   |   |   amc <= 22.043478: NO (10.24/3.07)
|   |   |   |   |   amc > 22.043478: YES (2.05)
|   |   |   |   cbo > 6: YES (74.71/5.47)
|   |   dam > 0.9375
|   |   |   dit <= 3
|   |   |   |   rfc <= 33
|   |   |   |   |   dit <= 2
|   |   |   |   |   |   loc <= 179: NO (73.42/25.61)
|   |   |   |   |   |   loc > 179: YES (10.24/1.02)
|   |   |   |   |   dit > 2
|   |   |   |   |   |   ic <= 2
|   |   |   |   |   |   |   ic <= 1
|   |   |   |   |   |   |   |   mfa <= 0.7: YES (4.1)
|   |   |   |   |   |   |   |   mfa > 0.7
|   |   |   |   |   |   |   |   |   moa <= 0
|   |   |   |   |   |   |   |   |   |   cbo <= 11: NO (12.29/3.07)
|   |   |   |   |   |   |   |   |   |   cbo > 11: YES (5.12/1.02)
|   |   |   |   |   |   |   |   |   moa > 0: NO (14.34/4.1)
|   |   |   |   |   |   |   ic > 1
|   |   |   |   |   |   |   |   max_cc <= 1
|   |   |   |   |   |   |   |   |   mfa <= 0.966667: NO (22.54/6.15)
|   |   |   |   |   |   |   |   |   mfa > 0.966667: YES (2.05)
|   |   |   |   |   |   |   |   max_cc > 1: YES (34.83/15.37)
|   |   |   |   |   |   ic > 2: NO (7.17)
|   |   |   |   rfc > 33: YES (23.56/5.12)
|   |   |   dit > 3
|   |   |   |   mfa <= 0.861789: NO (35.36/1.02)
|   |   |   |   mfa > 0.861789
|   |   |   |   |   noc <= 0
|   |   |   |   |   |   ic <= 3
|   |   |   |   |   |   |   dit <= 4: NO (57.36/11.27)
|   |   |   |   |   |   |   dit > 4
|   |   |   |   |   |   |   |   cbm <= 4: YES (5.47/0.69)
|   |   |   |   |   |   |   |   cbm > 4: NO (24.58/6.15)
|   |   |   |   |   |   ic > 3
|   |   |   |   |   |   |   loc <= 164
|   |   |   |   |   |   |   |   ce <= 8: NO (3.76)
|   |   |   |   |   |   |   |   ce > 8: YES (3.07/1.02)
|   |   |   |   |   |   |   loc > 164: YES (3.07)
|   |   |   |   |   noc > 0
|   |   |   |   |   |   dit <= 5
|   |   |   |   |   |   |   ic <= 2: YES (4.1/1.02)
|   |   |   |   |   |   |   ic > 2: NO (7.17/2.05)
|   |   |   |   |   |   dit > 5: YES (3.42)
loc > 223
|   cam <= 0.916667
|   |   ce <= 0
|   |   |   ca <= 3: NO (291.77/56.46)
|   |   |   ca > 3
|   |   |   |   ic <= 0
|   |   |   |   |   moa <= 0
|   |   |   |   |   |   loc <= 413
|   |   |   |   |   |   |   noc <= 4
|   |   |   |   |   |   |   |   cbo <= 16
|   |   |   |   |   |   |   |   |   ca <= 7: NO (18.44/4.1)
|   |   |   |   |   |   |   |   |   ca > 7
|   |   |   |   |   |   |   |   |   |   lcom <= 1
|   |   |   |   |   |   |   |   |   |   |   wmc <= 13: YES (5.12/1.02)
|   |   |   |   |   |   |   |   |   |   |   wmc > 13: NO (2.05)
|   |   |   |   |   |   |   |   |   |   lcom > 1: YES (4.1)
|   |   |   |   |   |   |   |   cbo > 16: NO (7.17)
|   |   |   |   |   |   |   noc > 4: YES (5.12/1.02)
|   |   |   |   |   |   loc > 413
|   |   |   |   |   |   |   rfc <= 78: YES (41.48/6.83)
|   |   |   |   |   |   |   rfc > 78: NO (2.4)
|   |   |   |   |   moa > 0
|   |   |   |   |   |   max_cc <= 9
|   |   |   |   |   |   |   avg_cc <= 0.9697: YES (2.05)
|   |   |   |   |   |   |   avg_cc > 0.9697: NO (30.06/2.05)
|   |   |   |   |   |   max_cc > 9
|   |   |   |   |   |   |   moa <= 2
|   |   |   |   |   |   |   |   avg_cc <= 2.1852: YES (2.05)
|   |   |   |   |   |   |   |   avg_cc > 2.1852: NO (6.16)
|   |   |   |   |   |   |   moa > 2
|   |   |   |   |   |   |   |   npm <= 28: YES (8.21)
|   |   |   |   |   |   |   |   npm > 28
|   |   |   |   |   |   |   |   |   lcom <= 946: NO (5.65)
|   |   |   |   |   |   |   |   |   lcom > 946: YES (3.8)
|   |   |   |   ic > 0
|   |   |   |   |   moa <= 3
|   |   |   |   |   |   amc <= 24.090909: NO (8.19)
|   |   |   |   |   |   amc > 24.090909
|   |   |   |   |   |   |   cbo <= 7: YES (4.1)
|   |   |   |   |   |   |   cbo > 7: NO (12.98/4.1)
|   |   |   |   |   moa > 3: YES (4.72/1.02)
|   |   ce > 0
|   |   |   amc <= 213.75
|   |   |   |   rfc <= 96
|   |   |   |   |   cbm <= 8
|   |   |   |   |   |   dit <= 2
|   |   |   |   |   |   |   rfc <= 25
|   |   |   |   |   |   |   |   wmc <= 3: NO (9.22)
|   |   |   |   |   |   |   |   wmc > 3
|   |   |   |   |   |   |   |   |   noc <= 0
|   |   |   |   |   |   |   |   |   |   amc <= 20.52
|   |   |   |   |   |   |   |   |   |   |   moa <= 2: NO (13.32)
|   |   |   |   |   |   |   |   |   |   |   moa > 2: YES (3.07/1.02)
|   |   |   |   |   |   |   |   |   |   amc > 20.52
|   |   |   |   |   |   |   |   |   |   |   moa <= 5
|   |   |   |   |   |   |   |   |   |   |   |   dit <= 1: YES (48.51/23.58)
|   |   |   |   |   |   |   |   |   |   |   |   dit > 1
|   |   |   |   |   |   |   |   |   |   |   |   |   ca <= 2
|   |   |   |   |   |   |   |   |   |   |   |   |   |   ca <= 1
|   |   |   |   |   |   |   |   |   |   |   |   |   |   |   mfa <= 0.633846
|   |   |   |   |   |   |   |   |   |   |   |   |   |   |   |   ca <= 0: NO (4.1/1.02)
|   |   |   |   |   |   |   |   |   |   |   |   |   |   |   |   ca > 0: YES (11.96/2.05)
|   |   |   |   |   |   |   |   |   |   |   |   |   |   |   mfa > 0.633846: NO (3.07)
|   |   |   |   |   |   |   |   |   |   |   |   |   |   ca > 1: YES (4.1)
|   |   |   |   |   |   |   |   |   |   |   |   |   ca > 2: NO (5.12/1.02)
|   |   |   |   |   |   |   |   |   |   |   moa > 5: NO (4.1)
|   |   |   |   |   |   |   |   |   noc > 0
|   |   |   |   |   |   |   |   |   |   lcom3 <= 0.614286: NO (7.17/2.05)
|   |   |   |   |   |   |   |   |   |   lcom3 > 0.614286: YES (3.07)
|   |   |   |   |   |   |   rfc > 25
|   |   |   |   |   |   |   |   cbo <= 5
|   |   |   |   |   |   |   |   |   max_cc <= 13
|   |   |   |   |   |   |   |   |   |   ic <= 0: NO (149.91/60.79)
|   |   |   |   |   |   |   |   |   |   ic > 0
|   |   |   |   |   |   |   |   |   |   |   npm <= 7
|   |   |   |   |   |   |   |   |   |   |   |   wmc <= 6: YES (3.07/1.02)
|   |   |   |   |   |   |   |   |   |   |   |   wmc > 6: NO (8.19)
|   |   |   |   |   |   |   |   |   |   |   npm > 7: YES (52.24/19.46)
|   |   |   |   |   |   |   |   |   max_cc > 13
|   |   |   |   |   |   |   |   |   |   ic <= 0: YES (31.05/2.42)
|   |   |   |   |   |   |   |   |   |   ic > 0
|   |   |   |   |   |   |   |   |   |   |   cbo <= 3: YES (2.05)
|   |   |   |   |   |   |   |   |   |   |   cbo > 3: NO (5.12/1.02)
|   |   |   |   |   |   |   |   cbo > 5
|   |   |   |   |   |   |   |   |   avg_cc <= 2.2468
|   |   |   |   |   |   |   |   |   |   dit <= 1: YES (405.38/133.88)
|   |   |   |   |   |   |   |   |   |   dit > 1
|   |   |   |   |   |   |   |   |   |   |   ce <= 19
|   |   |   |   |   |   |   |   |   |   |   |   cbm <= 4
|   |   |   |   |   |   |   |   |   |   |   |   |   loc <= 426
|   |   |   |   |   |   |   |   |   |   |   |   |   |   ic <= 0
|   |   |   |   |   |   |   |   |   |   |   |   |   |   |   mfa <= 0.45: NO (10.24/1.02)
|   |   |   |   |   |   |   |   |   |   |   |   |   |   |   mfa > 0.45: YES (22.54/4.1)
|   |   |   |   |   |   |   |   |   |   |   |   |   |   ic > 0
|   |   |   |   |   |   |   |   |   |   |   |   |   |   |   rfc <= 64
|   |   |   |   |   |   |   |   |   |   |   |   |   |   |   |   noc <= 0
|   |   |   |   |   |   |   |   |   |   |   |   |   |   |   |   |   amc <= 27.1: YES (74.78/8.19)
|   |   |   |   |   |   |   |   |   |   |   |   |   |   |   |   |   amc > 27.1
|   |   |   |   |   |   |   |   |   |   |   |   |   |   |   |   |   |   lcom3 <= 0.538462: YES (4.1)
|   |   |   |   |   |   |   |   |   |   |   |   |   |   |   |   |   |   lcom3 > 0.538462: NO (10.24/1.02)
|   |   |   |   |   |   |   |   |   |   |   |   |   |   |   |   noc > 0
|   |   |   |   |   |   |   |   |   |   |   |   |   |   |   |   |   ce <= 4: YES (6.15)
|   |   |   |   |   |   |   |   |   |   |   |   |   |   |   |   |   ce > 4
|   |   |   |   |   |   |   |   |   |   |   |   |   |   |   |   |   |   cbm <= 1
|   |   |   |   |   |   |   |   |   |   |   |   |   |   |   |   |   |   |   rfc <= 43: NO (3.07/1.02)
|   |   |   |   |   |   |   |   |   |   |   |   |   |   |   |   |   |   |   rfc > 43: YES (2.05)
|   |   |   |   |   |   |   |   |   |   |   |   |   |   |   |   |   |   cbm > 1: NO (7.52/2.74)
|   |   |   |   |   |   |   |   |   |   |   |   |   |   |   rfc > 64: NO (4.79)
|   |   |   |   |   |   |   |   |   |   |   |   |   loc > 426: YES (77.87/8.19)
|   |   |   |   |   |   |   |   |   |   |   |   cbm > 4: YES (187.82/62.84)
|   |   |   |   |   |   |   |   |   |   |   ce > 19
|   |   |   |   |   |   |   |   |   |   |   |   avg_cc <= 1.0645: NO (5.12)
|   |   |   |   |   |   |   |   |   |   |   |   avg_cc > 1.0645
|   |   |   |   |   |   |   |   |   |   |   |   |   ic <= 0: YES (8.19/1.02)
|   |   |   |   |   |   |   |   |   |   |   |   |   ic > 0
|   |   |   |   |   |   |   |   |   |   |   |   |   |   cbo <= 40: YES (11.27/3.07)
|   |   |   |   |   |   |   |   |   |   |   |   |   |   cbo > 40: NO (16.39/6.15)
|   |   |   |   |   |   |   |   |   avg_cc > 2.2468
|   |   |   |   |   |   |   |   |   |   dit <= 1
|   |   |   |   |   |   |   |   |   |   |   rfc <= 83
|   |   |   |   |   |   |   |   |   |   |   |   cam <= 0.185897: YES (8.88)
|   |   |   |   |   |   |   |   |   |   |   |   cam > 0.185897
|   |   |   |   |   |   |   |   |   |   |   |   |   wmc <= 18: YES (115.49/49.91)
|   |   |   |   |   |   |   |   |   |   |   |   |   wmc > 18
|   |   |   |   |   |   |   |   |   |   |   |   |   |   ce <= 1: YES (3.07/1.02)
|   |   |   |   |   |   |   |   |   |   |   |   |   |   ce > 1: NO (10.6)
|   |   |   |   |   |   |   |   |   |   |   rfc > 83: YES (11.28)
|   |   |   |   |   |   |   |   |   |   dit > 1
|   |   |   |   |   |   |   |   |   |   |   ce <= 9
|   |   |   |   |   |   |   |   |   |   |   |   ca <= 5: YES (36.4/11.62)
|   |   |   |   |   |   |   |   |   |   |   |   ca > 5: NO (6.15/1.02)
|   |   |   |   |   |   |   |   |   |   |   ce > 9
|   |   |   |   |   |   |   |   |   |   |   |   ca <= 1: NO (17.41/3.07)
|   |   |   |   |   |   |   |   |   |   |   |   ca > 1
|   |   |   |   |   |   |   |   |   |   |   |   |   noc <= 0
|   |   |   |   |   |   |   |   |   |   |   |   |   |   cam <= 0.188034: NO (2.74)
|   |   |   |   |   |   |   |   |   |   |   |   |   |   cam > 0.188034: YES (14.0/4.1)
|   |   |   |   |   |   |   |   |   |   |   |   |   noc > 0: NO (6.87/1.71)
|   |   |   |   |   |   dit > 2
|   |   |   |   |   |   |   cbm <= 4
|   |   |   |   |   |   |   |   dit <= 4
|   |   |   |   |   |   |   |   |   ca <= 0
|   |   |   |   |   |   |   |   |   |   moa <= 1
|   |   |   |   |   |   |   |   |   |   |   dam <= 0.588235: NO (25.12/1.02)
|   |   |   |   |   |   |   |   |   |   |   dam > 0.588235
|   |   |   |   |   |   |   |   |   |   |   |   ic <= 2
|   |   |   |   |   |   |   |   |   |   |   |   |   dam <= 0.944444
|   |   |   |   |   |   |   |   |   |   |   |   |   |   mfa <= 0.772152: NO (2.05)
|   |   |   |   |   |   |   |   |   |   |   |   |   |   mfa > 0.772152: YES (5.12/1.02)
|   |   |   |   |   |   |   |   |   |   |   |   |   dam > 0.944444
|   |   |   |   |   |   |   |   |   |   |   |   |   |   dit <= 3
|   |   |   |   |   |   |   |   |   |   |   |   |   |   |   mfa <= 0.733333
|   |   |   |   |   |   |   |   |   |   |   |   |   |   |   |   max_cc <= 1: YES (5.12)
|   |   |   |   |   |   |   |   |   |   |   |   |   |   |   |   max_cc > 1
|   |   |   |   |   |   |   |   |   |   |   |   |   |   |   |   |   cam <= 0.373626
|   |   |   |   |   |   |   |   |   |   |   |   |   |   |   |   |   |   ic <= 1
|   |   |   |   |   |   |   |   |   |   |   |   |   |   |   |   |   |   |   npm <= 19
|   |   |   |   |   |   |   |   |   |   |   |   |   |   |   |   |   |   |   |   cbo <= 16: YES (10.24/2.05)
|   |   |   |   |   |   |   |   |   |   |   |   |   |   |   |   |   |   |   |   cbo > 16: NO (2.05)
|   |   |   |   |   |   |   |   |   |   |   |   |   |   |   |   |   |   |   npm > 19: NO (3.07)
|   |   |   |   |   |   |   |   |   |   |   |   |   |   |   |   |   |   ic > 1: NO (2.05)
|   |   |   |   |   |   |   |   |   |   |   |   |   |   |   |   |   cam > 0.373626: NO (6.15)
|   |   |   |   |   |   |   |   |   |   |   |   |   |   |   mfa > 0.733333
|   |   |   |   |   |   |   |   |   |   |   |   |   |   |   |   max_cc <= 9: NO (39.63/4.1)
|   |   |   |   |   |   |   |   |   |   |   |   |   |   |   |   max_cc > 9
|   |   |   |   |   |   |   |   |   |   |   |   |   |   |   |   |   npm <= 8: YES (3.07)
|   |   |   |   |   |   |   |   |   |   |   |   |   |   |   |   |   npm > 8: NO (2.05)
|   |   |   |   |   |   |   |   |   |   |   |   |   |   dit > 3
|   |   |   |   |   |   |   |   |   |   |   |   |   |   |   lcom3 <= 0.842105
|   |   |   |   |   |   |   |   |   |   |   |   |   |   |   |   loc <= 602
|   |   |   |   |   |   |   |   |   |   |   |   |   |   |   |   |   max_cc <= 2: YES (4.1/1.02)
|   |   |   |   |   |   |   |   |   |   |   |   |   |   |   |   |   max_cc > 2: NO (2.05)
|   |   |   |   |   |   |   |   |   |   |   |   |   |   |   |   loc > 602: YES (4.1)
|   |   |   |   |   |   |   |   |   |   |   |   |   |   |   lcom3 > 0.842105
|   |   |   |   |   |   |   |   |   |   |   |   |   |   |   |   cbm <= 2: NO (8.19)
|   |   |   |   |   |   |   |   |   |   |   |   |   |   |   |   cbm > 2
|   |   |   |   |   |   |   |   |   |   |   |   |   |   |   |   |   amc <= 14.636364: YES (2.05)
|   |   |   |   |   |   |   |   |   |   |   |   |   |   |   |   |   amc > 14.636364: NO (6.15/1.02)
|   |   |   |   |   |   |   |   |   |   |   |   ic > 2: NO (11.27/1.02)
|   |   |   |   |   |   |   |   |   |   moa > 1
|   |   |   |   |   |   |   |   |   |   |   dit <= 3
|   |   |   |   |   |   |   |   |   |   |   |   amc <= 27.8: NO (4.1)
|   |   |   |   |   |   |   |   |   |   |   |   amc > 27.8: YES (4.1)
|   |   |   |   |   |   |   |   |   |   |   dit > 3: YES (5.12)
|   |   |   |   |   |   |   |   |   ca > 0
|   |   |   |   |   |   |   |   |   |   dit <= 3
|   |   |   |   |   |   |   |   |   |   |   rfc <= 87
|   |   |   |   |   |   |   |   |   |   |   |   cbm <= 2
|   |   |   |   |   |   |   |   |   |   |   |   |   rfc <= 41
|   |   |   |   |   |   |   |   |   |   |   |   |   |   mfa <= 0.866953
|   |   |   |   |   |   |   |   |   |   |   |   |   |   |   cbo <= 9
|   |   |   |   |   |   |   |   |   |   |   |   |   |   |   |   lcom3 <= 0.721088
|   |   |   |   |   |   |   |   |   |   |   |   |   |   |   |   |   dam <= 0.761905
|   |   |   |   |   |   |   |   |   |   |   |   |   |   |   |   |   |   cbm <= 1: YES (5.12/2.05)
|   |   |   |   |   |   |   |   |   |   |   |   |   |   |   |   |   |   cbm > 1: NO (4.1/1.02)
|   |   |   |   |   |   |   |   |   |   |   |   |   |   |   |   |   dam > 0.761905: YES (3.07)
|   |   |   |   |   |   |   |   |   |   |   |   |   |   |   |   lcom3 > 0.721088: NO (5.12)
|   |   |   |   |   |   |   |   |   |   |   |   |   |   |   cbo > 9: NO (22.54)
|   |   |   |   |   |   |   |   |   |   |   |   |   |   mfa > 0.866953
|   |   |   |   |   |   |   |   |   |   |   |   |   |   |   rfc <= 26: YES (4.1)
|   |   |   |   |   |   |   |   |   |   |   |   |   |   |   rfc > 26
|   |   |   |   |   |   |   |   |   |   |   |   |   |   |   |   cbo <= 55: NO (2.05)
|   |   |   |   |   |   |   |   |   |   |   |   |   |   |   |   cbo > 55: YES (2.05)
|   |   |   |   |   |   |   |   |   |   |   |   |   rfc > 41
|   |   |   |   |   |   |   |   |   |   |   |   |   |   avg_cc <= 1.0476: YES (7.17)
|   |   |   |   |   |   |   |   |   |   |   |   |   |   avg_cc > 1.0476
|   |   |   |   |   |   |   |   |   |   |   |   |   |   |   max_cc <= 6
|   |   |   |   |   |   |   |   |   |   |   |   |   |   |   |   noc <= 0
|   |   |   |   |   |   |   |   |   |   |   |   |   |   |   |   |   ca <= 1: NO (10.24)
|   |   |   |   |   |   |   |   |   |   |   |   |   |   |   |   |   ca > 1
|   |   |   |   |   |   |   |   |   |   |   |   |   |   |   |   |   |   dam <= 0.75: NO (2.05)
|   |   |   |   |   |   |   |   |   |   |   |   |   |   |   |   |   |   dam > 0.75
|   |   |   |   |   |   |   |   |   |   |   |   |   |   |   |   |   |   |   amc <= 22.666667: NO (3.07)
|   |   |   |   |   |   |   |   |   |   |   |   |   |   |   |   |   |   |   amc > 22.666667: YES (3.07)
|   |   |   |   |   |   |   |   |   |   |   |   |   |   |   |   noc > 0
|   |   |   |   |   |   |   |   |   |   |   |   |   |   |   |   |   amc <= 20.782609: NO (6.15/1.02)
|   |   |   |   |   |   |   |   |   |   |   |   |   |   |   |   |   amc > 20.782609: YES (7.17)
|   |   |   |   |   |   |   |   |   |   |   |   |   |   |   max_cc > 6
|   |   |   |   |   |   |   |   |   |   |   |   |   |   |   |   dam <= 0.962963: YES (6.15)
|   |   |   |   |   |   |   |   |   |   |   |   |   |   |   |   dam > 0.962963
|   |   |   |   |   |   |   |   |   |   |   |   |   |   |   |   |   noc <= 0
|   |   |   |   |   |   |   |   |   |   |   |   |   |   |   |   |   |   cbo <= 14
|   |   |   |   |   |   |   |   |   |   |   |   |   |   |   |   |   |   |   ca <= 4: YES (13.32/4.1)
|   |   |   |   |   |   |   |   |   |   |   |   |   |   |   |   |   |   |   ca > 4: NO (3.07)
|   |   |   |   |   |   |   |   |   |   |   |   |   |   |   |   |   |   cbo > 14: YES (6.15)
|   |   |   |   |   |   |   |   |   |   |   |   |   |   |   |   |   noc > 0
|   |   |   |   |   |   |   |   |   |   |   |   |   |   |   |   |   |   moa <= 1: NO (2.05)
|   |   |   |   |   |   |   |   |   |   |   |   |   |   |   |   |   |   moa > 1
|   |   |   |   |   |   |   |   |   |   |   |   |   |   |   |   |   |   |   loc <= 538: YES (2.05)
|   |   |   |   |   |   |   |   |   |   |   |   |   |   |   |   |   |   |   loc > 538: NO (3.07/1.02)
|   |   |   |   |   |   |   |   |   |   |   |   cbm > 2
|   |   |   |   |   |   |   |   |   |   |   |   |   moa <= 1
|   |   |   |   |   |   |   |   |   |   |   |   |   |   ca <= 7
|   |   |   |   |   |   |   |   |   |   |   |   |   |   |   ca <= 3
|   |   |   |   |   |   |   |   |   |   |   |   |   |   |   |   cbm <= 3
|   |   |   |   |   |   |   |   |   |   |   |   |   |   |   |   |   moa <= 0
|   |   |   |   |   |   |   |   |   |   |   |   |   |   |   |   |   |   rfc <= 39: YES (2.05)
|   |   |   |   |   |   |   |   |   |   |   |   |   |   |   |   |   |   rfc > 39: NO (5.12)
|   |   |   |   |   |   |   |   |   |   |   |   |   |   |   |   |   moa > 0: YES (8.19/1.02)
|   |   |   |   |   |   |   |   |   |   |   |   |   |   |   |   cbm > 3
|   |   |   |   |   |   |   |   |   |   |   |   |   |   |   |   |   moa <= 0
|   |   |   |   |   |   |   |   |   |   |   |   |   |   |   |   |   |   dam <= 0.25: NO (3.07/1.02)
|   |   |   |   |   |   |   |   |   |   |   |   |   |   |   |   |   |   dam > 0.25: YES (6.15)
|   |   |   |   |   |   |   |   |   |   |   |   |   |   |   |   |   moa > 0: NO (10.24/3.07)
|   |   |   |   |   |   |   |   |   |   |   |   |   |   |   ca > 3: YES (5.12)
|   |   |   |   |   |   |   |   |   |   |   |   |   |   ca > 7: NO (13.32/3.07)
|   |   |   |   |   |   |   |   |   |   |   |   |   moa > 1: YES (14.34/2.05)
|   |   |   |   |   |   |   |   |   |   |   rfc > 87: NO (11.96/1.02)
|   |   |   |   |   |   |   |   |   |   dit > 3
|   |   |   |   |   |   |   |   |   |   |   ca <= 2
|   |   |   |   |   |   |   |   |   |   |   |   cbo <= 19: YES (38.92/11.27)
|   |   |   |   |   |   |   |   |   |   |   |   cbo > 19: NO (3.07)
|   |   |   |   |   |   |   |   |   |   |   ca > 2
|   |   |   |   |   |   |   |   |   |   |   |   cbo <= 22
|   |   |   |   |   |   |   |   |   |   |   |   |   dam <= 0.896552
|   |   |   |   |   |   |   |   |   |   |   |   |   |   lcom3 <= 0.822368: NO (7.17/1.02)
|   |   |   |   |   |   |   |   |   |   |   |   |   |   lcom3 > 0.822368: YES (4.1)
|   |   |   |   |   |   |   |   |   |   |   |   |   dam > 0.896552: NO (15.37)
|   |   |   |   |   |   |   |   |   |   |   |   cbo > 22: YES (5.12)
|   |   |   |   |   |   |   |   dit > 4
|   |   |   |   |   |   |   |   |   noc <= 0
|   |   |   |   |   |   |   |   |   |   cbo <= 20: NO (28.68/1.02)
|   |   |   |   |   |   |   |   |   |   cbo > 20: YES (4.1/1.02)
|   |   |   |   |   |   |   |   |   noc > 0: YES (2.05)
|   |   |   |   |   |   |   cbm > 4
|   |   |   |   |   |   |   |   rfc <= 40
|   |   |   |   |   |   |   |   |   ce <= 5: NO (10.24)
|   |   |   |   |   |   |   |   |   ce > 5
|   |   |   |   |   |   |   |   |   |   ca <= 4
|   |   |   |   |   |   |   |   |   |   |   ca <= 0: NO (9.22/3.07)
|   |   |   |   |   |   |   |   |   |   |   ca > 0: YES (17.41/6.15)
|   |   |   |   |   |   |   |   |   |   ca > 4: NO (2.05)
|   |   |   |   |   |   |   |   rfc > 40
|   |   |   |   |   |   |   |   |   dit <= 3
|   |   |   |   |   |   |   |   |   |   noc <= 0
|   |   |   |   |   |   |   |   |   |   |   moa <= 2
|   |   |   |   |   |   |   |   |   |   |   |   cam <= 0.215805: NO (6.15/1.02)
|   |   |   |   |   |   |   |   |   |   |   |   cam > 0.215805: YES (40.64/6.15)
|   |   |   |   |   |   |   |   |   |   |   moa > 2: YES (13.32)
|   |   |   |   |   |   |   |   |   |   noc > 0: YES (6.15)
|   |   |   |   |   |   |   |   |   dit > 3
|   |   |   |   |   |   |   |   |   |   dit <= 5
|   |   |   |   |   |   |   |   |   |   |   noc <= 1: YES (43.04/14.0)
|   |   |   |   |   |   |   |   |   |   |   noc > 1
|   |   |   |   |   |   |   |   |   |   |   |   lcom <= 42: YES (2.05)
|   |   |   |   |   |   |   |   |   |   |   |   lcom > 42: NO (4.1)
|   |   |   |   |   |   |   |   |   |   dit > 5: NO (8.19/2.05)
|   |   |   |   |   cbm > 8
|   |   |   |   |   |   noc <= 2
|   |   |   |   |   |   |   lcom <= 92: YES (77.48/11.8)
|   |   |   |   |   |   |   lcom > 92
|   |   |   |   |   |   |   |   npm <= 20: NO (6.83/1.02)
|   |   |   |   |   |   |   |   npm > 20: YES (21.51/3.07)
|   |   |   |   |   |   noc > 2: YES (8.21)
|   |   |   |   rfc > 96
|   |   |   |   |   mfa <= 0.757282
|   |   |   |   |   |   dit <= 2: YES (181.67/30.0)
|   |   |   |   |   |   dit > 2
|   |   |   |   |   |   |   dit <= 3
|   |   |   |   |   |   |   |   mfa <= 0.535714
|   |   |   |   |   |   |   |   |   ic <= 2
|   |   |   |   |   |   |   |   |   |   loc <= 845: NO (5.12)
|   |   |   |   |   |   |   |   |   |   loc > 845
|   |   |   |   |   |   |   |   |   |   |   cam <= 0.194444
|   |   |   |   |   |   |   |   |   |   |   |   avg_cc <= 2.375: YES (15.56)
|   |   |   |   |   |   |   |   |   |   |   |   avg_cc > 2.375: NO (3.07/1.02)
|   |   |   |   |   |   |   |   |   |   |   cam > 0.194444
|   |   |   |   |   |   |   |   |   |   |   |   mfa <= 0.38: YES (3.07/1.02)
|   |   |   |   |   |   |   |   |   |   |   |   mfa > 0.38: NO (6.15)
|   |   |   |   |   |   |   |   |   ic > 2: NO (3.11/1.06)
|   |   |   |   |   |   |   |   mfa > 0.535714: YES (28.57/2.74)
|   |   |   |   |   |   |   dit > 3
|   |   |   |   |   |   |   |   cbo <= 27
|   |   |   |   |   |   |   |   |   ic <= 2
|   |   |   |   |   |   |   |   |   |   lcom <= 444: YES (4.67)
|   |   |   |   |   |   |   |   |   |   lcom > 444
|   |   |   |   |   |   |   |   |   |   |   rfc <= 117: NO (2.05)
|   |   |   |   |   |   |   |   |   |   |   rfc > 117: YES (4.69/1.22)
|   |   |   |   |   |   |   |   |   ic > 2
|   |   |   |   |   |   |   |   |   |   rfc <= 110: NO (4.1)
|   |   |   |   |   |   |   |   |   |   rfc > 110: YES (3.07/1.02)
|   |   |   |   |   |   |   |   cbo > 27: YES (10.95)
|   |   |   |   |   mfa > 0.757282: YES (26.63)
|   |   |   amc > 213.75: YES (62.61/1.6)
|   cam > 0.916667
|   |   dit <= 2
|   |   |   lcom <= 0: YES (4.1/1.02)
|   |   |   lcom > 0: NO (4.79/1.02)
|   |   dit > 2
|   |   |   loc <= 870: YES (92.12)
|   |   |   loc > 870
|   |   |   |   dit <= 3: YES (24.08)
|   |   |   |   dit > 3
|   |   |   |   |   lcom3 <= 1.423077: NO (13.05/1.91)
|   |   |   |   |   lcom3 > 1.423077: YES (8.1)

Number of Leaves  : 	407

Size of the tree : 	813


Correctly Classified Instances         889               31.9325 %
Incorrectly Classified Instances      1895               68.0675 %
Kappa statistic                         -0.0695
Mean absolute error                      0.622 
Root mean squared error                  0.6949
Relative absolute error                192.9525 %
Root relative squared error            173.1161 %
Coverage of cases (0.95 level)          88.3261 %
Mean rel. region size (0.95 level)      91.4511 %
Total Number of Instances             2784     

=== Confusion Matrix ===

    a    b   <-- classified as
  541 1681 |    a = NO
  214  348 |    b = YES

=== Detailed Accuracy By Class ===

                 TP Rate  FP Rate  Precision  Recall   F-Measure  MCC      ROC Area  PRC Area  Class
                 0.243    0.381    0.717      0.243    0.363      -0.124   0.428     0.758     NO
                 0.619    0.757    0.172      0.619    0.269      -0.124   0.428     0.182     YES
Weighted Avg.    0.319    0.457    0.607      0.319    0.344      -0.124   0.428     0.642     

