Classifier...: weka.classifiers.trees.J48 -C 0.25 -M 2
Training file: C:\Users\HP\Desktop\AbdulAli\Baseline\Configuration2\dataK=4\13tr.csv

Testing file: C:\Users\HP\Desktop\AbdulAli\Baseline\Configuration2\dataK=4\13test.csv

J48 pruned tree
------------------

loc <= 191
|   cbo <= 0
|   |   avg_cc <= 0.9231
|   |   |   noc <= 0
|   |   |   |   max_cc <= 0: NO (89.58/32.21)
|   |   |   |   max_cc > 0
|   |   |   |   |   avg_cc <= 0.4: YES (6.04)
|   |   |   |   |   avg_cc > 0.4
|   |   |   |   |   |   loc <= 126: NO (56.37/17.11)
|   |   |   |   |   |   loc > 126: YES (3.02)
|   |   |   noc > 0
|   |   |   |   loc <= 15: NO (3.02)
|   |   |   |   loc > 15: YES (10.07/2.01)
|   |   avg_cc > 0.9231: NO (374.42/66.43)
|   cbo > 0
|   |   ic <= 3
|   |   |   lcom3 <= 0.111111
|   |   |   |   dam <= 0.375: NO (59.38/7.05)
|   |   |   |   dam > 0.375
|   |   |   |   |   noc <= 0
|   |   |   |   |   |   cbo <= 6: NO (94.61/18.12)
|   |   |   |   |   |   cbo > 6
|   |   |   |   |   |   |   amc <= 5.6: YES (6.04)
|   |   |   |   |   |   |   amc > 5.6
|   |   |   |   |   |   |   |   wmc <= 2
|   |   |   |   |   |   |   |   |   npm <= 1: YES (2.01)
|   |   |   |   |   |   |   |   |   npm > 1
|   |   |   |   |   |   |   |   |   |   dit <= 1: NO (4.03/1.01)
|   |   |   |   |   |   |   |   |   |   dit > 1: YES (5.03/1.01)
|   |   |   |   |   |   |   |   wmc > 2
|   |   |   |   |   |   |   |   |   cam <= 0.295238
|   |   |   |   |   |   |   |   |   |   ce <= 12: YES (3.02)
|   |   |   |   |   |   |   |   |   |   ce > 12
|   |   |   |   |   |   |   |   |   |   |   rfc <= 32: NO (10.07/3.02)
|   |   |   |   |   |   |   |   |   |   |   rfc > 32: YES (3.02/1.01)
|   |   |   |   |   |   |   |   |   cam > 0.295238: NO (47.34/11.09)
|   |   |   |   |   noc > 0: NO (15.1/2.01)
|   |   |   lcom3 > 0.111111
|   |   |   |   max_cc <= 5
|   |   |   |   |   cbm <= 5
|   |   |   |   |   |   moa <= 0
|   |   |   |   |   |   |   dam <= 0.9
|   |   |   |   |   |   |   |   dam <= 0.083333
|   |   |   |   |   |   |   |   |   lcom3 <= 1.55618
|   |   |   |   |   |   |   |   |   |   mfa <= 0.972222
|   |   |   |   |   |   |   |   |   |   |   dit <= 1
|   |   |   |   |   |   |   |   |   |   |   |   npm <= 6
|   |   |   |   |   |   |   |   |   |   |   |   |   noc <= 0
|   |   |   |   |   |   |   |   |   |   |   |   |   |   wmc <= 3
|   |   |   |   |   |   |   |   |   |   |   |   |   |   |   ce <= 0
|   |   |   |   |   |   |   |   |   |   |   |   |   |   |   |   loc <= 5: NO (3.02)
|   |   |   |   |   |   |   |   |   |   |   |   |   |   |   |   loc > 5
|   |   |   |   |   |   |   |   |   |   |   |   |   |   |   |   |   cam <= 0.516667
|   |   |   |   |   |   |   |   |   |   |   |   |   |   |   |   |   |   cbo <= 4: YES (4.03/1.01)
|   |   |   |   |   |   |   |   |   |   |   |   |   |   |   |   |   |   cbo > 4: NO (2.01)
|   |   |   |   |   |   |   |   |   |   |   |   |   |   |   |   |   cam > 0.516667: YES (7.05/1.01)
|   |   |   |   |   |   |   |   |   |   |   |   |   |   |   ce > 0: NO (9.06/1.01)
|   |   |   |   |   |   |   |   |   |   |   |   |   |   wmc > 3
|   |   |   |   |   |   |   |   |   |   |   |   |   |   |   lcom3 <= 1.223684
|   |   |   |   |   |   |   |   |   |   |   |   |   |   |   |   max_cc <= 3: NO (29.19/11.07)
|   |   |   |   |   |   |   |   |   |   |   |   |   |   |   |   max_cc > 3: YES (2.01)
|   |   |   |   |   |   |   |   |   |   |   |   |   |   |   lcom3 > 1.223684: YES (6.04)
|   |   |   |   |   |   |   |   |   |   |   |   |   noc > 0: YES (4.03/1.01)
|   |   |   |   |   |   |   |   |   |   |   |   npm > 6: YES (44.29/19.12)
|   |   |   |   |   |   |   |   |   |   |   dit > 1
|   |   |   |   |   |   |   |   |   |   |   |   lcom3 <= 1.4: NO (59.38/16.1)
|   |   |   |   |   |   |   |   |   |   |   |   lcom3 > 1.4
|   |   |   |   |   |   |   |   |   |   |   |   |   noc <= 0: YES (10.07)
|   |   |   |   |   |   |   |   |   |   |   |   |   noc > 0: NO (6.04/2.01)
|   |   |   |   |   |   |   |   |   |   mfa > 0.972222: YES (20.48/2.69)
|   |   |   |   |   |   |   |   |   lcom3 > 1.55618: NO (1456.13/485.5)
|   |   |   |   |   |   |   |   dam > 0.083333
|   |   |   |   |   |   |   |   |   cam <= 0.666667
|   |   |   |   |   |   |   |   |   |   ca <= 3
|   |   |   |   |   |   |   |   |   |   |   ce <= 0: YES (6.04)
|   |   |   |   |   |   |   |   |   |   |   ce > 0
|   |   |   |   |   |   |   |   |   |   |   |   mfa <= 0.968254
|   |   |   |   |   |   |   |   |   |   |   |   |   avg_cc <= 0.5: YES (5.03/1.01)
|   |   |   |   |   |   |   |   |   |   |   |   |   avg_cc > 0.5
|   |   |   |   |   |   |   |   |   |   |   |   |   |   noc <= 0
|   |   |   |   |   |   |   |   |   |   |   |   |   |   |   loc <= 54: YES (2.01)
|   |   |   |   |   |   |   |   |   |   |   |   |   |   |   loc > 54: NO (21.14/5.03)
|   |   |   |   |   |   |   |   |   |   |   |   |   |   noc > 0
|   |   |   |   |   |   |   |   |   |   |   |   |   |   |   lcom3 <= 0.922342: YES (9.06/3.02)
|   |   |   |   |   |   |   |   |   |   |   |   |   |   |   lcom3 > 0.922342: NO (5.03/1.01)
|   |   |   |   |   |   |   |   |   |   |   |   mfa > 0.968254: YES (5.03)
|   |   |   |   |   |   |   |   |   |   ca > 3: YES (21.81/3.02)
|   |   |   |   |   |   |   |   |   cam > 0.666667: NO (4.03)
|   |   |   |   |   |   |   dam > 0.9
|   |   |   |   |   |   |   |   ca <= 0: NO (85.55/12.08)
|   |   |   |   |   |   |   |   ca > 0
|   |   |   |   |   |   |   |   |   cbm <= 1
|   |   |   |   |   |   |   |   |   |   npm <= 3
|   |   |   |   |   |   |   |   |   |   |   avg_cc <= 1.45: NO (94.61/26.17)
|   |   |   |   |   |   |   |   |   |   |   avg_cc > 1.45: YES (4.03)
|   |   |   |   |   |   |   |   |   |   npm > 3
|   |   |   |   |   |   |   |   |   |   |   ce <= 3
|   |   |   |   |   |   |   |   |   |   |   |   ce <= 0
|   |   |   |   |   |   |   |   |   |   |   |   |   lcom3 <= 0.658333
|   |   |   |   |   |   |   |   |   |   |   |   |   |   dit <= 2
|   |   |   |   |   |   |   |   |   |   |   |   |   |   |   npm <= 4: YES (4.03)
|   |   |   |   |   |   |   |   |   |   |   |   |   |   |   npm > 4
|   |   |   |   |   |   |   |   |   |   |   |   |   |   |   |   ic <= 0: NO (27.18/10.07)
|   |   |   |   |   |   |   |   |   |   |   |   |   |   |   |   ic > 0: YES (7.05/2.01)
|   |   |   |   |   |   |   |   |   |   |   |   |   |   dit > 2: NO (5.03/1.01)
|   |   |   |   |   |   |   |   |   |   |   |   |   lcom3 > 0.658333: NO (16.1/3.02)
|   |   |   |   |   |   |   |   |   |   |   |   ce > 0: NO (81.53/17.11)
|   |   |   |   |   |   |   |   |   |   |   ce > 3
|   |   |   |   |   |   |   |   |   |   |   |   mfa <= 0.696203: YES (22.14/6.04)
|   |   |   |   |   |   |   |   |   |   |   |   mfa > 0.696203: NO (16.1/3.02)
|   |   |   |   |   |   |   |   |   cbm > 1: NO (79.51/25.16)
|   |   |   |   |   |   moa > 0
|   |   |   |   |   |   |   ce <= 5
|   |   |   |   |   |   |   |   ic <= 0
|   |   |   |   |   |   |   |   |   dam <= 0.708333
|   |   |   |   |   |   |   |   |   |   noc <= 0
|   |   |   |   |   |   |   |   |   |   |   dit <= 1: NO (118.77/54.35)
|   |   |   |   |   |   |   |   |   |   |   dit > 1
|   |   |   |   |   |   |   |   |   |   |   |   dam <= 0.285714
|   |   |   |   |   |   |   |   |   |   |   |   |   rfc <= 7: NO (2.01)
|   |   |   |   |   |   |   |   |   |   |   |   |   rfc > 7
|   |   |   |   |   |   |   |   |   |   |   |   |   |   npm <= 3: NO (4.03/1.01)
|   |   |   |   |   |   |   |   |   |   |   |   |   |   npm > 3: YES (6.04/1.01)
|   |   |   |   |   |   |   |   |   |   |   |   dam > 0.285714: YES (4.03)
|   |   |   |   |   |   |   |   |   |   noc > 0
|   |   |   |   |   |   |   |   |   |   |   lcom3 <= 0.777778: NO (2.01)
|   |   |   |   |   |   |   |   |   |   |   lcom3 > 0.777778: YES (12.08/2.01)
|   |   |   |   |   |   |   |   |   dam > 0.708333
|   |   |   |   |   |   |   |   |   |   moa <= 2
|   |   |   |   |   |   |   |   |   |   |   dam <= 0.875: NO (9.06/2.01)
|   |   |   |   |   |   |   |   |   |   |   dam > 0.875
|   |   |   |   |   |   |   |   |   |   |   |   moa <= 1
|   |   |   |   |   |   |   |   |   |   |   |   |   ce <= 1
|   |   |   |   |   |   |   |   |   |   |   |   |   |   max_cc <= 1
|   |   |   |   |   |   |   |   |   |   |   |   |   |   |   lcom3 <= 0.4375: YES (2.01)
|   |   |   |   |   |   |   |   |   |   |   |   |   |   |   lcom3 > 0.4375: NO (12.08/4.03)
|   |   |   |   |   |   |   |   |   |   |   |   |   |   max_cc > 1: YES (9.06/2.01)
|   |   |   |   |   |   |   |   |   |   |   |   |   ce > 1
|   |   |   |   |   |   |   |   |   |   |   |   |   |   noc <= 2
|   |   |   |   |   |   |   |   |   |   |   |   |   |   |   ce <= 4
|   |   |   |   |   |   |   |   |   |   |   |   |   |   |   |   dit <= 1
|   |   |   |   |   |   |   |   |   |   |   |   |   |   |   |   |   noc <= 1
|   |   |   |   |   |   |   |   |   |   |   |   |   |   |   |   |   |   npm <= 2: YES (2.01)
|   |   |   |   |   |   |   |   |   |   |   |   |   |   |   |   |   |   npm > 2
|   |   |   |   |   |   |   |   |   |   |   |   |   |   |   |   |   |   |   lcom3 <= 0.291667
|   |   |   |   |   |   |   |   |   |   |   |   |   |   |   |   |   |   |   |   wmc <= 4: NO (3.02/1.01)
|   |   |   |   |   |   |   |   |   |   |   |   |   |   |   |   |   |   |   |   wmc > 4: YES (2.01)
|   |   |   |   |   |   |   |   |   |   |   |   |   |   |   |   |   |   |   lcom3 > 0.291667: NO (28.18/1.01)
|   |   |   |   |   |   |   |   |   |   |   |   |   |   |   |   |   noc > 1: YES (2.01)
|   |   |   |   |   |   |   |   |   |   |   |   |   |   |   |   dit > 1
|   |   |   |   |   |   |   |   |   |   |   |   |   |   |   |   |   lcom <= 2: YES (7.05/2.01)
|   |   |   |   |   |   |   |   |   |   |   |   |   |   |   |   |   lcom > 2: NO (18.12/6.04)
|   |   |   |   |   |   |   |   |   |   |   |   |   |   |   ce > 4: YES (8.05/3.02)
|   |   |   |   |   |   |   |   |   |   |   |   |   |   noc > 2: NO (11.07)
|   |   |   |   |   |   |   |   |   |   |   |   moa > 1
|   |   |   |   |   |   |   |   |   |   |   |   |   loc <= 174: YES (16.1/5.03)
|   |   |   |   |   |   |   |   |   |   |   |   |   loc > 174: NO (4.03)
|   |   |   |   |   |   |   |   |   |   moa > 2
|   |   |   |   |   |   |   |   |   |   |   avg_cc <= 1.0833: NO (12.08)
|   |   |   |   |   |   |   |   |   |   |   avg_cc > 1.0833: YES (2.01)
|   |   |   |   |   |   |   |   ic > 0
|   |   |   |   |   |   |   |   |   cam <= 0.431818
|   |   |   |   |   |   |   |   |   |   dit <= 1: YES (6.04/1.01)
|   |   |   |   |   |   |   |   |   |   dit > 1
|   |   |   |   |   |   |   |   |   |   |   mfa <= 0.722222
|   |   |   |   |   |   |   |   |   |   |   |   moa <= 1
|   |   |   |   |   |   |   |   |   |   |   |   |   lcom <= 4
|   |   |   |   |   |   |   |   |   |   |   |   |   |   cbm <= 4
|   |   |   |   |   |   |   |   |   |   |   |   |   |   |   rfc <= 22: YES (8.05/1.01)
|   |   |   |   |   |   |   |   |   |   |   |   |   |   |   rfc > 22: NO (9.58/1.01)
|   |   |   |   |   |   |   |   |   |   |   |   |   |   cbm > 4: NO (4.03)
|   |   |   |   |   |   |   |   |   |   |   |   |   lcom > 4: NO (5.03)
|   |   |   |   |   |   |   |   |   |   |   |   moa > 1: NO (13.08/2.01)
|   |   |   |   |   |   |   |   |   |   |   mfa > 0.722222
|   |   |   |   |   |   |   |   |   |   |   |   lcom3 <= 0.894231
|   |   |   |   |   |   |   |   |   |   |   |   |   npm <= 13: YES (12.08)
|   |   |   |   |   |   |   |   |   |   |   |   |   npm > 13: NO (5.03/2.01)
|   |   |   |   |   |   |   |   |   |   |   |   lcom3 > 0.894231: NO (8.05/2.01)
|   |   |   |   |   |   |   |   |   cam > 0.431818: NO (29.19/3.02)
|   |   |   |   |   |   |   ce > 5
|   |   |   |   |   |   |   |   ce <= 13
|   |   |   |   |   |   |   |   |   ic <= 1
|   |   |   |   |   |   |   |   |   |   dit <= 2
|   |   |   |   |   |   |   |   |   |   |   dam <= 0.263158
|   |   |   |   |   |   |   |   |   |   |   |   ce <= 7
|   |   |   |   |   |   |   |   |   |   |   |   |   moa <= 1: NO (14.09/5.03)
|   |   |   |   |   |   |   |   |   |   |   |   |   moa > 1: YES (5.03/1.01)
|   |   |   |   |   |   |   |   |   |   |   |   ce > 7: NO (3.02)
|   |   |   |   |   |   |   |   |   |   |   dam > 0.263158
|   |   |   |   |   |   |   |   |   |   |   |   lcom3 <= 0.59: YES (14.09)
|   |   |   |   |   |   |   |   |   |   |   |   lcom3 > 0.59
|   |   |   |   |   |   |   |   |   |   |   |   |   cbo <= 7: NO (6.04/1.01)
|   |   |   |   |   |   |   |   |   |   |   |   |   cbo > 7: YES (27.18/6.04)
|   |   |   |   |   |   |   |   |   |   dit > 2
|   |   |   |   |   |   |   |   |   |   |   avg_cc <= 1.0408
|   |   |   |   |   |   |   |   |   |   |   |   max_cc <= 1
|   |   |   |   |   |   |   |   |   |   |   |   |   lcom3 <= 0.944444: NO (11.07/4.03)
|   |   |   |   |   |   |   |   |   |   |   |   |   lcom3 > 0.944444: YES (2.01)
|   |   |   |   |   |   |   |   |   |   |   |   max_cc > 1: YES (5.03/1.01)
|   |   |   |   |   |   |   |   |   |   |   avg_cc > 1.0408: NO (12.08)
|   |   |   |   |   |   |   |   |   ic > 1
|   |   |   |   |   |   |   |   |   |   moa <= 1
|   |   |   |   |   |   |   |   |   |   |   cbo <= 10
|   |   |   |   |   |   |   |   |   |   |   |   ce <= 8: YES (15.79/4.7)
|   |   |   |   |   |   |   |   |   |   |   |   ce > 8: NO (3.02)
|   |   |   |   |   |   |   |   |   |   |   cbo > 10: YES (11.07)
|   |   |   |   |   |   |   |   |   |   moa > 1
|   |   |   |   |   |   |   |   |   |   |   wmc <= 8: NO (4.03/1.01)
|   |   |   |   |   |   |   |   |   |   |   wmc > 8: YES (2.01)
|   |   |   |   |   |   |   |   ce > 13: NO (15.1/3.02)
|   |   |   |   |   cbm > 5
|   |   |   |   |   |   dam <= 0.928571
|   |   |   |   |   |   |   ca <= 1
|   |   |   |   |   |   |   |   lcom3 <= 1.55618
|   |   |   |   |   |   |   |   |   lcom3 <= 0.525: NO (4.03)
|   |   |   |   |   |   |   |   |   lcom3 > 0.525
|   |   |   |   |   |   |   |   |   |   wmc <= 4
|   |   |   |   |   |   |   |   |   |   |   cbm <= 12: YES (41.94/11.07)
|   |   |   |   |   |   |   |   |   |   |   cbm > 12: NO (5.71/1.01)
|   |   |   |   |   |   |   |   |   |   wmc > 4: YES (11.76/1.35)
|   |   |   |   |   |   |   |   lcom3 > 1.55618: NO (222.46/88.24)
|   |   |   |   |   |   |   ca > 1: YES (58.06/15.1)
|   |   |   |   |   |   dam > 0.928571: NO (87.57/29.19)
|   |   |   |   max_cc > 5
|   |   |   |   |   ca <= 14
|   |   |   |   |   |   dam <= 0.769231
|   |   |   |   |   |   |   moa <= 0
|   |   |   |   |   |   |   |   noc <= 1
|   |   |   |   |   |   |   |   |   noc <= 0
|   |   |   |   |   |   |   |   |   |   dam <= 0.214286: NO (61.4/28.18)
|   |   |   |   |   |   |   |   |   |   dam > 0.214286: YES (16.45/3.7)
|   |   |   |   |   |   |   |   |   noc > 0
|   |   |   |   |   |   |   |   |   |   dam <= 0.25: YES (4.03)
|   |   |   |   |   |   |   |   |   |   dam > 0.25: NO (3.02/1.01)
|   |   |   |   |   |   |   |   noc > 1
|   |   |   |   |   |   |   |   |   lcom3 <= 1.25: YES (2.01)
|   |   |   |   |   |   |   |   |   lcom3 > 1.25: NO (6.04)
|   |   |   |   |   |   |   moa > 0: YES (29.87/8.05)
|   |   |   |   |   |   dam > 0.769231: NO (70.46/27.18)
|   |   |   |   |   ca > 14: YES (12.08/1.01)
|   |   ic > 3
|   |   |   dam <= 0.9: YES (14.77/2.01)
|   |   |   dam > 0.9
|   |   |   |   loc <= 164: NO (9.07/3.37)
|   |   |   |   loc > 164: YES (2.01)
loc > 191
|   wmc <= 2
|   |   ic <= 0: YES (90.95/6.38)
|   |   ic > 0: NO (6.04/1.01)
|   wmc > 2
|   |   amc <= 212
|   |   |   cbm <= 8
|   |   |   |   wmc <= 46
|   |   |   |   |   cbo <= 7
|   |   |   |   |   |   mfa <= 0.934426
|   |   |   |   |   |   |   dit <= 2
|   |   |   |   |   |   |   |   ce <= 1
|   |   |   |   |   |   |   |   |   wmc <= 17
|   |   |   |   |   |   |   |   |   |   max_cc <= 6
|   |   |   |   |   |   |   |   |   |   |   lcom3 <= 0.2: NO (7.05)
|   |   |   |   |   |   |   |   |   |   |   lcom3 > 0.2
|   |   |   |   |   |   |   |   |   |   |   |   cam <= 0.62963
|   |   |   |   |   |   |   |   |   |   |   |   |   amc <= 17.621622: NO (14.09/2.01)
|   |   |   |   |   |   |   |   |   |   |   |   |   amc > 17.621622
|   |   |   |   |   |   |   |   |   |   |   |   |   |   cbo <= 6: YES (50.33/20.13)
|   |   |   |   |   |   |   |   |   |   |   |   |   |   cbo > 6: NO (3.02)
|   |   |   |   |   |   |   |   |   |   |   |   cam > 0.62963: NO (6.04)
|   |   |   |   |   |   |   |   |   |   max_cc > 6: NO (69.45/11.07)
|   |   |   |   |   |   |   |   |   wmc > 17
|   |   |   |   |   |   |   |   |   |   moa <= 4
|   |   |   |   |   |   |   |   |   |   |   ce <= 0: YES (40.26/15.1)
|   |   |   |   |   |   |   |   |   |   |   ce > 0
|   |   |   |   |   |   |   |   |   |   |   |   dam <= 0.071429: NO (4.03)
|   |   |   |   |   |   |   |   |   |   |   |   dam > 0.071429
|   |   |   |   |   |   |   |   |   |   |   |   |   moa <= 0: YES (13.08/4.03)
|   |   |   |   |   |   |   |   |   |   |   |   |   moa > 0
|   |   |   |   |   |   |   |   |   |   |   |   |   |   cbo <= 2: YES (2.01)
|   |   |   |   |   |   |   |   |   |   |   |   |   |   cbo > 2: NO (10.07/3.02)
|   |   |   |   |   |   |   |   |   |   moa > 4: NO (6.04)
|   |   |   |   |   |   |   |   ce > 1
|   |   |   |   |   |   |   |   |   noc <= 0
|   |   |   |   |   |   |   |   |   |   dit <= 1
|   |   |   |   |   |   |   |   |   |   |   max_cc <= 9
|   |   |   |   |   |   |   |   |   |   |   |   ic <= 0
|   |   |   |   |   |   |   |   |   |   |   |   |   max_cc <= 7
|   |   |   |   |   |   |   |   |   |   |   |   |   |   cbo <= 5
|   |   |   |   |   |   |   |   |   |   |   |   |   |   |   loc <= 550: NO (67.44/24.16)
|   |   |   |   |   |   |   |   |   |   |   |   |   |   |   loc > 550: YES (9.06)
|   |   |   |   |   |   |   |   |   |   |   |   |   |   cbo > 5
|   |   |   |   |   |   |   |   |   |   |   |   |   |   |   rfc <= 13: NO (4.03)
|   |   |   |   |   |   |   |   |   |   |   |   |   |   |   rfc > 13: YES (44.29/15.1)
|   |   |   |   |   |   |   |   |   |   |   |   |   max_cc > 7
|   |   |   |   |   |   |   |   |   |   |   |   |   |   rfc <= 40: YES (3.02)
|   |   |   |   |   |   |   |   |   |   |   |   |   |   rfc > 40: NO (18.12/1.01)
|   |   |   |   |   |   |   |   |   |   |   |   ic > 0: NO (8.05/1.01)
|   |   |   |   |   |   |   |   |   |   |   max_cc > 9
|   |   |   |   |   |   |   |   |   |   |   |   avg_cc <= 1.5238: NO (4.03)
|   |   |   |   |   |   |   |   |   |   |   |   avg_cc > 1.5238
|   |   |   |   |   |   |   |   |   |   |   |   |   wmc <= 45
|   |   |   |   |   |   |   |   |   |   |   |   |   |   cbo <= 5
|   |   |   |   |   |   |   |   |   |   |   |   |   |   |   wmc <= 7: NO (4.03/1.01)
|   |   |   |   |   |   |   |   |   |   |   |   |   |   |   wmc > 7: YES (33.89/2.01)
|   |   |   |   |   |   |   |   |   |   |   |   |   |   cbo > 5
|   |   |   |   |   |   |   |   |   |   |   |   |   |   |   lcom <= 27: YES (9.06/2.01)
|   |   |   |   |   |   |   |   |   |   |   |   |   |   |   lcom > 27: NO (5.03)
|   |   |   |   |   |   |   |   |   |   |   |   |   wmc > 45: NO (3.02)
|   |   |   |   |   |   |   |   |   |   dit > 1
|   |   |   |   |   |   |   |   |   |   |   cbo <= 6
|   |   |   |   |   |   |   |   |   |   |   |   max_cc <= 10
|   |   |   |   |   |   |   |   |   |   |   |   |   moa <= 2
|   |   |   |   |   |   |   |   |   |   |   |   |   |   ce <= 5
|   |   |   |   |   |   |   |   |   |   |   |   |   |   |   cam <= 0.2375: NO (10.07/1.01)
|   |   |   |   |   |   |   |   |   |   |   |   |   |   |   cam > 0.2375
|   |   |   |   |   |   |   |   |   |   |   |   |   |   |   |   max_cc <= 1
|   |   |   |   |   |   |   |   |   |   |   |   |   |   |   |   |   wmc <= 9
|   |   |   |   |   |   |   |   |   |   |   |   |   |   |   |   |   |   lcom3 <= 0.5: NO (2.01)
|   |   |   |   |   |   |   |   |   |   |   |   |   |   |   |   |   |   lcom3 > 0.5: YES (3.02)
|   |   |   |   |   |   |   |   |   |   |   |   |   |   |   |   |   wmc > 9: NO (3.02)
|   |   |   |   |   |   |   |   |   |   |   |   |   |   |   |   max_cc > 1: YES (39.25/12.08)
|   |   |   |   |   |   |   |   |   |   |   |   |   |   ce > 5: YES (7.05)
|   |   |   |   |   |   |   |   |   |   |   |   |   moa > 2: NO (8.05/2.01)
|   |   |   |   |   |   |   |   |   |   |   |   max_cc > 10: NO (11.07/1.01)
|   |   |   |   |   |   |   |   |   |   |   cbo > 6: NO (13.08/2.01)
|   |   |   |   |   |   |   |   |   noc > 0
|   |   |   |   |   |   |   |   |   |   ca <= 1: YES (3.02)
|   |   |   |   |   |   |   |   |   |   ca > 1
|   |   |   |   |   |   |   |   |   |   |   noc <= 2
|   |   |   |   |   |   |   |   |   |   |   |   max_cc <= 5
|   |   |   |   |   |   |   |   |   |   |   |   |   dit <= 1
|   |   |   |   |   |   |   |   |   |   |   |   |   |   wmc <= 10: YES (4.03/1.01)
|   |   |   |   |   |   |   |   |   |   |   |   |   |   wmc > 10: NO (2.01)
|   |   |   |   |   |   |   |   |   |   |   |   |   dit > 1: YES (4.03)
|   |   |   |   |   |   |   |   |   |   |   |   max_cc > 5: NO (12.08/3.02)
|   |   |   |   |   |   |   |   |   |   |   noc > 2: YES (2.01)
|   |   |   |   |   |   |   dit > 2
|   |   |   |   |   |   |   |   max_cc <= 6: NO (93.61/20.13)
|   |   |   |   |   |   |   |   max_cc > 6
|   |   |   |   |   |   |   |   |   cbo <= 6
|   |   |   |   |   |   |   |   |   |   dit <= 4
|   |   |   |   |   |   |   |   |   |   |   dit <= 3
|   |   |   |   |   |   |   |   |   |   |   |   rfc <= 38: NO (4.03)
|   |   |   |   |   |   |   |   |   |   |   |   rfc > 38: YES (3.02)
|   |   |   |   |   |   |   |   |   |   |   dit > 3
|   |   |   |   |   |   |   |   |   |   |   |   wmc <= 25: YES (2.01)
|   |   |   |   |   |   |   |   |   |   |   |   wmc > 25: NO (3.02/1.01)
|   |   |   |   |   |   |   |   |   |   dit > 4: NO (2.01)
|   |   |   |   |   |   |   |   |   cbo > 6: YES (7.05/1.01)
|   |   |   |   |   |   mfa > 0.934426
|   |   |   |   |   |   |   noc <= 0
|   |   |   |   |   |   |   |   ce <= 3
|   |   |   |   |   |   |   |   |   dam <= 0.88
|   |   |   |   |   |   |   |   |   |   loc <= 273: NO (8.05)
|   |   |   |   |   |   |   |   |   |   loc > 273: YES (53.35/14.09)
|   |   |   |   |   |   |   |   |   dam > 0.88
|   |   |   |   |   |   |   |   |   |   mfa <= 0.974359: YES (23.15/1.01)
|   |   |   |   |   |   |   |   |   |   mfa > 0.974359: NO (3.02/1.01)
|   |   |   |   |   |   |   |   ce > 3: NO (5.03/1.01)
|   |   |   |   |   |   |   noc > 0: YES (7.05)
|   |   |   |   |   cbo > 7
|   |   |   |   |   |   dit <= 2
|   |   |   |   |   |   |   dit <= 1
|   |   |   |   |   |   |   |   noc <= 2
|   |   |   |   |   |   |   |   |   cam <= 0.5625: YES (373.42/120.78)
|   |   |   |   |   |   |   |   |   cam > 0.5625
|   |   |   |   |   |   |   |   |   |   cbo <= 14: NO (15.1/2.01)
|   |   |   |   |   |   |   |   |   |   cbo > 14: YES (3.02)
|   |   |   |   |   |   |   |   noc > 2
|   |   |   |   |   |   |   |   |   max_cc <= 18: NO (26.17/11.07)
|   |   |   |   |   |   |   |   |   max_cc > 18: YES (5.03)
|   |   |   |   |   |   |   dit > 1
|   |   |   |   |   |   |   |   npm <= 15
|   |   |   |   |   |   |   |   |   cbo <= 12
|   |   |   |   |   |   |   |   |   |   amc <= 70.375
|   |   |   |   |   |   |   |   |   |   |   wmc <= 7: NO (6.04/1.01)
|   |   |   |   |   |   |   |   |   |   |   wmc > 7
|   |   |   |   |   |   |   |   |   |   |   |   ca <= 7
|   |   |   |   |   |   |   |   |   |   |   |   |   lcom3 <= 0.607143
|   |   |   |   |   |   |   |   |   |   |   |   |   |   moa <= 1: YES (7.05/2.01)
|   |   |   |   |   |   |   |   |   |   |   |   |   |   moa > 1: NO (3.02)
|   |   |   |   |   |   |   |   |   |   |   |   |   lcom3 > 0.607143: YES (29.19/2.01)
|   |   |   |   |   |   |   |   |   |   |   |   ca > 7: NO (5.03/1.01)
|   |   |   |   |   |   |   |   |   |   amc > 70.375: NO (6.04/1.01)
|   |   |   |   |   |   |   |   |   cbo > 12: YES (46.3/5.03)
|   |   |   |   |   |   |   |   npm > 15
|   |   |   |   |   |   |   |   |   cbo <= 10: YES (13.08/1.01)
|   |   |   |   |   |   |   |   |   cbo > 10
|   |   |   |   |   |   |   |   |   |   rfc <= 145: NO (67.44/30.2)
|   |   |   |   |   |   |   |   |   |   rfc > 145: YES (6.04)
|   |   |   |   |   |   dit > 2
|   |   |   |   |   |   |   amc <= 83.565217
|   |   |   |   |   |   |   |   lcom <= 3
|   |   |   |   |   |   |   |   |   cbm <= 5
|   |   |   |   |   |   |   |   |   |   ca <= 3
|   |   |   |   |   |   |   |   |   |   |   ca <= 2: NO (48.31/12.08)
|   |   |   |   |   |   |   |   |   |   |   ca > 2
|   |   |   |   |   |   |   |   |   |   |   |   lcom3 <= 0.653409: YES (4.03)
|   |   |   |   |   |   |   |   |   |   |   |   lcom3 > 0.653409: NO (3.02/1.01)
|   |   |   |   |   |   |   |   |   |   ca > 3: NO (28.18/2.01)
|   |   |   |   |   |   |   |   |   cbm > 5
|   |   |   |   |   |   |   |   |   |   ic <= 1: YES (12.08/4.03)
|   |   |   |   |   |   |   |   |   |   ic > 1
|   |   |   |   |   |   |   |   |   |   |   dam <= 0.421053: YES (2.01)
|   |   |   |   |   |   |   |   |   |   |   dam > 0.421053
|   |   |   |   |   |   |   |   |   |   |   |   dam <= 0.722222: NO (4.03/1.01)
|   |   |   |   |   |   |   |   |   |   |   |   dam > 0.722222
|   |   |   |   |   |   |   |   |   |   |   |   |   ca <= 1: YES (17.11/5.03)
|   |   |   |   |   |   |   |   |   |   |   |   |   ca > 1
|   |   |   |   |   |   |   |   |   |   |   |   |   |   ca <= 33: NO (14.09/2.01)
|   |   |   |   |   |   |   |   |   |   |   |   |   |   ca > 33: YES (2.01)
|   |   |   |   |   |   |   |   lcom > 3
|   |   |   |   |   |   |   |   |   cbm <= 5
|   |   |   |   |   |   |   |   |   |   rfc <= 63
|   |   |   |   |   |   |   |   |   |   |   max_cc <= 12
|   |   |   |   |   |   |   |   |   |   |   |   mfa <= 0.75
|   |   |   |   |   |   |   |   |   |   |   |   |   npm <= 9
|   |   |   |   |   |   |   |   |   |   |   |   |   |   amc <= 31.1: YES (4.03)
|   |   |   |   |   |   |   |   |   |   |   |   |   |   amc > 31.1: NO (3.02/1.01)
|   |   |   |   |   |   |   |   |   |   |   |   |   npm > 9: NO (37.24/8.05)
|   |   |   |   |   |   |   |   |   |   |   |   mfa > 0.75: YES (82.53/35.23)
|   |   |   |   |   |   |   |   |   |   |   max_cc > 12
|   |   |   |   |   |   |   |   |   |   |   |   cbm <= 4: NO (12.08)
|   |   |   |   |   |   |   |   |   |   |   |   cbm > 4
|   |   |   |   |   |   |   |   |   |   |   |   |   loc <= 329: NO (2.01)
|   |   |   |   |   |   |   |   |   |   |   |   |   loc > 329: YES (2.01)
|   |   |   |   |   |   |   |   |   |   rfc > 63
|   |   |   |   |   |   |   |   |   |   |   cbm <= 4
|   |   |   |   |   |   |   |   |   |   |   |   dit <= 3
|   |   |   |   |   |   |   |   |   |   |   |   |   moa <= 0: YES (17.11/3.02)
|   |   |   |   |   |   |   |   |   |   |   |   |   moa > 0
|   |   |   |   |   |   |   |   |   |   |   |   |   |   wmc <= 27
|   |   |   |   |   |   |   |   |   |   |   |   |   |   |   cbm <= 3
|   |   |   |   |   |   |   |   |   |   |   |   |   |   |   |   ce <= 16
|   |   |   |   |   |   |   |   |   |   |   |   |   |   |   |   |   ca <= 1
|   |   |   |   |   |   |   |   |   |   |   |   |   |   |   |   |   |   rfc <= 68: NO (2.01)
|   |   |   |   |   |   |   |   |   |   |   |   |   |   |   |   |   |   rfc > 68
|   |   |   |   |   |   |   |   |   |   |   |   |   |   |   |   |   |   |   cam <= 0.199301: NO (3.02/1.01)
|   |   |   |   |   |   |   |   |   |   |   |   |   |   |   |   |   |   |   cam > 0.199301: YES (8.05)
|   |   |   |   |   |   |   |   |   |   |   |   |   |   |   |   |   ca > 1: YES (5.03)
|   |   |   |   |   |   |   |   |   |   |   |   |   |   |   |   ce > 16: NO (4.03)
|   |   |   |   |   |   |   |   |   |   |   |   |   |   |   cbm > 3: YES (6.04)
|   |   |   |   |   |   |   |   |   |   |   |   |   |   wmc > 27
|   |   |   |   |   |   |   |   |   |   |   |   |   |   |   moa <= 2
|   |   |   |   |   |   |   |   |   |   |   |   |   |   |   |   cbo <= 28
|   |   |   |   |   |   |   |   |   |   |   |   |   |   |   |   |   cam <= 0.194444: YES (3.02)
|   |   |   |   |   |   |   |   |   |   |   |   |   |   |   |   |   cam > 0.194444
|   |   |   |   |   |   |   |   |   |   |   |   |   |   |   |   |   |   lcom3 <= 0.912458: YES (3.02/1.01)
|   |   |   |   |   |   |   |   |   |   |   |   |   |   |   |   |   |   lcom3 > 0.912458: NO (2.01)
|   |   |   |   |   |   |   |   |   |   |   |   |   |   |   |   cbo > 28: NO (2.01)
|   |   |   |   |   |   |   |   |   |   |   |   |   |   |   moa > 2: NO (8.05/1.01)
|   |   |   |   |   |   |   |   |   |   |   |   dit > 3
|   |   |   |   |   |   |   |   |   |   |   |   |   ca <= 5
|   |   |   |   |   |   |   |   |   |   |   |   |   |   wmc <= 17
|   |   |   |   |   |   |   |   |   |   |   |   |   |   |   dam <= 0.625: YES (2.01)
|   |   |   |   |   |   |   |   |   |   |   |   |   |   |   dam > 0.625: NO (3.02)
|   |   |   |   |   |   |   |   |   |   |   |   |   |   wmc > 17: YES (20.13/1.01)
|   |   |   |   |   |   |   |   |   |   |   |   |   ca > 5: NO (2.01)
|   |   |   |   |   |   |   |   |   |   |   cbm > 4: NO (5.03/1.01)
|   |   |   |   |   |   |   |   |   cbm > 5
|   |   |   |   |   |   |   |   |   |   dit <= 3
|   |   |   |   |   |   |   |   |   |   |   cbo <= 27: YES (25.16/1.01)
|   |   |   |   |   |   |   |   |   |   |   cbo > 27
|   |   |   |   |   |   |   |   |   |   |   |   ca <= 5
|   |   |   |   |   |   |   |   |   |   |   |   |   cbm <= 6: NO (8.05/3.02)
|   |   |   |   |   |   |   |   |   |   |   |   |   cbm > 6: YES (6.04)
|   |   |   |   |   |   |   |   |   |   |   |   ca > 5: NO (3.02)
|   |   |   |   |   |   |   |   |   |   dit > 3
|   |   |   |   |   |   |   |   |   |   |   lcom <= 53
|   |   |   |   |   |   |   |   |   |   |   |   npm <= 14: YES (29.87/7.72)
|   |   |   |   |   |   |   |   |   |   |   |   npm > 14: NO (2.01)
|   |   |   |   |   |   |   |   |   |   |   lcom > 53: NO (7.05)
|   |   |   |   |   |   |   amc > 83.565217
|   |   |   |   |   |   |   |   cam <= 0.527778: YES (35.23/3.02)
|   |   |   |   |   |   |   |   cam > 0.527778
|   |   |   |   |   |   |   |   |   loc <= 530: YES (2.01)
|   |   |   |   |   |   |   |   |   loc > 530: NO (5.03/1.01)
|   |   |   |   wmc > 46: YES (162.4/37.24)
|   |   |   cbm > 8
|   |   |   |   ca <= 0
|   |   |   |   |   dam <= 0.578947: YES (2.01)
|   |   |   |   |   dam > 0.578947
|   |   |   |   |   |   dam <= 0.833333: NO (4.03/1.01)
|   |   |   |   |   |   dam > 0.833333
|   |   |   |   |   |   |   dit <= 3
|   |   |   |   |   |   |   |   amc <= 56.571429: YES (4.03)
|   |   |   |   |   |   |   |   amc > 56.571429: NO (2.01)
|   |   |   |   |   |   |   dit > 3: NO (9.62/3.06)
|   |   |   |   ca > 0: YES (207.97/37.26)
|   |   amc > 212
|   |   |   loc <= 962: NO (13.08/1.01)
|   |   |   loc > 962
|   |   |   |   lcom <= 5
|   |   |   |   |   amc <= 620.5: YES (34.22/2.01)
|   |   |   |   |   amc > 620.5: NO (12.8/1.68)
|   |   |   |   lcom > 5: YES (103.78)

Number of Leaves  : 	248

Size of the tree : 	495


Correctly Classified Instances        1334               40.5348 %
Incorrectly Classified Instances      1957               59.4652 %
Kappa statistic                         -0.136 
Mean absolute error                      0.5413
Root mean squared error                  0.6026
Relative absolute error                115.2611 %
Root relative squared error            124.356  %
Coverage of cases (0.95 level)          96.9614 %
Mean rel. region size (0.95 level)      96.7943 %
Total Number of Instances             3291     

=== Confusion Matrix ===

    a    b   <-- classified as
  713 1338 |    a = NO
  619  621 |    b = YES

=== Detailed Accuracy By Class ===

                 TP Rate  FP Rate  Precision  Recall   F-Measure  MCC      ROC Area  PRC Area  Class
                 0.348    0.499    0.535      0.348    0.422      -0.150   0.429     0.580     NO
                 0.501    0.652    0.317      0.501    0.388      -0.150   0.429     0.344     YES
Weighted Avg.    0.405    0.557    0.453      0.405    0.409      -0.150   0.429     0.491     

