Classifier...: weka.classifiers.trees.J48 -C 0.25 -M 2
Training file: C:\Users\HP\Desktop\AbdulAli\Camruz\Configuration3\dataK=5\14tr.csv

Testing file: C:\Users\HP\Desktop\AbdulAli\Camruz\Configuration3\dataK=5\14test.csv

J48 pruned tree
------------------

ce <= 0.223144
|   moa <= 1.386294
|   |   max_cc <= 1.673976: NO (1197.0/140.0)
|   |   max_cc > 1.673976
|   |   |   noc <= 0
|   |   |   |   ca <= 2.197225
|   |   |   |   |   cbm <= 1.94591: NO (106.0/21.0)
|   |   |   |   |   cbm > 1.94591
|   |   |   |   |   |   moa <= 0: NO (4.0/1.0)
|   |   |   |   |   |   moa > 0: YES (3.0)
|   |   |   |   ca > 2.197225
|   |   |   |   |   rfc <= 3.947741: YES (18.0/6.0)
|   |   |   |   |   rfc > 3.947741: NO (7.0)
|   |   |   noc > 0
|   |   |   |   cam <= 0.233111
|   |   |   |   |   lcom <= 5.841472: YES (5.0)
|   |   |   |   |   lcom > 5.841472: NO (3.0/1.0)
|   |   |   |   cam > 0.233111: NO (4.0)
|   moa > 1.386294
|   |   rfc <= 4.815505
|   |   |   ca <= 1.386294
|   |   |   |   lcom3 <= 0.495296: YES (4.0/1.0)
|   |   |   |   lcom3 > 0.495296: NO (20.0)
|   |   |   ca > 1.386294
|   |   |   |   npm <= 3.218876
|   |   |   |   |   avg_cc <= 0.543414: NO (3.0)
|   |   |   |   |   avg_cc > 0.543414: YES (14.0/2.0)
|   |   |   |   npm > 3.218876
|   |   |   |   |   max_cc <= 2.302585: NO (9.0/1.0)
|   |   |   |   |   max_cc > 2.302585
|   |   |   |   |   |   wmc <= 3.663562: NO (3.0)
|   |   |   |   |   |   wmc > 3.663562: YES (2.0)
|   |   rfc > 4.815505: YES (11.0/1.0)
ce > 0.223144
|   wmc <= 1.791759
|   |   ce <= 2.862201
|   |   |   npm <= 1.203973
|   |   |   |   rfc <= 3.200527
|   |   |   |   |   ca <= 0: NO (290.0/43.0)
|   |   |   |   |   ca > 0
|   |   |   |   |   |   cbo <= 1.232144
|   |   |   |   |   |   |   max_cc <= 1.540445: NO (50.0/4.0)
|   |   |   |   |   |   |   max_cc > 1.540445: YES (3.0/1.0)
|   |   |   |   |   |   cbo > 1.232144
|   |   |   |   |   |   |   ic <= 0
|   |   |   |   |   |   |   |   lcom <= 1.966113
|   |   |   |   |   |   |   |   |   npm <= 0.510826
|   |   |   |   |   |   |   |   |   |   moa <= 0.693147
|   |   |   |   |   |   |   |   |   |   |   dit <= 0.693147: NO (129.0/21.0)
|   |   |   |   |   |   |   |   |   |   |   dit > 0.693147
|   |   |   |   |   |   |   |   |   |   |   |   ce <= 0.916291
|   |   |   |   |   |   |   |   |   |   |   |   |   dit <= 1.609438: YES (9.0/2.0)
|   |   |   |   |   |   |   |   |   |   |   |   |   dit > 1.609438: NO (3.0)
|   |   |   |   |   |   |   |   |   |   |   |   ce > 0.916291: NO (20.0/2.0)
|   |   |   |   |   |   |   |   |   |   moa > 0.693147
|   |   |   |   |   |   |   |   |   |   |   wmc <= 0.81093: YES (3.0)
|   |   |   |   |   |   |   |   |   |   |   wmc > 0.81093
|   |   |   |   |   |   |   |   |   |   |   |   cbo <= 2.079442: NO (3.0)
|   |   |   |   |   |   |   |   |   |   |   |   cbo > 2.079442: YES (3.0/1.0)
|   |   |   |   |   |   |   |   |   npm > 0.510826
|   |   |   |   |   |   |   |   |   |   noc <= 0
|   |   |   |   |   |   |   |   |   |   |   moa <= 0
|   |   |   |   |   |   |   |   |   |   |   |   npm <= 0.916291
|   |   |   |   |   |   |   |   |   |   |   |   |   loc <= 1.924306: NO (49.0/7.0)
|   |   |   |   |   |   |   |   |   |   |   |   |   loc > 1.924306
|   |   |   |   |   |   |   |   |   |   |   |   |   |   dit <= 0.693147: NO (70.0/22.0)
|   |   |   |   |   |   |   |   |   |   |   |   |   |   dit > 0.693147
|   |   |   |   |   |   |   |   |   |   |   |   |   |   |   lcom3 <= 0.999541
|   |   |   |   |   |   |   |   |   |   |   |   |   |   |   |   cbo <= 2.079442: YES (12.0/1.0)
|   |   |   |   |   |   |   |   |   |   |   |   |   |   |   |   cbo > 2.079442: NO (4.0/1.0)
|   |   |   |   |   |   |   |   |   |   |   |   |   |   |   lcom3 > 0.999541: NO (12.0/2.0)
|   |   |   |   |   |   |   |   |   |   |   |   npm > 0.916291
|   |   |   |   |   |   |   |   |   |   |   |   |   max_cc <= 0.287682
|   |   |   |   |   |   |   |   |   |   |   |   |   |   lcom3 <= 0.972016: YES (18.0/6.0)
|   |   |   |   |   |   |   |   |   |   |   |   |   |   lcom3 > 0.972016
|   |   |   |   |   |   |   |   |   |   |   |   |   |   |   cbo <= 2.436116
|   |   |   |   |   |   |   |   |   |   |   |   |   |   |   |   mfa <= 0.662057
|   |   |   |   |   |   |   |   |   |   |   |   |   |   |   |   |   ca <= 1.098612: NO (18.0/5.0)
|   |   |   |   |   |   |   |   |   |   |   |   |   |   |   |   |   ca > 1.098612: YES (9.0/1.0)
|   |   |   |   |   |   |   |   |   |   |   |   |   |   |   |   mfa > 0.662057: NO (10.0/1.0)
|   |   |   |   |   |   |   |   |   |   |   |   |   |   |   cbo > 2.436116: NO (5.0)
|   |   |   |   |   |   |   |   |   |   |   |   |   max_cc > 0.287682: NO (35.0/6.0)
|   |   |   |   |   |   |   |   |   |   |   moa > 0: NO (66.0/10.0)
|   |   |   |   |   |   |   |   |   |   noc > 0
|   |   |   |   |   |   |   |   |   |   |   dit <= 0.693147
|   |   |   |   |   |   |   |   |   |   |   |   cbo <= 2.079442: NO (2.0)
|   |   |   |   |   |   |   |   |   |   |   |   cbo > 2.079442
|   |   |   |   |   |   |   |   |   |   |   |   |   lcom <= 1.272966: YES (9.0)
|   |   |   |   |   |   |   |   |   |   |   |   |   lcom > 1.272966: NO (3.0/1.0)
|   |   |   |   |   |   |   |   |   |   |   dit > 0.693147
|   |   |   |   |   |   |   |   |   |   |   |   max_cc <= 0.287682
|   |   |   |   |   |   |   |   |   |   |   |   |   ce <= 1.321756
|   |   |   |   |   |   |   |   |   |   |   |   |   |   rfc <= 1.226446: NO (4.0/1.0)
|   |   |   |   |   |   |   |   |   |   |   |   |   |   rfc > 1.226446: YES (3.0)
|   |   |   |   |   |   |   |   |   |   |   |   |   ce > 1.321756: NO (10.0)
|   |   |   |   |   |   |   |   |   |   |   |   max_cc > 0.287682: YES (3.0/1.0)
|   |   |   |   |   |   |   |   lcom > 1.966113: NO (27.0/2.0)
|   |   |   |   |   |   |   ic > 0
|   |   |   |   |   |   |   |   moa <= 0
|   |   |   |   |   |   |   |   |   dit <= 1.386294: NO (81.0/22.0)
|   |   |   |   |   |   |   |   |   dit > 1.386294
|   |   |   |   |   |   |   |   |   |   dit <= 1.609438: YES (6.0/1.0)
|   |   |   |   |   |   |   |   |   |   dit > 1.609438: NO (6.0/1.0)
|   |   |   |   |   |   |   |   moa > 0
|   |   |   |   |   |   |   |   |   ic <= 0.693147
|   |   |   |   |   |   |   |   |   |   ce <= 2.169054
|   |   |   |   |   |   |   |   |   |   |   wmc <= 1.098612: YES (4.0/1.0)
|   |   |   |   |   |   |   |   |   |   |   wmc > 1.098612: NO (16.0/3.0)
|   |   |   |   |   |   |   |   |   |   ce > 2.169054: YES (5.0)
|   |   |   |   |   |   |   |   |   ic > 0.693147: YES (3.0)
|   |   |   |   rfc > 3.200527
|   |   |   |   |   ce <= 2.788093
|   |   |   |   |   |   ca <= 0
|   |   |   |   |   |   |   wmc <= 1.321756: YES (3.0)
|   |   |   |   |   |   |   wmc > 1.321756
|   |   |   |   |   |   |   |   dam <= 0.640155: YES (2.0)
|   |   |   |   |   |   |   |   dam > 0.640155: NO (7.0)
|   |   |   |   |   |   ca > 0
|   |   |   |   |   |   |   mfa <= 0.572186
|   |   |   |   |   |   |   |   lcom3 <= 0.490623: YES (4.0)
|   |   |   |   |   |   |   |   lcom3 > 0.490623
|   |   |   |   |   |   |   |   |   max_cc <= 1.540445
|   |   |   |   |   |   |   |   |   |   rfc <= 3.227926: NO (3.0/1.0)
|   |   |   |   |   |   |   |   |   |   rfc > 3.227926: YES (3.0)
|   |   |   |   |   |   |   |   |   max_cc > 1.540445: NO (4.0)
|   |   |   |   |   |   |   mfa > 0.572186: YES (5.0)
|   |   |   |   |   ce > 2.788093: NO (3.0)
|   |   |   npm > 1.203973
|   |   |   |   cbm <= 1.386294
|   |   |   |   |   avg_cc <= 0.434215
|   |   |   |   |   |   rfc <= 2.61274
|   |   |   |   |   |   |   moa <= 0
|   |   |   |   |   |   |   |   ca <= 0.693147
|   |   |   |   |   |   |   |   |   ic <= 0.693147: YES (23.0/6.0)
|   |   |   |   |   |   |   |   |   ic > 0.693147: NO (2.0)
|   |   |   |   |   |   |   |   ca > 0.693147
|   |   |   |   |   |   |   |   |   mfa <= 0.629303
|   |   |   |   |   |   |   |   |   |   cam <= 0.363738: YES (11.0)
|   |   |   |   |   |   |   |   |   |   cam > 0.363738: NO (6.0/1.0)
|   |   |   |   |   |   |   |   |   mfa > 0.629303
|   |   |   |   |   |   |   |   |   |   ce <= 2.420368: NO (62.0/19.0)
|   |   |   |   |   |   |   |   |   |   ce > 2.420368: YES (4.0)
|   |   |   |   |   |   |   moa > 0: NO (6.0)
|   |   |   |   |   |   rfc > 2.61274: YES (24.0)
|   |   |   |   |   avg_cc > 0.434215
|   |   |   |   |   |   moa <= 0
|   |   |   |   |   |   |   mfa <= 0.600032
|   |   |   |   |   |   |   |   mfa <= 0.518687
|   |   |   |   |   |   |   |   |   wmc <= 1.658228
|   |   |   |   |   |   |   |   |   |   noc <= 0: NO (172.0/37.0)
|   |   |   |   |   |   |   |   |   |   noc > 0
|   |   |   |   |   |   |   |   |   |   |   dit <= 0.693147
|   |   |   |   |   |   |   |   |   |   |   |   rfc <= 1.562918: YES (5.0)
|   |   |   |   |   |   |   |   |   |   |   |   rfc > 1.562918
|   |   |   |   |   |   |   |   |   |   |   |   |   wmc <= 1.504077: NO (2.0)
|   |   |   |   |   |   |   |   |   |   |   |   |   wmc > 1.504077
|   |   |   |   |   |   |   |   |   |   |   |   |   |   rfc <= 1.814232: NO (5.0/2.0)
|   |   |   |   |   |   |   |   |   |   |   |   |   |   rfc > 1.814232: YES (5.0)
|   |   |   |   |   |   |   |   |   |   |   dit > 0.693147: NO (5.0)
|   |   |   |   |   |   |   |   |   wmc > 1.658228
|   |   |   |   |   |   |   |   |   |   noc <= 0
|   |   |   |   |   |   |   |   |   |   |   npm <= 1.609438
|   |   |   |   |   |   |   |   |   |   |   |   max_cc <= 0.693147: YES (5.0)
|   |   |   |   |   |   |   |   |   |   |   |   max_cc > 0.693147
|   |   |   |   |   |   |   |   |   |   |   |   |   npm <= 1.427116: NO (5.0/1.0)
|   |   |   |   |   |   |   |   |   |   |   |   |   npm > 1.427116
|   |   |   |   |   |   |   |   |   |   |   |   |   |   avg_cc <= 1.069309: NO (10.0/4.0)
|   |   |   |   |   |   |   |   |   |   |   |   |   |   avg_cc > 1.069309: YES (3.0)
|   |   |   |   |   |   |   |   |   |   |   npm > 1.609438
|   |   |   |   |   |   |   |   |   |   |   |   dam <= 0.806476
|   |   |   |   |   |   |   |   |   |   |   |   |   npm <= 1.763589: YES (4.0/1.0)
|   |   |   |   |   |   |   |   |   |   |   |   |   npm > 1.763589
|   |   |   |   |   |   |   |   |   |   |   |   |   |   lcom3 <= 0.897908: NO (7.0/2.0)
|   |   |   |   |   |   |   |   |   |   |   |   |   |   lcom3 > 0.897908: YES (8.0/3.0)
|   |   |   |   |   |   |   |   |   |   |   |   dam > 0.806476
|   |   |   |   |   |   |   |   |   |   |   |   |   lcom3 <= 0.29747
|   |   |   |   |   |   |   |   |   |   |   |   |   |   cbo <= 1.742969: NO (3.0/1.0)
|   |   |   |   |   |   |   |   |   |   |   |   |   |   cbo > 1.742969: YES (2.0)
|   |   |   |   |   |   |   |   |   |   |   |   |   lcom3 > 0.29747: NO (15.0/1.0)
|   |   |   |   |   |   |   |   |   |   noc > 0: NO (10.0/1.0)
|   |   |   |   |   |   |   |   mfa > 0.518687
|   |   |   |   |   |   |   |   |   wmc <= 1.658228
|   |   |   |   |   |   |   |   |   |   npm <= 1.427116
|   |   |   |   |   |   |   |   |   |   |   mfa <= 0.578026
|   |   |   |   |   |   |   |   |   |   |   |   ce <= 2.621039: NO (9.0)
|   |   |   |   |   |   |   |   |   |   |   |   ce > 2.621039: YES (2.0)
|   |   |   |   |   |   |   |   |   |   |   mfa > 0.578026: YES (4.0)
|   |   |   |   |   |   |   |   |   |   npm > 1.427116: YES (18.0/4.0)
|   |   |   |   |   |   |   |   |   wmc > 1.658228: NO (4.0)
|   |   |   |   |   |   |   mfa > 0.600032
|   |   |   |   |   |   |   |   max_cc <= 0.980829: NO (56.0/4.0)
|   |   |   |   |   |   |   |   max_cc > 0.980829
|   |   |   |   |   |   |   |   |   wmc <= 1.658228
|   |   |   |   |   |   |   |   |   |   ic <= 0
|   |   |   |   |   |   |   |   |   |   |   lcom3 <= 0.634376: NO (3.0/1.0)
|   |   |   |   |   |   |   |   |   |   |   lcom3 > 0.634376: YES (2.0)
|   |   |   |   |   |   |   |   |   |   ic > 0: NO (7.0/1.0)
|   |   |   |   |   |   |   |   |   wmc > 1.658228: YES (2.0)
|   |   |   |   |   |   moa > 0
|   |   |   |   |   |   |   ic <= 0.693147
|   |   |   |   |   |   |   |   ce <= 1.321756: NO (48.0/12.0)
|   |   |   |   |   |   |   |   ce > 1.321756
|   |   |   |   |   |   |   |   |   lcom3 <= 0.253551
|   |   |   |   |   |   |   |   |   |   cbo <= 2.618438: YES (18.0/2.0)
|   |   |   |   |   |   |   |   |   |   cbo > 2.618438: NO (2.0)
|   |   |   |   |   |   |   |   |   lcom3 > 0.253551
|   |   |   |   |   |   |   |   |   |   npm <= 1.427116
|   |   |   |   |   |   |   |   |   |   |   dit <= 0.693147
|   |   |   |   |   |   |   |   |   |   |   |   moa <= 0.693147: NO (15.0/3.0)
|   |   |   |   |   |   |   |   |   |   |   |   moa > 0.693147
|   |   |   |   |   |   |   |   |   |   |   |   |   rfc <= 2.450221: NO (8.0/1.0)
|   |   |   |   |   |   |   |   |   |   |   |   |   rfc > 2.450221: YES (3.0)
|   |   |   |   |   |   |   |   |   |   |   dit > 0.693147
|   |   |   |   |   |   |   |   |   |   |   |   rfc <= 2.50738: YES (7.0/1.0)
|   |   |   |   |   |   |   |   |   |   |   |   rfc > 2.50738: NO (4.0)
|   |   |   |   |   |   |   |   |   |   npm > 1.427116
|   |   |   |   |   |   |   |   |   |   |   ce <= 2.70805
|   |   |   |   |   |   |   |   |   |   |   |   ce <= 2.169054
|   |   |   |   |   |   |   |   |   |   |   |   |   max_cc <= 0.980829
|   |   |   |   |   |   |   |   |   |   |   |   |   |   ca <= 1.098612
|   |   |   |   |   |   |   |   |   |   |   |   |   |   |   mfa <= 0.546544
|   |   |   |   |   |   |   |   |   |   |   |   |   |   |   |   dit <= 1.098612
|   |   |   |   |   |   |   |   |   |   |   |   |   |   |   |   |   ca <= 0.693147
|   |   |   |   |   |   |   |   |   |   |   |   |   |   |   |   |   |   dit <= 0.693147
|   |   |   |   |   |   |   |   |   |   |   |   |   |   |   |   |   |   |   rfc <= 2.389596: NO (3.0)
|   |   |   |   |   |   |   |   |   |   |   |   |   |   |   |   |   |   |   rfc > 2.389596: YES (11.0/3.0)
|   |   |   |   |   |   |   |   |   |   |   |   |   |   |   |   |   |   dit > 0.693147: NO (3.0)
|   |   |   |   |   |   |   |   |   |   |   |   |   |   |   |   |   ca > 0.693147: YES (6.0/1.0)
|   |   |   |   |   |   |   |   |   |   |   |   |   |   |   |   dit > 1.098612: YES (3.0)
|   |   |   |   |   |   |   |   |   |   |   |   |   |   |   mfa > 0.546544: NO (3.0)
|   |   |   |   |   |   |   |   |   |   |   |   |   |   ca > 1.098612: NO (4.0)
|   |   |   |   |   |   |   |   |   |   |   |   |   max_cc > 0.980829: YES (7.0)
|   |   |   |   |   |   |   |   |   |   |   |   ce > 2.169054
|   |   |   |   |   |   |   |   |   |   |   |   |   max_cc <= 0.287682: YES (4.0/1.0)
|   |   |   |   |   |   |   |   |   |   |   |   |   max_cc > 0.287682: NO (11.0)
|   |   |   |   |   |   |   |   |   |   |   ce > 2.70805: YES (9.0/1.0)
|   |   |   |   |   |   |   ic > 0.693147
|   |   |   |   |   |   |   |   npm <= 1.609438: NO (3.0)
|   |   |   |   |   |   |   |   npm > 1.609438: YES (17.0/2.0)
|   |   |   |   cbm > 1.386294: NO (25.0/3.0)
|   |   ce > 2.862201
|   |   |   cbm <= 1.098612
|   |   |   |   dit <= 1.098612
|   |   |   |   |   moa <= 0
|   |   |   |   |   |   dit <= 0.693147
|   |   |   |   |   |   |   npm <= 0.916291: NO (13.0/4.0)
|   |   |   |   |   |   |   npm > 0.916291
|   |   |   |   |   |   |   |   lcom <= 2.148434: YES (13.0/2.0)
|   |   |   |   |   |   |   |   lcom > 2.148434: NO (7.0/2.0)
|   |   |   |   |   |   dit > 0.693147
|   |   |   |   |   |   |   npm <= 1.203973: NO (7.0)
|   |   |   |   |   |   |   npm > 1.203973: YES (3.0)
|   |   |   |   |   moa > 0
|   |   |   |   |   |   rfc <= 3.529031: YES (26.0/5.0)
|   |   |   |   |   |   rfc > 3.529031: NO (5.0/1.0)
|   |   |   |   dit > 1.098612: NO (7.0/1.0)
|   |   |   cbm > 1.098612: YES (5.0)
|   wmc > 1.791759
|   |   ce <= 3.401197
|   |   |   dit <= 1.386294
|   |   |   |   cbm <= 1.098612
|   |   |   |   |   max_cc <= 2.367124
|   |   |   |   |   |   wmc <= 2.545531
|   |   |   |   |   |   |   loc <= 5.373235
|   |   |   |   |   |   |   |   noc <= 0
|   |   |   |   |   |   |   |   |   dam <= 0.765468
|   |   |   |   |   |   |   |   |   |   ic <= 0
|   |   |   |   |   |   |   |   |   |   |   cam <= 0.29144
|   |   |   |   |   |   |   |   |   |   |   |   npm <= 1.609438: NO (10.0)
|   |   |   |   |   |   |   |   |   |   |   |   npm > 1.609438
|   |   |   |   |   |   |   |   |   |   |   |   |   ce <= 2.621039: NO (57.0/13.0)
|   |   |   |   |   |   |   |   |   |   |   |   |   ce > 2.621039
|   |   |   |   |   |   |   |   |   |   |   |   |   |   cbo <= 2.966745: NO (2.0)
|   |   |   |   |   |   |   |   |   |   |   |   |   |   cbo > 2.966745: YES (6.0/1.0)
|   |   |   |   |   |   |   |   |   |   |   cam > 0.29144
|   |   |   |   |   |   |   |   |   |   |   |   ce <= 2.169054
|   |   |   |   |   |   |   |   |   |   |   |   |   moa <= 1.098612
|   |   |   |   |   |   |   |   |   |   |   |   |   |   cbo <= 2.330756
|   |   |   |   |   |   |   |   |   |   |   |   |   |   |   ce <= 0.916291
|   |   |   |   |   |   |   |   |   |   |   |   |   |   |   |   wmc <= 1.909543: YES (3.0/1.0)
|   |   |   |   |   |   |   |   |   |   |   |   |   |   |   |   wmc > 1.909543: NO (5.0)
|   |   |   |   |   |   |   |   |   |   |   |   |   |   |   ce > 0.916291
|   |   |   |   |   |   |   |   |   |   |   |   |   |   |   |   max_cc <= 0.980829
|   |   |   |   |   |   |   |   |   |   |   |   |   |   |   |   |   max_cc <= 0.287682: YES (38.0/15.0)
|   |   |   |   |   |   |   |   |   |   |   |   |   |   |   |   |   max_cc > 0.287682: NO (5.0/1.0)
|   |   |   |   |   |   |   |   |   |   |   |   |   |   |   |   max_cc > 0.980829: YES (7.0/2.0)
|   |   |   |   |   |   |   |   |   |   |   |   |   |   cbo > 2.330756: NO (12.0/1.0)
|   |   |   |   |   |   |   |   |   |   |   |   |   moa > 1.098612: YES (4.0)
|   |   |   |   |   |   |   |   |   |   |   |   ce > 2.169054: YES (8.0)
|   |   |   |   |   |   |   |   |   |   ic > 0
|   |   |   |   |   |   |   |   |   |   |   rfc <= 3.33058
|   |   |   |   |   |   |   |   |   |   |   |   lcom <= 1.272966: NO (18.0/7.0)
|   |   |   |   |   |   |   |   |   |   |   |   lcom > 1.272966: YES (29.0/5.0)
|   |   |   |   |   |   |   |   |   |   |   rfc > 3.33058: NO (3.0)
|   |   |   |   |   |   |   |   |   dam > 0.765468
|   |   |   |   |   |   |   |   |   |   amc <= 1.890984
|   |   |   |   |   |   |   |   |   |   |   mfa <= 0.591128: NO (57.0/3.0)
|   |   |   |   |   |   |   |   |   |   |   mfa > 0.591128
|   |   |   |   |   |   |   |   |   |   |   |   cbo <= 2.212973: YES (2.0)
|   |   |   |   |   |   |   |   |   |   |   |   cbo > 2.212973: NO (2.0)
|   |   |   |   |   |   |   |   |   |   amc > 1.890984
|   |   |   |   |   |   |   |   |   |   |   ic <= 0
|   |   |   |   |   |   |   |   |   |   |   |   ca <= 1.791759
|   |   |   |   |   |   |   |   |   |   |   |   |   dam <= 0.804851: NO (7.0/1.0)
|   |   |   |   |   |   |   |   |   |   |   |   |   dam > 0.804851
|   |   |   |   |   |   |   |   |   |   |   |   |   |   moa <= 0.693147
|   |   |   |   |   |   |   |   |   |   |   |   |   |   |   dit <= 0.693147
|   |   |   |   |   |   |   |   |   |   |   |   |   |   |   |   npm <= 1.427116
|   |   |   |   |   |   |   |   |   |   |   |   |   |   |   |   |   max_cc <= 1.540445: YES (11.0/2.0)
|   |   |   |   |   |   |   |   |   |   |   |   |   |   |   |   |   max_cc > 1.540445: NO (2.0)
|   |   |   |   |   |   |   |   |   |   |   |   |   |   |   |   npm > 1.427116
|   |   |   |   |   |   |   |   |   |   |   |   |   |   |   |   |   wmc <= 2.351375: NO (40.0/10.0)
|   |   |   |   |   |   |   |   |   |   |   |   |   |   |   |   |   wmc > 2.351375
|   |   |   |   |   |   |   |   |   |   |   |   |   |   |   |   |   |   cbo <= 2.212973: YES (5.0)
|   |   |   |   |   |   |   |   |   |   |   |   |   |   |   |   |   |   cbo > 2.212973: NO (4.0/1.0)
|   |   |   |   |   |   |   |   |   |   |   |   |   |   |   dit > 0.693147
|   |   |   |   |   |   |   |   |   |   |   |   |   |   |   |   amc <= 2.487869: NO (8.0/1.0)
|   |   |   |   |   |   |   |   |   |   |   |   |   |   |   |   amc > 2.487869
|   |   |   |   |   |   |   |   |   |   |   |   |   |   |   |   |   ce <= 2.302585: NO (6.0)
|   |   |   |   |   |   |   |   |   |   |   |   |   |   |   |   |   ce > 2.302585
|   |   |   |   |   |   |   |   |   |   |   |   |   |   |   |   |   |   amc <= 2.54013
|   |   |   |   |   |   |   |   |   |   |   |   |   |   |   |   |   |   |   amc <= 2.509643: YES (2.0)
|   |   |   |   |   |   |   |   |   |   |   |   |   |   |   |   |   |   |   amc > 2.509643: NO (2.0)
|   |   |   |   |   |   |   |   |   |   |   |   |   |   |   |   |   |   amc > 2.54013: YES (7.0)
|   |   |   |   |   |   |   |   |   |   |   |   |   |   moa > 0.693147: YES (31.0/13.0)
|   |   |   |   |   |   |   |   |   |   |   |   ca > 1.791759: NO (20.0/3.0)
|   |   |   |   |   |   |   |   |   |   |   ic > 0
|   |   |   |   |   |   |   |   |   |   |   |   lcom3 <= 0.14592: YES (4.0)
|   |   |   |   |   |   |   |   |   |   |   |   lcom3 > 0.14592
|   |   |   |   |   |   |   |   |   |   |   |   |   avg_cc <= 0.561836: YES (5.0/1.0)
|   |   |   |   |   |   |   |   |   |   |   |   |   avg_cc > 0.561836
|   |   |   |   |   |   |   |   |   |   |   |   |   |   ic <= 0.693147
|   |   |   |   |   |   |   |   |   |   |   |   |   |   |   max_cc <= 1.673976: NO (50.0/2.0)
|   |   |   |   |   |   |   |   |   |   |   |   |   |   |   max_cc > 1.673976: YES (3.0/1.0)
|   |   |   |   |   |   |   |   |   |   |   |   |   |   ic > 0.693147
|   |   |   |   |   |   |   |   |   |   |   |   |   |   |   avg_cc <= 0.779047: YES (3.0)
|   |   |   |   |   |   |   |   |   |   |   |   |   |   |   avg_cc > 0.779047
|   |   |   |   |   |   |   |   |   |   |   |   |   |   |   |   cbo <= 2.330756: NO (6.0)
|   |   |   |   |   |   |   |   |   |   |   |   |   |   |   |   cbo > 2.330756: YES (3.0/1.0)
|   |   |   |   |   |   |   |   noc > 0
|   |   |   |   |   |   |   |   |   npm <= 1.89712
|   |   |   |   |   |   |   |   |   |   rfc <= 3.401197: NO (36.0/8.0)
|   |   |   |   |   |   |   |   |   |   rfc > 3.401197: YES (5.0)
|   |   |   |   |   |   |   |   |   npm > 1.89712: YES (60.0/23.0)
|   |   |   |   |   |   |   loc > 5.373235
|   |   |   |   |   |   |   |   dit <= 1.098612: YES (63.0/16.0)
|   |   |   |   |   |   |   |   dit > 1.098612
|   |   |   |   |   |   |   |   |   moa <= 0.693147
|   |   |   |   |   |   |   |   |   |   loc <= 5.509675: YES (2.0)
|   |   |   |   |   |   |   |   |   |   loc > 5.509675: NO (5.0)
|   |   |   |   |   |   |   |   |   moa > 0.693147: YES (3.0)
|   |   |   |   |   |   wmc > 2.545531
|   |   |   |   |   |   |   max_cc <= 0.693147
|   |   |   |   |   |   |   |   cbo <= 1.519826
|   |   |   |   |   |   |   |   |   dit <= 0.693147: NO (6.0)
|   |   |   |   |   |   |   |   |   dit > 0.693147: YES (4.0/1.0)
|   |   |   |   |   |   |   |   cbo > 1.519826
|   |   |   |   |   |   |   |   |   moa <= 0
|   |   |   |   |   |   |   |   |   |   wmc <= 3.496508
|   |   |   |   |   |   |   |   |   |   |   ce <= 3.113515: YES (26.0/5.0)
|   |   |   |   |   |   |   |   |   |   |   ce > 3.113515: NO (2.0)
|   |   |   |   |   |   |   |   |   |   wmc > 3.496508: NO (4.0/1.0)
|   |   |   |   |   |   |   |   |   moa > 0: YES (36.0/3.0)
|   |   |   |   |   |   |   max_cc > 0.693147
|   |   |   |   |   |   |   |   dit <= 1.098612
|   |   |   |   |   |   |   |   |   dit <= 0.693147
|   |   |   |   |   |   |   |   |   |   ca <= 2.70805
|   |   |   |   |   |   |   |   |   |   |   lcom3 <= 0.593303
|   |   |   |   |   |   |   |   |   |   |   |   max_cc <= 1.540445
|   |   |   |   |   |   |   |   |   |   |   |   |   avg_cc <= 0.806139: YES (20.0)
|   |   |   |   |   |   |   |   |   |   |   |   |   avg_cc > 0.806139
|   |   |   |   |   |   |   |   |   |   |   |   |   |   max_cc <= 1.203973: NO (3.0)
|   |   |   |   |   |   |   |   |   |   |   |   |   |   max_cc > 1.203973: YES (7.0/1.0)
|   |   |   |   |   |   |   |   |   |   |   |   max_cc > 1.540445
|   |   |   |   |   |   |   |   |   |   |   |   |   noc <= 0
|   |   |   |   |   |   |   |   |   |   |   |   |   |   moa <= 1.609438
|   |   |   |   |   |   |   |   |   |   |   |   |   |   |   moa <= 0.693147
|   |   |   |   |   |   |   |   |   |   |   |   |   |   |   |   dam <= 0.693147: YES (2.0)
|   |   |   |   |   |   |   |   |   |   |   |   |   |   |   |   dam > 0.693147
|   |   |   |   |   |   |   |   |   |   |   |   |   |   |   |   |   dam <= 0.821402: NO (3.0)
|   |   |   |   |   |   |   |   |   |   |   |   |   |   |   |   |   dam > 0.821402
|   |   |   |   |   |   |   |   |   |   |   |   |   |   |   |   |   |   cbo <= 2.966745
|   |   |   |   |   |   |   |   |   |   |   |   |   |   |   |   |   |   |   ca <= 0.693147: YES (5.0/2.0)
|   |   |   |   |   |   |   |   |   |   |   |   |   |   |   |   |   |   |   ca > 0.693147: NO (3.0)
|   |   |   |   |   |   |   |   |   |   |   |   |   |   |   |   |   |   cbo > 2.966745: YES (2.0)
|   |   |   |   |   |   |   |   |   |   |   |   |   |   |   moa > 0.693147: YES (5.0)
|   |   |   |   |   |   |   |   |   |   |   |   |   |   moa > 1.609438: NO (3.0)
|   |   |   |   |   |   |   |   |   |   |   |   |   noc > 0: NO (2.0)
|   |   |   |   |   |   |   |   |   |   |   lcom3 > 0.593303
|   |   |   |   |   |   |   |   |   |   |   |   max_cc <= 1.540445: NO (26.0/6.0)
|   |   |   |   |   |   |   |   |   |   |   |   max_cc > 1.540445
|   |   |   |   |   |   |   |   |   |   |   |   |   moa <= 0: YES (9.0/2.0)
|   |   |   |   |   |   |   |   |   |   |   |   |   moa > 0
|   |   |   |   |   |   |   |   |   |   |   |   |   |   dam <= 0.850151: NO (4.0)
|   |   |   |   |   |   |   |   |   |   |   |   |   |   dam > 0.850151
|   |   |   |   |   |   |   |   |   |   |   |   |   |   |   ce <= 2.70805: NO (3.0)
|   |   |   |   |   |   |   |   |   |   |   |   |   |   |   ce > 2.70805: YES (3.0)
|   |   |   |   |   |   |   |   |   |   ca > 2.70805
|   |   |   |   |   |   |   |   |   |   |   cbo <= 4.367638: YES (17.0/1.0)
|   |   |   |   |   |   |   |   |   |   |   cbo > 4.367638: NO (2.0)
|   |   |   |   |   |   |   |   |   dit > 0.693147
|   |   |   |   |   |   |   |   |   |   ce <= 2.862201
|   |   |   |   |   |   |   |   |   |   |   noc <= 2.639057
|   |   |   |   |   |   |   |   |   |   |   |   wmc <= 2.970414
|   |   |   |   |   |   |   |   |   |   |   |   |   ca <= 1.098612: YES (9.0/2.0)
|   |   |   |   |   |   |   |   |   |   |   |   |   ca > 1.098612
|   |   |   |   |   |   |   |   |   |   |   |   |   |   lcom <= 4.129436: YES (4.0/1.0)
|   |   |   |   |   |   |   |   |   |   |   |   |   |   lcom > 4.129436: NO (7.0/1.0)
|   |   |   |   |   |   |   |   |   |   |   |   wmc > 2.970414: YES (7.0)
|   |   |   |   |   |   |   |   |   |   |   noc > 2.639057: NO (2.0)
|   |   |   |   |   |   |   |   |   |   ce > 2.862201: NO (7.0)
|   |   |   |   |   |   |   |   dit > 1.098612
|   |   |   |   |   |   |   |   |   ic <= 0
|   |   |   |   |   |   |   |   |   |   wmc <= 3.562466
|   |   |   |   |   |   |   |   |   |   |   max_cc <= 1.386294: NO (4.0/1.0)
|   |   |   |   |   |   |   |   |   |   |   max_cc > 1.386294: YES (7.0)
|   |   |   |   |   |   |   |   |   |   wmc > 3.562466: NO (3.0)
|   |   |   |   |   |   |   |   |   ic > 0
|   |   |   |   |   |   |   |   |   |   noc <= 0
|   |   |   |   |   |   |   |   |   |   |   mfa <= 0.501383: NO (14.0)
|   |   |   |   |   |   |   |   |   |   |   mfa > 0.501383: YES (3.0/1.0)
|   |   |   |   |   |   |   |   |   |   noc > 0: YES (3.0/1.0)
|   |   |   |   |   max_cc > 2.367124
|   |   |   |   |   |   dam <= 0.330742: NO (4.0/1.0)
|   |   |   |   |   |   dam > 0.330742: YES (64.0/12.0)
|   |   |   |   cbm > 1.098612
|   |   |   |   |   cbm <= 1.609438
|   |   |   |   |   |   cbo <= 1.742969
|   |   |   |   |   |   |   ca <= 0.693147
|   |   |   |   |   |   |   |   amc <= 2.639969: NO (7.0)
|   |   |   |   |   |   |   |   amc > 2.639969
|   |   |   |   |   |   |   |   |   max_cc <= 1.540445: YES (5.0/1.0)
|   |   |   |   |   |   |   |   |   max_cc > 1.540445: NO (2.0)
|   |   |   |   |   |   |   ca > 0.693147: YES (2.0)
|   |   |   |   |   |   cbo > 1.742969
|   |   |   |   |   |   |   dit <= 1.098612
|   |   |   |   |   |   |   |   dam <= 0.86108
|   |   |   |   |   |   |   |   |   max_cc <= 1.673976: YES (133.0/1.0)
|   |   |   |   |   |   |   |   |   max_cc > 1.673976
|   |   |   |   |   |   |   |   |   |   wmc <= 2.351375: NO (2.0)
|   |   |   |   |   |   |   |   |   |   wmc > 2.351375: YES (8.0)
|   |   |   |   |   |   |   |   dam > 0.86108
|   |   |   |   |   |   |   |   |   cbm <= 1.386294
|   |   |   |   |   |   |   |   |   |   cbo <= 2.079442: YES (5.0)
|   |   |   |   |   |   |   |   |   |   cbo > 2.079442
|   |   |   |   |   |   |   |   |   |   |   ca <= 1.098612: NO (10.0/1.0)
|   |   |   |   |   |   |   |   |   |   |   ca > 1.098612: YES (7.0/1.0)
|   |   |   |   |   |   |   |   |   cbm > 1.386294: YES (6.0)
|   |   |   |   |   |   |   dit > 1.098612
|   |   |   |   |   |   |   |   ic <= 0.693147
|   |   |   |   |   |   |   |   |   mfa <= 0.565236
|   |   |   |   |   |   |   |   |   |   avg_cc <= 1.298622: YES (22.0/3.0)
|   |   |   |   |   |   |   |   |   |   avg_cc > 1.298622: NO (2.0)
|   |   |   |   |   |   |   |   |   mfa > 0.565236: NO (4.0/1.0)
|   |   |   |   |   |   |   |   ic > 0.693147
|   |   |   |   |   |   |   |   |   moa <= 0: NO (9.0/1.0)
|   |   |   |   |   |   |   |   |   moa > 0
|   |   |   |   |   |   |   |   |   |   moa <= 0.693147: YES (4.0)
|   |   |   |   |   |   |   |   |   |   moa > 0.693147: NO (3.0/1.0)
|   |   |   |   |   cbm > 1.609438: YES (453.0/180.0)
|   |   |   dit > 1.386294
|   |   |   |   loc <= 5.31208
|   |   |   |   |   ic <= 1.098612
|   |   |   |   |   |   cbo <= 3.178054: NO (74.0/6.0)
|   |   |   |   |   |   cbo > 3.178054
|   |   |   |   |   |   |   avg_cc <= 0.607935: NO (4.0/1.0)
|   |   |   |   |   |   |   avg_cc > 0.607935: YES (3.0)
|   |   |   |   |   ic > 1.098612
|   |   |   |   |   |   moa <= 0: NO (4.0)
|   |   |   |   |   |   moa > 0: YES (6.0/1.0)
|   |   |   |   loc > 5.31208
|   |   |   |   |   dam <= 0.708415: YES (6.0)
|   |   |   |   |   dam > 0.708415
|   |   |   |   |   |   max_cc <= 0.287682: NO (4.0)
|   |   |   |   |   |   max_cc > 0.287682
|   |   |   |   |   |   |   lcom <= 4.787492
|   |   |   |   |   |   |   |   mfa <= 0.529793: YES (3.0)
|   |   |   |   |   |   |   |   mfa > 0.529793: NO (12.0/2.0)
|   |   |   |   |   |   |   lcom > 4.787492: YES (14.0/2.0)
|   |   ce > 3.401197
|   |   |   max_cc <= 0.980829
|   |   |   |   moa <= 0: NO (6.0/1.0)
|   |   |   |   moa > 0: YES (12.0/2.0)
|   |   |   max_cc > 0.980829: YES (87.0/7.0)

Number of Leaves  : 	243

Size of the tree : 	485


Correctly Classified Instances        1781               63.9727 %
Incorrectly Classified Instances      1003               36.0273 %
Kappa statistic                          0.1079
Mean absolute error                      0.3991
Root mean squared error                  0.5317
Relative absolute error                123.8135 %
Root relative squared error            132.4546 %
Coverage of cases (0.95 level)          89.8707 %
Mean rel. region size (0.95 level)      90.0682 %
Total Number of Instances             2784     

=== Confusion Matrix ===

    a    b   <-- classified as
 1530  692 |    a = NO
  311  251 |    b = YES

=== Detailed Accuracy By Class ===

                 TP Rate  FP Rate  Precision  Recall   F-Measure  MCC      ROC Area  PRC Area  Class
                 0.689    0.553    0.831      0.689    0.753      0.115    0.567     0.816     NO
                 0.447    0.311    0.266      0.447    0.334      0.115    0.567     0.244     YES
Weighted Avg.    0.640    0.505    0.717      0.640    0.668      0.115    0.567     0.701     

