Classifier...: weka.classifiers.trees.J48 -C 0.25 -M 2
Training file: C:\Users\HP\Desktop\AbdulAli\Baseline\Configuration3\dataK=9\10tr.csv

Testing file: C:\Users\HP\Desktop\AbdulAli\Baseline\Configuration3\dataK=9\10test.csv

J48 pruned tree
------------------

ce <= 0
|   amc <= 4.736198
|   |   moa <= 1.386294
|   |   |   ca <= 1.098612
|   |   |   |   cbo <= 1.098612
|   |   |   |   |   moa <= 0: NO (539.0/101.0)
|   |   |   |   |   moa > 0
|   |   |   |   |   |   lcom3 <= 0.562785: NO (47.0)
|   |   |   |   |   |   lcom3 > 0.562785
|   |   |   |   |   |   |   wmc <= 2.833213
|   |   |   |   |   |   |   |   lcom3 <= 0.770108: NO (12.0)
|   |   |   |   |   |   |   |   lcom3 > 0.770108: YES (5.0/1.0)
|   |   |   |   |   |   |   wmc > 2.833213: YES (2.0)
|   |   |   |   cbo > 1.098612
|   |   |   |   |   cbo <= 2.302585: NO (235.0/8.0)
|   |   |   |   |   cbo > 2.302585
|   |   |   |   |   |   amc <= 4.266195
|   |   |   |   |   |   |   npm <= 2.639057
|   |   |   |   |   |   |   |   lcom3 <= 0.612062: NO (16.0/1.0)
|   |   |   |   |   |   |   |   lcom3 > 0.612062
|   |   |   |   |   |   |   |   |   cam <= 0.352221: YES (10.0/2.0)
|   |   |   |   |   |   |   |   |   cam > 0.352221: NO (4.0)
|   |   |   |   |   |   |   npm > 2.639057: NO (18.0)
|   |   |   |   |   |   amc > 4.266195: YES (4.0)
|   |   |   ca > 1.098612
|   |   |   |   moa <= 0
|   |   |   |   |   amc <= 1.719786
|   |   |   |   |   |   lcom3 <= 0.728622: NO (13.0)
|   |   |   |   |   |   lcom3 > 0.728622
|   |   |   |   |   |   |   noc <= 0.693147
|   |   |   |   |   |   |   |   max_cc <= 0
|   |   |   |   |   |   |   |   |   loc <= 1.791759: NO (19.0/1.0)
|   |   |   |   |   |   |   |   |   loc > 1.791759
|   |   |   |   |   |   |   |   |   |   cbo <= 1.791759: YES (4.0)
|   |   |   |   |   |   |   |   |   |   cbo > 1.791759: NO (12.0/4.0)
|   |   |   |   |   |   |   |   max_cc > 0
|   |   |   |   |   |   |   |   |   ca <= 3.496508: NO (144.0/24.0)
|   |   |   |   |   |   |   |   |   ca > 3.496508
|   |   |   |   |   |   |   |   |   |   wmc <= 1.386294: NO (3.0)
|   |   |   |   |   |   |   |   |   |   wmc > 1.386294: YES (7.0/1.0)
|   |   |   |   |   |   |   noc > 0.693147
|   |   |   |   |   |   |   |   wmc <= 1.098612
|   |   |   |   |   |   |   |   |   mfa <= 0.686798: NO (7.0/1.0)
|   |   |   |   |   |   |   |   |   mfa > 0.686798: YES (2.0)
|   |   |   |   |   |   |   |   wmc > 1.098612: YES (3.0)
|   |   |   |   |   amc > 1.719786
|   |   |   |   |   |   dit <= 0.693147
|   |   |   |   |   |   |   ca <= 1.94591
|   |   |   |   |   |   |   |   ic <= 0
|   |   |   |   |   |   |   |   |   npm <= 2.833213
|   |   |   |   |   |   |   |   |   |   avg_cc <= 0.985817
|   |   |   |   |   |   |   |   |   |   |   max_cc <= 1.098612
|   |   |   |   |   |   |   |   |   |   |   |   cam <= 0.302656: NO (9.0)
|   |   |   |   |   |   |   |   |   |   |   |   cam > 0.302656
|   |   |   |   |   |   |   |   |   |   |   |   |   max_cc <= 0: YES (8.0/3.0)
|   |   |   |   |   |   |   |   |   |   |   |   |   max_cc > 0
|   |   |   |   |   |   |   |   |   |   |   |   |   |   cam <= 0.423814
|   |   |   |   |   |   |   |   |   |   |   |   |   |   |   avg_cc <= 0.485508: YES (2.0)
|   |   |   |   |   |   |   |   |   |   |   |   |   |   |   avg_cc > 0.485508
|   |   |   |   |   |   |   |   |   |   |   |   |   |   |   |   loc <= 4.804021: NO (11.0/3.0)
|   |   |   |   |   |   |   |   |   |   |   |   |   |   |   |   loc > 4.804021: YES (4.0/1.0)
|   |   |   |   |   |   |   |   |   |   |   |   |   |   cam > 0.423814: NO (15.0)
|   |   |   |   |   |   |   |   |   |   |   max_cc > 1.098612
|   |   |   |   |   |   |   |   |   |   |   |   lcom <= 0.693147: NO (6.0/1.0)
|   |   |   |   |   |   |   |   |   |   |   |   lcom > 0.693147: YES (11.0/2.0)
|   |   |   |   |   |   |   |   |   |   avg_cc > 0.985817: NO (16.0)
|   |   |   |   |   |   |   |   |   npm > 2.833213: YES (9.0/3.0)
|   |   |   |   |   |   |   |   ic > 0
|   |   |   |   |   |   |   |   |   avg_cc <= 1.272958
|   |   |   |   |   |   |   |   |   |   loc <= 4.89784: NO (4.0)
|   |   |   |   |   |   |   |   |   |   loc > 4.89784: YES (2.0)
|   |   |   |   |   |   |   |   |   avg_cc > 1.272958: NO (3.0)
|   |   |   |   |   |   |   ca > 1.94591: YES (100.0/44.0)
|   |   |   |   |   |   dit > 0.693147
|   |   |   |   |   |   |   rfc <= 1.791759: YES (3.0)
|   |   |   |   |   |   |   rfc > 1.791759
|   |   |   |   |   |   |   |   amc <= 3.465736: NO (39.0/5.0)
|   |   |   |   |   |   |   |   amc > 3.465736: YES (4.0/1.0)
|   |   |   |   moa > 0
|   |   |   |   |   ic <= 0: NO (90.0/11.0)
|   |   |   |   |   ic > 0
|   |   |   |   |   |   avg_cc <= 1.058623
|   |   |   |   |   |   |   npm <= 2.197225
|   |   |   |   |   |   |   |   cbo <= 2.302585: NO (3.0)
|   |   |   |   |   |   |   |   cbo > 2.302585: YES (3.0)
|   |   |   |   |   |   |   npm > 2.197225: NO (10.0)
|   |   |   |   |   |   avg_cc > 1.058623: YES (5.0/1.0)
|   |   moa > 1.386294
|   |   |   rfc <= 5.198497
|   |   |   |   ca <= 1.386294
|   |   |   |   |   lcom3 <= 0.513679: YES (4.0/1.0)
|   |   |   |   |   lcom3 > 0.513679: NO (20.0)
|   |   |   |   ca > 1.386294
|   |   |   |   |   npm <= 3.401197
|   |   |   |   |   |   avg_cc <= 0.594707: NO (3.0)
|   |   |   |   |   |   avg_cc > 0.594707: YES (14.0/2.0)
|   |   |   |   |   npm > 3.401197
|   |   |   |   |   |   max_cc <= 2.70805: NO (9.0/1.0)
|   |   |   |   |   |   max_cc > 2.70805
|   |   |   |   |   |   |   wmc <= 3.951244: NO (3.0)
|   |   |   |   |   |   |   wmc > 3.951244: YES (2.0)
|   |   |   rfc > 5.198497: YES (11.0/1.0)
|   amc > 4.736198
|   |   dit <= 1.098612
|   |   |   moa <= 0.693147
|   |   |   |   rfc <= 3.951244: NO (33.0/8.0)
|   |   |   |   rfc > 3.951244: YES (3.0)
|   |   |   moa > 0.693147: YES (2.0)
|   |   dit > 1.098612: YES (55.0)
ce > 0
|   loc <= 5.673323
|   |   cbm <= 1.386294
|   |   |   lcom <= 3.433987
|   |   |   |   ca <= 0
|   |   |   |   |   mfa <= 0.553885
|   |   |   |   |   |   npm <= 1.609438
|   |   |   |   |   |   |   cbo <= 2.302585
|   |   |   |   |   |   |   |   ic <= 0
|   |   |   |   |   |   |   |   |   dam <= 0.587787
|   |   |   |   |   |   |   |   |   |   dam <= 0.534923
|   |   |   |   |   |   |   |   |   |   |   dit <= 0.693147
|   |   |   |   |   |   |   |   |   |   |   |   cbo <= 1.386294
|   |   |   |   |   |   |   |   |   |   |   |   |   loc <= 4.65396
|   |   |   |   |   |   |   |   |   |   |   |   |   |   lcom <= 1.098612
|   |   |   |   |   |   |   |   |   |   |   |   |   |   |   cbo <= 0.693147
|   |   |   |   |   |   |   |   |   |   |   |   |   |   |   |   max_cc <= 0.693147: YES (4.0/1.0)
|   |   |   |   |   |   |   |   |   |   |   |   |   |   |   |   max_cc > 0.693147: NO (4.0/1.0)
|   |   |   |   |   |   |   |   |   |   |   |   |   |   |   cbo > 0.693147: NO (6.0/1.0)
|   |   |   |   |   |   |   |   |   |   |   |   |   |   lcom > 1.098612: YES (2.0)
|   |   |   |   |   |   |   |   |   |   |   |   |   loc > 4.65396: NO (9.0)
|   |   |   |   |   |   |   |   |   |   |   |   cbo > 1.386294
|   |   |   |   |   |   |   |   |   |   |   |   |   moa <= 0: YES (8.0/1.0)
|   |   |   |   |   |   |   |   |   |   |   |   |   moa > 0: NO (5.0/2.0)
|   |   |   |   |   |   |   |   |   |   |   dit > 0.693147
|   |   |   |   |   |   |   |   |   |   |   |   dit <= 1.098612: NO (7.0/1.0)
|   |   |   |   |   |   |   |   |   |   |   |   dit > 1.098612: YES (2.0)
|   |   |   |   |   |   |   |   |   |   dam > 0.534923: YES (3.0)
|   |   |   |   |   |   |   |   |   dam > 0.587787: NO (53.0/11.0)
|   |   |   |   |   |   |   |   ic > 0
|   |   |   |   |   |   |   |   |   npm <= 0.693147: NO (10.0/4.0)
|   |   |   |   |   |   |   |   |   npm > 0.693147: YES (7.0/1.0)
|   |   |   |   |   |   |   cbo > 2.302585
|   |   |   |   |   |   |   |   npm <= 1.386294: NO (50.0/3.0)
|   |   |   |   |   |   |   |   npm > 1.386294
|   |   |   |   |   |   |   |   |   dit <= 0.693147: NO (2.0)
|   |   |   |   |   |   |   |   |   dit > 0.693147: YES (2.0)
|   |   |   |   |   |   npm > 1.609438
|   |   |   |   |   |   |   ic <= 0
|   |   |   |   |   |   |   |   npm <= 1.791759
|   |   |   |   |   |   |   |   |   cbo <= 1.386294
|   |   |   |   |   |   |   |   |   |   cam <= 0.320472: YES (2.0)
|   |   |   |   |   |   |   |   |   |   cam > 0.320472: NO (7.0/1.0)
|   |   |   |   |   |   |   |   |   cbo > 1.386294: YES (16.0/1.0)
|   |   |   |   |   |   |   |   npm > 1.791759
|   |   |   |   |   |   |   |   |   lcom <= 2.833213
|   |   |   |   |   |   |   |   |   |   npm <= 2.302585: NO (40.0/10.0)
|   |   |   |   |   |   |   |   |   |   npm > 2.302585: YES (4.0/1.0)
|   |   |   |   |   |   |   |   |   lcom > 2.833213: YES (6.0/1.0)
|   |   |   |   |   |   |   ic > 0
|   |   |   |   |   |   |   |   mfa <= 0.432133: YES (7.0)
|   |   |   |   |   |   |   |   mfa > 0.432133
|   |   |   |   |   |   |   |   |   cbo <= 1.098612: YES (4.0/1.0)
|   |   |   |   |   |   |   |   |   cbo > 1.098612: NO (8.0/2.0)
|   |   |   |   |   mfa > 0.553885
|   |   |   |   |   |   moa <= 0: NO (214.0/29.0)
|   |   |   |   |   |   moa > 0
|   |   |   |   |   |   |   amc <= 3.594717
|   |   |   |   |   |   |   |   wmc <= 1.098612: YES (3.0/1.0)
|   |   |   |   |   |   |   |   wmc > 1.098612: NO (21.0/2.0)
|   |   |   |   |   |   |   amc > 3.594717: YES (3.0)
|   |   |   |   ca > 0
|   |   |   |   |   mfa <= 0.633043
|   |   |   |   |   |   wmc <= 2.70805
|   |   |   |   |   |   |   cbm <= 1.098612
|   |   |   |   |   |   |   |   ce <= 2.484907
|   |   |   |   |   |   |   |   |   max_cc <= 0
|   |   |   |   |   |   |   |   |   |   ca <= 1.098612: NO (9.0/1.0)
|   |   |   |   |   |   |   |   |   |   ca > 1.098612
|   |   |   |   |   |   |   |   |   |   |   ca <= 4.043051: YES (17.0/2.0)
|   |   |   |   |   |   |   |   |   |   |   ca > 4.043051: NO (2.0)
|   |   |   |   |   |   |   |   |   max_cc > 0
|   |   |   |   |   |   |   |   |   |   loc <= 4.418841
|   |   |   |   |   |   |   |   |   |   |   ca <= 2.197225
|   |   |   |   |   |   |   |   |   |   |   |   cbm <= 0.693147
|   |   |   |   |   |   |   |   |   |   |   |   |   moa <= 0.693147
|   |   |   |   |   |   |   |   |   |   |   |   |   |   ic <= 0
|   |   |   |   |   |   |   |   |   |   |   |   |   |   |   dit <= 0.693147: NO (392.0/99.0)
|   |   |   |   |   |   |   |   |   |   |   |   |   |   |   dit > 0.693147
|   |   |   |   |   |   |   |   |   |   |   |   |   |   |   |   lcom <= 0
|   |   |   |   |   |   |   |   |   |   |   |   |   |   |   |   |   mfa <= 0.480748: YES (5.0)
|   |   |   |   |   |   |   |   |   |   |   |   |   |   |   |   |   mfa > 0.480748
|   |   |   |   |   |   |   |   |   |   |   |   |   |   |   |   |   |   cbo <= 2.079442
|   |   |   |   |   |   |   |   |   |   |   |   |   |   |   |   |   |   |   moa <= 0
|   |   |   |   |   |   |   |   |   |   |   |   |   |   |   |   |   |   |   |   max_cc <= 0.693147: YES (8.0/2.0)
|   |   |   |   |   |   |   |   |   |   |   |   |   |   |   |   |   |   |   |   max_cc > 0.693147: NO (5.0)
|   |   |   |   |   |   |   |   |   |   |   |   |   |   |   |   |   |   |   moa > 0: NO (6.0/1.0)
|   |   |   |   |   |   |   |   |   |   |   |   |   |   |   |   |   |   cbo > 2.079442: YES (3.0)
|   |   |   |   |   |   |   |   |   |   |   |   |   |   |   |   lcom > 0: NO (75.0/10.0)
|   |   |   |   |   |   |   |   |   |   |   |   |   |   ic > 0: NO (41.0/5.0)
|   |   |   |   |   |   |   |   |   |   |   |   |   moa > 0.693147
|   |   |   |   |   |   |   |   |   |   |   |   |   |   wmc <= 1.098612: YES (3.0/1.0)
|   |   |   |   |   |   |   |   |   |   |   |   |   |   wmc > 1.098612
|   |   |   |   |   |   |   |   |   |   |   |   |   |   |   max_cc <= 0.693147: NO (24.0)
|   |   |   |   |   |   |   |   |   |   |   |   |   |   |   max_cc > 0.693147
|   |   |   |   |   |   |   |   |   |   |   |   |   |   |   |   ic <= 0
|   |   |   |   |   |   |   |   |   |   |   |   |   |   |   |   |   avg_cc <= 0.719107
|   |   |   |   |   |   |   |   |   |   |   |   |   |   |   |   |   |   cbo <= 1.609438: NO (2.0)
|   |   |   |   |   |   |   |   |   |   |   |   |   |   |   |   |   |   cbo > 1.609438: YES (2.0)
|   |   |   |   |   |   |   |   |   |   |   |   |   |   |   |   |   avg_cc > 0.719107: NO (13.0)
|   |   |   |   |   |   |   |   |   |   |   |   |   |   |   |   ic > 0: YES (2.0)
|   |   |   |   |   |   |   |   |   |   |   |   cbm > 0.693147
|   |   |   |   |   |   |   |   |   |   |   |   |   wmc <= 2.079442: NO (36.0/8.0)
|   |   |   |   |   |   |   |   |   |   |   |   |   wmc > 2.079442: YES (15.0/2.0)
|   |   |   |   |   |   |   |   |   |   |   ca > 2.197225
|   |   |   |   |   |   |   |   |   |   |   |   amc <= 2.4987
|   |   |   |   |   |   |   |   |   |   |   |   |   max_cc <= 0.693147
|   |   |   |   |   |   |   |   |   |   |   |   |   |   rfc <= 2.197225
|   |   |   |   |   |   |   |   |   |   |   |   |   |   |   moa <= 0
|   |   |   |   |   |   |   |   |   |   |   |   |   |   |   |   wmc <= 2.079442
|   |   |   |   |   |   |   |   |   |   |   |   |   |   |   |   |   dam <= 0.34484
|   |   |   |   |   |   |   |   |   |   |   |   |   |   |   |   |   |   dit <= 0.693147
|   |   |   |   |   |   |   |   |   |   |   |   |   |   |   |   |   |   |   ce <= 1.098612
|   |   |   |   |   |   |   |   |   |   |   |   |   |   |   |   |   |   |   |   avg_cc <= 0.594707: YES (9.0/3.0)
|   |   |   |   |   |   |   |   |   |   |   |   |   |   |   |   |   |   |   |   avg_cc > 0.594707
|   |   |   |   |   |   |   |   |   |   |   |   |   |   |   |   |   |   |   |   |   lcom3 <= 0.990399: YES (3.0)
|   |   |   |   |   |   |   |   |   |   |   |   |   |   |   |   |   |   |   |   |   lcom3 > 0.990399: NO (51.0/15.0)
|   |   |   |   |   |   |   |   |   |   |   |   |   |   |   |   |   |   |   ce > 1.098612
|   |   |   |   |   |   |   |   |   |   |   |   |   |   |   |   |   |   |   |   npm <= 0.693147: NO (3.0/1.0)
|   |   |   |   |   |   |   |   |   |   |   |   |   |   |   |   |   |   |   |   npm > 0.693147: YES (9.0/2.0)
|   |   |   |   |   |   |   |   |   |   |   |   |   |   |   |   |   |   dit > 0.693147: NO (6.0/1.0)
|   |   |   |   |   |   |   |   |   |   |   |   |   |   |   |   |   dam > 0.34484
|   |   |   |   |   |   |   |   |   |   |   |   |   |   |   |   |   |   wmc <= 1.791759: YES (5.0/1.0)
|   |   |   |   |   |   |   |   |   |   |   |   |   |   |   |   |   |   wmc > 1.791759: NO (2.0)
|   |   |   |   |   |   |   |   |   |   |   |   |   |   |   |   wmc > 2.079442: NO (5.0)
|   |   |   |   |   |   |   |   |   |   |   |   |   |   |   moa > 0
|   |   |   |   |   |   |   |   |   |   |   |   |   |   |   |   ca <= 2.397895: NO (3.0)
|   |   |   |   |   |   |   |   |   |   |   |   |   |   |   |   ca > 2.397895: YES (5.0/2.0)
|   |   |   |   |   |   |   |   |   |   |   |   |   |   rfc > 2.197225
|   |   |   |   |   |   |   |   |   |   |   |   |   |   |   noc <= 0: NO (3.0/1.0)
|   |   |   |   |   |   |   |   |   |   |   |   |   |   |   noc > 0: YES (7.0)
|   |   |   |   |   |   |   |   |   |   |   |   |   max_cc > 0.693147
|   |   |   |   |   |   |   |   |   |   |   |   |   |   noc <= 0: YES (4.0)
|   |   |   |   |   |   |   |   |   |   |   |   |   |   noc > 0: NO (3.0/1.0)
|   |   |   |   |   |   |   |   |   |   |   |   amc > 2.4987: NO (7.0)
|   |   |   |   |   |   |   |   |   |   loc > 4.418841
|   |   |   |   |   |   |   |   |   |   |   moa <= 0
|   |   |   |   |   |   |   |   |   |   |   |   ce <= 2.197225
|   |   |   |   |   |   |   |   |   |   |   |   |   npm <= 2.397895
|   |   |   |   |   |   |   |   |   |   |   |   |   |   avg_cc <= 0.619016
|   |   |   |   |   |   |   |   |   |   |   |   |   |   |   dit <= 0.693147
|   |   |   |   |   |   |   |   |   |   |   |   |   |   |   |   amc <= 3.341093: YES (13.0)
|   |   |   |   |   |   |   |   |   |   |   |   |   |   |   |   amc > 3.341093
|   |   |   |   |   |   |   |   |   |   |   |   |   |   |   |   |   cbo <= 1.609438: NO (4.0)
|   |   |   |   |   |   |   |   |   |   |   |   |   |   |   |   |   cbo > 1.609438: YES (17.0/3.0)
|   |   |   |   |   |   |   |   |   |   |   |   |   |   |   dit > 0.693147
|   |   |   |   |   |   |   |   |   |   |   |   |   |   |   |   ca <= 0.693147
|   |   |   |   |   |   |   |   |   |   |   |   |   |   |   |   |   max_cc <= 0.693147
|   |   |   |   |   |   |   |   |   |   |   |   |   |   |   |   |   |   mfa <= 0.58103: NO (15.0/4.0)
|   |   |   |   |   |   |   |   |   |   |   |   |   |   |   |   |   |   mfa > 0.58103: YES (2.0)
|   |   |   |   |   |   |   |   |   |   |   |   |   |   |   |   |   max_cc > 0.693147: YES (3.0/1.0)
|   |   |   |   |   |   |   |   |   |   |   |   |   |   |   |   ca > 0.693147: YES (15.0/5.0)
|   |   |   |   |   |   |   |   |   |   |   |   |   |   avg_cc > 0.619016
|   |   |   |   |   |   |   |   |   |   |   |   |   |   |   max_cc <= 1.791759
|   |   |   |   |   |   |   |   |   |   |   |   |   |   |   |   lcom <= 1.94591
|   |   |   |   |   |   |   |   |   |   |   |   |   |   |   |   |   ca <= 1.098612: NO (61.0/13.0)
|   |   |   |   |   |   |   |   |   |   |   |   |   |   |   |   |   ca > 1.098612
|   |   |   |   |   |   |   |   |   |   |   |   |   |   |   |   |   |   dit <= 0.693147
|   |   |   |   |   |   |   |   |   |   |   |   |   |   |   |   |   |   |   rfc <= 2.833213: NO (3.0/1.0)
|   |   |   |   |   |   |   |   |   |   |   |   |   |   |   |   |   |   |   rfc > 2.833213: YES (10.0/1.0)
|   |   |   |   |   |   |   |   |   |   |   |   |   |   |   |   |   |   dit > 0.693147: NO (9.0/3.0)
|   |   |   |   |   |   |   |   |   |   |   |   |   |   |   |   lcom > 1.94591: NO (28.0/3.0)
|   |   |   |   |   |   |   |   |   |   |   |   |   |   |   max_cc > 1.791759
|   |   |   |   |   |   |   |   |   |   |   |   |   |   |   |   noc <= 0.693147
|   |   |   |   |   |   |   |   |   |   |   |   |   |   |   |   |   dit <= 1.098612
|   |   |   |   |   |   |   |   |   |   |   |   |   |   |   |   |   |   dit <= 0.693147
|   |   |   |   |   |   |   |   |   |   |   |   |   |   |   |   |   |   |   noc <= 0: NO (38.0/17.0)
|   |   |   |   |   |   |   |   |   |   |   |   |   |   |   |   |   |   |   noc > 0: YES (4.0/1.0)
|   |   |   |   |   |   |   |   |   |   |   |   |   |   |   |   |   |   dit > 0.693147
|   |   |   |   |   |   |   |   |   |   |   |   |   |   |   |   |   |   |   ce <= 1.609438: YES (9.0)
|   |   |   |   |   |   |   |   |   |   |   |   |   |   |   |   |   |   |   ce > 1.609438: NO (3.0/1.0)
|   |   |   |   |   |   |   |   |   |   |   |   |   |   |   |   |   dit > 1.098612: NO (16.0/3.0)
|   |   |   |   |   |   |   |   |   |   |   |   |   |   |   |   noc > 0.693147: NO (4.0)
|   |   |   |   |   |   |   |   |   |   |   |   |   npm > 2.397895
|   |   |   |   |   |   |   |   |   |   |   |   |   |   cam <= 0.283126: YES (3.0)
|   |   |   |   |   |   |   |   |   |   |   |   |   |   cam > 0.283126: NO (26.0)
|   |   |   |   |   |   |   |   |   |   |   |   ce > 2.197225: NO (55.0/6.0)
|   |   |   |   |   |   |   |   |   |   |   moa > 0
|   |   |   |   |   |   |   |   |   |   |   |   noc <= 0.693147
|   |   |   |   |   |   |   |   |   |   |   |   |   moa <= 0.693147
|   |   |   |   |   |   |   |   |   |   |   |   |   |   ic <= 0.693147
|   |   |   |   |   |   |   |   |   |   |   |   |   |   |   ic <= 0
|   |   |   |   |   |   |   |   |   |   |   |   |   |   |   |   wmc <= 2.564949: NO (83.0/36.0)
|   |   |   |   |   |   |   |   |   |   |   |   |   |   |   |   wmc > 2.564949: YES (3.0)
|   |   |   |   |   |   |   |   |   |   |   |   |   |   |   ic > 0
|   |   |   |   |   |   |   |   |   |   |   |   |   |   |   |   noc <= 0
|   |   |   |   |   |   |   |   |   |   |   |   |   |   |   |   |   amc <= 2.616483: YES (3.0)
|   |   |   |   |   |   |   |   |   |   |   |   |   |   |   |   |   amc > 2.616483
|   |   |   |   |   |   |   |   |   |   |   |   |   |   |   |   |   |   ce <= 2.302585: NO (29.0/5.0)
|   |   |   |   |   |   |   |   |   |   |   |   |   |   |   |   |   |   ce > 2.302585: YES (2.0)
|   |   |   |   |   |   |   |   |   |   |   |   |   |   |   |   noc > 0: YES (2.0)
|   |   |   |   |   |   |   |   |   |   |   |   |   |   ic > 0.693147
|   |   |   |   |   |   |   |   |   |   |   |   |   |   |   dit <= 1.098612: YES (5.0)
|   |   |   |   |   |   |   |   |   |   |   |   |   |   |   dit > 1.098612
|   |   |   |   |   |   |   |   |   |   |   |   |   |   |   |   avg_cc <= 0.834213: YES (3.0)
|   |   |   |   |   |   |   |   |   |   |   |   |   |   |   |   avg_cc > 0.834213: NO (3.0)
|   |   |   |   |   |   |   |   |   |   |   |   |   moa > 0.693147
|   |   |   |   |   |   |   |   |   |   |   |   |   |   ic <= 0
|   |   |   |   |   |   |   |   |   |   |   |   |   |   |   wmc <= 2.397895: YES (62.0/20.0)
|   |   |   |   |   |   |   |   |   |   |   |   |   |   |   wmc > 2.397895
|   |   |   |   |   |   |   |   |   |   |   |   |   |   |   |   amc <= 2.100061: YES (2.0)
|   |   |   |   |   |   |   |   |   |   |   |   |   |   |   |   amc > 2.100061: NO (9.0/1.0)
|   |   |   |   |   |   |   |   |   |   |   |   |   |   ic > 0
|   |   |   |   |   |   |   |   |   |   |   |   |   |   |   cam <= 0.332134
|   |   |   |   |   |   |   |   |   |   |   |   |   |   |   |   lcom3 <= 0.331357: NO (7.0/2.0)
|   |   |   |   |   |   |   |   |   |   |   |   |   |   |   |   lcom3 > 0.331357: YES (7.0)
|   |   |   |   |   |   |   |   |   |   |   |   |   |   |   cam > 0.332134: NO (7.0)
|   |   |   |   |   |   |   |   |   |   |   |   noc > 0.693147: NO (15.0/3.0)
|   |   |   |   |   |   |   |   ce > 2.484907
|   |   |   |   |   |   |   |   |   dit <= 1.098612
|   |   |   |   |   |   |   |   |   |   ic <= 0
|   |   |   |   |   |   |   |   |   |   |   dit <= 0.693147
|   |   |   |   |   |   |   |   |   |   |   |   moa <= 0
|   |   |   |   |   |   |   |   |   |   |   |   |   avg_cc <= 1.069836
|   |   |   |   |   |   |   |   |   |   |   |   |   |   noc <= 2.639057: NO (10.0)
|   |   |   |   |   |   |   |   |   |   |   |   |   |   noc > 2.639057: YES (3.0/1.0)
|   |   |   |   |   |   |   |   |   |   |   |   |   avg_cc > 1.069836: YES (15.0/5.0)
|   |   |   |   |   |   |   |   |   |   |   |   moa > 0
|   |   |   |   |   |   |   |   |   |   |   |   |   wmc <= 2.197225: YES (12.0/2.0)
|   |   |   |   |   |   |   |   |   |   |   |   |   wmc > 2.197225: NO (4.0/1.0)
|   |   |   |   |   |   |   |   |   |   |   dit > 0.693147
|   |   |   |   |   |   |   |   |   |   |   |   rfc <= 3.044522: YES (5.0)
|   |   |   |   |   |   |   |   |   |   |   |   rfc > 3.044522
|   |   |   |   |   |   |   |   |   |   |   |   |   dam <= 0.624154: NO (5.0)
|   |   |   |   |   |   |   |   |   |   |   |   |   dam > 0.624154: YES (3.0/1.0)
|   |   |   |   |   |   |   |   |   |   ic > 0: YES (16.0/5.0)
|   |   |   |   |   |   |   |   |   dit > 1.098612: NO (7.0)
|   |   |   |   |   |   |   cbm > 1.098612
|   |   |   |   |   |   |   |   mfa <= 0.572265
|   |   |   |   |   |   |   |   |   ca <= 0.693147
|   |   |   |   |   |   |   |   |   |   dit <= 1.098612
|   |   |   |   |   |   |   |   |   |   |   cam <= 0.297252
|   |   |   |   |   |   |   |   |   |   |   |   wmc <= 1.94591: NO (3.0/1.0)
|   |   |   |   |   |   |   |   |   |   |   |   wmc > 1.94591: YES (2.0)
|   |   |   |   |   |   |   |   |   |   |   cam > 0.297252: NO (10.0)
|   |   |   |   |   |   |   |   |   |   dit > 1.098612: YES (7.0/2.0)
|   |   |   |   |   |   |   |   |   ca > 0.693147
|   |   |   |   |   |   |   |   |   |   lcom3 <= 0.336472
|   |   |   |   |   |   |   |   |   |   |   ic <= 0.693147: YES (3.0/1.0)
|   |   |   |   |   |   |   |   |   |   |   ic > 0.693147: NO (4.0/1.0)
|   |   |   |   |   |   |   |   |   |   lcom3 > 0.336472: YES (30.0/1.0)
|   |   |   |   |   |   |   |   mfa > 0.572265: NO (10.0/1.0)
|   |   |   |   |   |   wmc > 2.70805
|   |   |   |   |   |   |   dit <= 1.098612
|   |   |   |   |   |   |   |   max_cc <= 0.693147: YES (10.0)
|   |   |   |   |   |   |   |   max_cc > 0.693147
|   |   |   |   |   |   |   |   |   wmc <= 3.663562
|   |   |   |   |   |   |   |   |   |   noc <= 0.693147: YES (12.0/1.0)
|   |   |   |   |   |   |   |   |   |   noc > 0.693147: NO (3.0/1.0)
|   |   |   |   |   |   |   |   |   wmc > 3.663562: NO (3.0)
|   |   |   |   |   |   |   dit > 1.098612: NO (2.0)
|   |   |   |   |   mfa > 0.633043
|   |   |   |   |   |   rfc <= 2.995732
|   |   |   |   |   |   |   moa <= 0
|   |   |   |   |   |   |   |   ce <= 1.609438
|   |   |   |   |   |   |   |   |   loc <= 3.688879
|   |   |   |   |   |   |   |   |   |   ic <= 0
|   |   |   |   |   |   |   |   |   |   |   dit <= 1.386294
|   |   |   |   |   |   |   |   |   |   |   |   avg_cc <= 0.435347
|   |   |   |   |   |   |   |   |   |   |   |   |   ca <= 0.693147: NO (13.0)
|   |   |   |   |   |   |   |   |   |   |   |   |   ca > 0.693147
|   |   |   |   |   |   |   |   |   |   |   |   |   |   max_cc <= 0
|   |   |   |   |   |   |   |   |   |   |   |   |   |   |   dit <= 1.098612: NO (2.0)
|   |   |   |   |   |   |   |   |   |   |   |   |   |   |   dit > 1.098612: YES (4.0/1.0)
|   |   |   |   |   |   |   |   |   |   |   |   |   |   max_cc > 0
|   |   |   |   |   |   |   |   |   |   |   |   |   |   |   mfa <= 0.675129
|   |   |   |   |   |   |   |   |   |   |   |   |   |   |   |   cbo <= 1.791759: YES (3.0)
|   |   |   |   |   |   |   |   |   |   |   |   |   |   |   |   cbo > 1.791759
|   |   |   |   |   |   |   |   |   |   |   |   |   |   |   |   |   mfa <= 0.642375: YES (2.0)
|   |   |   |   |   |   |   |   |   |   |   |   |   |   |   |   |   mfa > 0.642375: NO (10.0/1.0)
|   |   |   |   |   |   |   |   |   |   |   |   |   |   |   mfa > 0.675129: NO (6.0)
|   |   |   |   |   |   |   |   |   |   |   |   avg_cc > 0.435347
|   |   |   |   |   |   |   |   |   |   |   |   |   noc <= 0: YES (7.0/1.0)
|   |   |   |   |   |   |   |   |   |   |   |   |   noc > 0
|   |   |   |   |   |   |   |   |   |   |   |   |   |   rfc <= 1.609438: YES (4.0/1.0)
|   |   |   |   |   |   |   |   |   |   |   |   |   |   rfc > 1.609438: NO (2.0)
|   |   |   |   |   |   |   |   |   |   |   dit > 1.386294
|   |   |   |   |   |   |   |   |   |   |   |   ce <= 1.386294
|   |   |   |   |   |   |   |   |   |   |   |   |   lcom3 <= 0.457425: NO (4.0)
|   |   |   |   |   |   |   |   |   |   |   |   |   lcom3 > 0.457425
|   |   |   |   |   |   |   |   |   |   |   |   |   |   lcom <= 0.693147
|   |   |   |   |   |   |   |   |   |   |   |   |   |   |   dit <= 1.791759: YES (14.0/3.0)
|   |   |   |   |   |   |   |   |   |   |   |   |   |   |   dit > 1.791759
|   |   |   |   |   |   |   |   |   |   |   |   |   |   |   |   cbo <= 1.098612: YES (3.0/1.0)
|   |   |   |   |   |   |   |   |   |   |   |   |   |   |   |   cbo > 1.098612: NO (2.0)
|   |   |   |   |   |   |   |   |   |   |   |   |   |   lcom > 0.693147: NO (27.0/9.0)
|   |   |   |   |   |   |   |   |   |   |   |   ce > 1.386294: YES (4.0)
|   |   |   |   |   |   |   |   |   |   ic > 0
|   |   |   |   |   |   |   |   |   |   |   lcom3 <= 0.826679: YES (7.0)
|   |   |   |   |   |   |   |   |   |   |   lcom3 > 0.826679
|   |   |   |   |   |   |   |   |   |   |   |   noc <= 0
|   |   |   |   |   |   |   |   |   |   |   |   |   ca <= 1.386294
|   |   |   |   |   |   |   |   |   |   |   |   |   |   max_cc <= 0.693147
|   |   |   |   |   |   |   |   |   |   |   |   |   |   |   mfa <= 0.66416: NO (8.0/2.0)
|   |   |   |   |   |   |   |   |   |   |   |   |   |   |   mfa > 0.66416
|   |   |   |   |   |   |   |   |   |   |   |   |   |   |   |   rfc <= 2.079442: YES (13.0)
|   |   |   |   |   |   |   |   |   |   |   |   |   |   |   |   rfc > 2.079442: NO (3.0/1.0)
|   |   |   |   |   |   |   |   |   |   |   |   |   |   max_cc > 0.693147: YES (3.0/1.0)
|   |   |   |   |   |   |   |   |   |   |   |   |   ca > 1.386294: NO (9.0/2.0)
|   |   |   |   |   |   |   |   |   |   |   |   noc > 0: NO (2.0)
|   |   |   |   |   |   |   |   |   loc > 3.688879: NO (20.0/1.0)
|   |   |   |   |   |   |   |   ce > 1.609438
|   |   |   |   |   |   |   |   |   ce <= 2.197225
|   |   |   |   |   |   |   |   |   |   noc <= 0
|   |   |   |   |   |   |   |   |   |   |   rfc <= 2.302585: YES (25.0/3.0)
|   |   |   |   |   |   |   |   |   |   |   rfc > 2.302585
|   |   |   |   |   |   |   |   |   |   |   |   dit <= 1.609438
|   |   |   |   |   |   |   |   |   |   |   |   |   cbo <= 1.94591: NO (4.0)
|   |   |   |   |   |   |   |   |   |   |   |   |   cbo > 1.94591
|   |   |   |   |   |   |   |   |   |   |   |   |   |   mfa <= 0.642375: YES (9.0/1.0)
|   |   |   |   |   |   |   |   |   |   |   |   |   |   mfa > 0.642375
|   |   |   |   |   |   |   |   |   |   |   |   |   |   |   lcom <= 2.197225
|   |   |   |   |   |   |   |   |   |   |   |   |   |   |   |   dit <= 1.386294
|   |   |   |   |   |   |   |   |   |   |   |   |   |   |   |   |   lcom3 <= 0.105361: YES (2.0)
|   |   |   |   |   |   |   |   |   |   |   |   |   |   |   |   |   lcom3 > 0.105361
|   |   |   |   |   |   |   |   |   |   |   |   |   |   |   |   |   |   ic <= 0: NO (11.0/5.0)
|   |   |   |   |   |   |   |   |   |   |   |   |   |   |   |   |   |   ic > 0
|   |   |   |   |   |   |   |   |   |   |   |   |   |   |   |   |   |   |   wmc <= 1.098612: YES (5.0/2.0)
|   |   |   |   |   |   |   |   |   |   |   |   |   |   |   |   |   |   |   wmc > 1.098612
|   |   |   |   |   |   |   |   |   |   |   |   |   |   |   |   |   |   |   |   mfa <= 0.659699: YES (9.0/3.0)
|   |   |   |   |   |   |   |   |   |   |   |   |   |   |   |   |   |   |   |   mfa > 0.659699: NO (8.0)
|   |   |   |   |   |   |   |   |   |   |   |   |   |   |   |   dit > 1.386294: YES (2.0)
|   |   |   |   |   |   |   |   |   |   |   |   |   |   |   lcom > 2.197225: NO (14.0/1.0)
|   |   |   |   |   |   |   |   |   |   |   |   dit > 1.609438: YES (4.0)
|   |   |   |   |   |   |   |   |   |   noc > 0: YES (5.0)
|   |   |   |   |   |   |   |   |   ce > 2.197225: YES (6.0)
|   |   |   |   |   |   |   moa > 0
|   |   |   |   |   |   |   |   wmc <= 1.94591
|   |   |   |   |   |   |   |   |   mfa <= 0.671794: NO (19.0/1.0)
|   |   |   |   |   |   |   |   |   mfa > 0.671794
|   |   |   |   |   |   |   |   |   |   wmc <= 0.693147: NO (3.0/1.0)
|   |   |   |   |   |   |   |   |   |   wmc > 0.693147: YES (3.0)
|   |   |   |   |   |   |   |   wmc > 1.94591: YES (5.0/1.0)
|   |   |   |   |   |   rfc > 2.995732
|   |   |   |   |   |   |   cam <= 0.532805
|   |   |   |   |   |   |   |   ic <= 0
|   |   |   |   |   |   |   |   |   max_cc <= 1.098612: YES (5.0)
|   |   |   |   |   |   |   |   |   max_cc > 1.098612: NO (2.0)
|   |   |   |   |   |   |   |   ic > 0: YES (39.0)
|   |   |   |   |   |   |   cam > 0.532805
|   |   |   |   |   |   |   |   npm <= 1.098612: NO (8.0/2.0)
|   |   |   |   |   |   |   |   npm > 1.098612: YES (3.0/1.0)
|   |   |   lcom > 3.433987
|   |   |   |   npm <= 1.386294: YES (34.0/1.0)
|   |   |   |   npm > 1.386294
|   |   |   |   |   dit <= 1.386294
|   |   |   |   |   |   noc <= 0.693147
|   |   |   |   |   |   |   max_cc <= 1.098612
|   |   |   |   |   |   |   |   max_cc <= 0.693147
|   |   |   |   |   |   |   |   |   ic <= 0
|   |   |   |   |   |   |   |   |   |   dit <= 1.098612
|   |   |   |   |   |   |   |   |   |   |   dit <= 0.693147
|   |   |   |   |   |   |   |   |   |   |   |   loc <= 5.298317: YES (68.0/27.0)
|   |   |   |   |   |   |   |   |   |   |   |   loc > 5.298317: NO (5.0)
|   |   |   |   |   |   |   |   |   |   |   dit > 0.693147
|   |   |   |   |   |   |   |   |   |   |   |   ca <= 0.693147: NO (4.0)
|   |   |   |   |   |   |   |   |   |   |   |   ca > 0.693147
|   |   |   |   |   |   |   |   |   |   |   |   |   cbo <= 1.609438: YES (30.0/13.0)
|   |   |   |   |   |   |   |   |   |   |   |   |   cbo > 1.609438: NO (19.0/8.0)
|   |   |   |   |   |   |   |   |   |   dit > 1.098612: YES (8.0/2.0)
|   |   |   |   |   |   |   |   |   ic > 0
|   |   |   |   |   |   |   |   |   |   ce <= 1.94591
|   |   |   |   |   |   |   |   |   |   |   moa <= 0.693147: YES (16.0/5.0)
|   |   |   |   |   |   |   |   |   |   |   moa > 0.693147: NO (2.0)
|   |   |   |   |   |   |   |   |   |   ce > 1.94591: NO (4.0)
|   |   |   |   |   |   |   |   max_cc > 0.693147
|   |   |   |   |   |   |   |   |   ca <= 2.197225
|   |   |   |   |   |   |   |   |   |   amc <= 1.931521: NO (2.0)
|   |   |   |   |   |   |   |   |   |   amc > 1.931521: YES (15.0/1.0)
|   |   |   |   |   |   |   |   |   ca > 2.197225: NO (2.0)
|   |   |   |   |   |   |   max_cc > 1.098612
|   |   |   |   |   |   |   |   lcom3 <= 0.515164: NO (16.0/1.0)
|   |   |   |   |   |   |   |   lcom3 > 0.515164
|   |   |   |   |   |   |   |   |   max_cc <= 2.197225
|   |   |   |   |   |   |   |   |   |   lcom3 <= 0.576176
|   |   |   |   |   |   |   |   |   |   |   lcom3 <= 0.557346: NO (9.0/4.0)
|   |   |   |   |   |   |   |   |   |   |   lcom3 > 0.557346: YES (8.0)
|   |   |   |   |   |   |   |   |   |   lcom3 > 0.576176
|   |   |   |   |   |   |   |   |   |   |   cam <= 0.283799
|   |   |   |   |   |   |   |   |   |   |   |   moa <= 1.098612: NO (24.0/2.0)
|   |   |   |   |   |   |   |   |   |   |   |   moa > 1.098612: YES (3.0/1.0)
|   |   |   |   |   |   |   |   |   |   |   cam > 0.283799: YES (6.0/2.0)
|   |   |   |   |   |   |   |   |   max_cc > 2.197225: YES (4.0)
|   |   |   |   |   |   noc > 0.693147
|   |   |   |   |   |   |   cbo <= 2.079442: NO (4.0)
|   |   |   |   |   |   |   cbo > 2.079442
|   |   |   |   |   |   |   |   npm <= 2.079442: NO (5.0/1.0)
|   |   |   |   |   |   |   |   npm > 2.079442: YES (44.0/8.0)
|   |   |   |   |   dit > 1.386294
|   |   |   |   |   |   cbo <= 2.484907
|   |   |   |   |   |   |   dit <= 1.609438: NO (16.0)
|   |   |   |   |   |   |   dit > 1.609438: YES (3.0/1.0)
|   |   |   |   |   |   cbo > 2.484907: YES (3.0)
|   |   cbm > 1.386294
|   |   |   mfa <= 0.675129
|   |   |   |   ce <= 2.397895
|   |   |   |   |   cam <= 0.449917
|   |   |   |   |   |   dit <= 1.609438
|   |   |   |   |   |   |   cbm <= 1.609438
|   |   |   |   |   |   |   |   dam <= 0.62253: YES (103.0/6.0)
|   |   |   |   |   |   |   |   dam > 0.62253
|   |   |   |   |   |   |   |   |   rfc <= 3.713572
|   |   |   |   |   |   |   |   |   |   lcom3 <= 0.310155: YES (2.0)
|   |   |   |   |   |   |   |   |   |   lcom3 > 0.310155: NO (14.0/3.0)
|   |   |   |   |   |   |   |   |   rfc > 3.713572: YES (5.0)
|   |   |   |   |   |   |   cbm > 1.609438
|   |   |   |   |   |   |   |   cbo <= 2.397895
|   |   |   |   |   |   |   |   |   ic <= 0.693147: YES (277.0/114.0)
|   |   |   |   |   |   |   |   |   ic > 0.693147
|   |   |   |   |   |   |   |   |   |   max_cc <= 1.098612
|   |   |   |   |   |   |   |   |   |   |   lcom3 <= 0.525714: NO (3.0/1.0)
|   |   |   |   |   |   |   |   |   |   |   lcom3 > 0.525714: YES (9.0)
|   |   |   |   |   |   |   |   |   |   max_cc > 1.098612: NO (9.0/2.0)
|   |   |   |   |   |   |   |   cbo > 2.397895: YES (18.0/2.0)
|   |   |   |   |   |   dit > 1.609438
|   |   |   |   |   |   |   mfa <= 0.627764: NO (17.0)
|   |   |   |   |   |   |   mfa > 0.627764
|   |   |   |   |   |   |   |   lcom3 <= 0.514664: NO (4.0)
|   |   |   |   |   |   |   |   lcom3 > 0.514664: YES (14.0/1.0)
|   |   |   |   |   cam > 0.449917
|   |   |   |   |   |   dit <= 1.386294
|   |   |   |   |   |   |   lcom <= 0.693147
|   |   |   |   |   |   |   |   mfa <= 0.67187: YES (3.0)
|   |   |   |   |   |   |   |   mfa > 0.67187
|   |   |   |   |   |   |   |   |   max_cc <= 1.791759: NO (2.0)
|   |   |   |   |   |   |   |   |   max_cc > 1.791759: YES (2.0)
|   |   |   |   |   |   |   lcom > 0.693147: NO (3.0)
|   |   |   |   |   |   dit > 1.386294: NO (19.0)
|   |   |   |   ce > 2.397895
|   |   |   |   |   npm <= 1.098612: NO (3.0/1.0)
|   |   |   |   |   npm > 1.098612: YES (56.0)
|   |   |   mfa > 0.675129: YES (78.0/1.0)
|   loc > 5.673323
|   |   rfc <= 2.772589: YES (80.0/2.0)
|   |   rfc > 2.772589
|   |   |   ce <= 3.178054
|   |   |   |   cbm <= 2.197225
|   |   |   |   |   dit <= 1.098612: YES (879.0/262.0)
|   |   |   |   |   dit > 1.098612
|   |   |   |   |   |   cbm <= 1.609438
|   |   |   |   |   |   |   moa <= 0.693147
|   |   |   |   |   |   |   |   ce <= 2.833213
|   |   |   |   |   |   |   |   |   ca <= 0
|   |   |   |   |   |   |   |   |   |   dam <= 0.610909: NO (15.0)
|   |   |   |   |   |   |   |   |   |   dam > 0.610909
|   |   |   |   |   |   |   |   |   |   |   cam <= 0.374693
|   |   |   |   |   |   |   |   |   |   |   |   lcom <= 2.484907: YES (5.0)
|   |   |   |   |   |   |   |   |   |   |   |   lcom > 2.484907
|   |   |   |   |   |   |   |   |   |   |   |   |   mfa <= 0.549253
|   |   |   |   |   |   |   |   |   |   |   |   |   |   npm <= 2.944439: YES (7.0/1.0)
|   |   |   |   |   |   |   |   |   |   |   |   |   |   npm > 2.944439: NO (6.0/1.0)
|   |   |   |   |   |   |   |   |   |   |   |   |   mfa > 0.549253: NO (17.0/1.0)
|   |   |   |   |   |   |   |   |   |   |   cam > 0.374693: NO (8.0)
|   |   |   |   |   |   |   |   |   ca > 0
|   |   |   |   |   |   |   |   |   |   dit <= 1.386294
|   |   |   |   |   |   |   |   |   |   |   cbm <= 0.693147
|   |   |   |   |   |   |   |   |   |   |   |   ce <= 2.197225
|   |   |   |   |   |   |   |   |   |   |   |   |   ce <= 1.791759
|   |   |   |   |   |   |   |   |   |   |   |   |   |   amc <= 4.360973: NO (7.0/1.0)
|   |   |   |   |   |   |   |   |   |   |   |   |   |   amc > 4.360973: YES (2.0)
|   |   |   |   |   |   |   |   |   |   |   |   |   ce > 1.791759: YES (5.0)
|   |   |   |   |   |   |   |   |   |   |   |   ce > 2.197225: NO (8.0)
|   |   |   |   |   |   |   |   |   |   |   cbm > 0.693147
|   |   |   |   |   |   |   |   |   |   |   |   ic <= 1.098612
|   |   |   |   |   |   |   |   |   |   |   |   |   dam <= 0.213574: NO (2.0)
|   |   |   |   |   |   |   |   |   |   |   |   |   dam > 0.213574
|   |   |   |   |   |   |   |   |   |   |   |   |   |   dam <= 0.597837: YES (6.0)
|   |   |   |   |   |   |   |   |   |   |   |   |   |   dam > 0.597837
|   |   |   |   |   |   |   |   |   |   |   |   |   |   |   moa <= 0
|   |   |   |   |   |   |   |   |   |   |   |   |   |   |   |   ce <= 2.079442: YES (6.0/1.0)
|   |   |   |   |   |   |   |   |   |   |   |   |   |   |   |   ce > 2.079442
|   |   |   |   |   |   |   |   |   |   |   |   |   |   |   |   |   amc <= 3.307168: YES (2.0)
|   |   |   |   |   |   |   |   |   |   |   |   |   |   |   |   |   amc > 3.307168: NO (7.0/1.0)
|   |   |   |   |   |   |   |   |   |   |   |   |   |   |   moa > 0
|   |   |   |   |   |   |   |   |   |   |   |   |   |   |   |   wmc <= 2.564949: YES (8.0/1.0)
|   |   |   |   |   |   |   |   |   |   |   |   |   |   |   |   wmc > 2.564949: NO (4.0/1.0)
|   |   |   |   |   |   |   |   |   |   |   |   ic > 1.098612: NO (2.0)
|   |   |   |   |   |   |   |   |   |   dit > 1.386294
|   |   |   |   |   |   |   |   |   |   |   loc <= 5.805135: NO (3.0)
|   |   |   |   |   |   |   |   |   |   |   loc > 5.805135
|   |   |   |   |   |   |   |   |   |   |   |   dit <= 1.609438: YES (14.0/2.0)
|   |   |   |   |   |   |   |   |   |   |   |   dit > 1.609438
|   |   |   |   |   |   |   |   |   |   |   |   |   ic <= 0.693147: YES (2.0)
|   |   |   |   |   |   |   |   |   |   |   |   |   ic > 0.693147: NO (2.0)
|   |   |   |   |   |   |   |   ce > 2.833213: NO (8.0)
|   |   |   |   |   |   |   moa > 0.693147
|   |   |   |   |   |   |   |   dit <= 1.386294
|   |   |   |   |   |   |   |   |   moa <= 1.098612: YES (13.0/2.0)
|   |   |   |   |   |   |   |   |   moa > 1.098612
|   |   |   |   |   |   |   |   |   |   amc <= 3.532643
|   |   |   |   |   |   |   |   |   |   |   wmc <= 3.465736
|   |   |   |   |   |   |   |   |   |   |   |   cbm <= 1.098612: NO (9.0/1.0)
|   |   |   |   |   |   |   |   |   |   |   |   cbm > 1.098612
|   |   |   |   |   |   |   |   |   |   |   |   |   rfc <= 4.248495: YES (4.0)
|   |   |   |   |   |   |   |   |   |   |   |   |   rfc > 4.248495: NO (2.0)
|   |   |   |   |   |   |   |   |   |   |   wmc > 3.465736: YES (4.0)
|   |   |   |   |   |   |   |   |   |   amc > 3.532643: YES (5.0)
|   |   |   |   |   |   |   |   dit > 1.386294
|   |   |   |   |   |   |   |   |   dit <= 1.609438
|   |   |   |   |   |   |   |   |   |   ic <= 1.098612: YES (9.0)
|   |   |   |   |   |   |   |   |   |   ic > 1.098612
|   |   |   |   |   |   |   |   |   |   |   loc <= 6.563856: NO (2.0)
|   |   |   |   |   |   |   |   |   |   |   loc > 6.563856: YES (2.0)
|   |   |   |   |   |   |   |   |   dit > 1.609438: NO (2.0)
|   |   |   |   |   |   cbm > 1.609438
|   |   |   |   |   |   |   cbo <= 2.70805
|   |   |   |   |   |   |   |   cam <= 0.315081
|   |   |   |   |   |   |   |   |   lcom <= 4.290459: YES (10.0)
|   |   |   |   |   |   |   |   |   lcom > 4.290459
|   |   |   |   |   |   |   |   |   |   ic <= 0.693147: YES (3.0)
|   |   |   |   |   |   |   |   |   |   ic > 0.693147: NO (5.0/1.0)
|   |   |   |   |   |   |   |   cam > 0.315081: NO (4.0)
|   |   |   |   |   |   |   cbo > 2.70805: YES (17.0)
|   |   |   |   cbm > 2.197225
|   |   |   |   |   ce <= 1.791759
|   |   |   |   |   |   dit <= 1.386294: YES (5.0/1.0)
|   |   |   |   |   |   dit > 1.386294: NO (2.0)
|   |   |   |   |   ce > 1.791759: YES (42.0/1.0)
|   |   |   ce > 3.178054
|   |   |   |   amc <= 4.855373: YES (140.0/8.0)
|   |   |   |   amc > 4.855373
|   |   |   |   |   dit <= 0.693147: NO (6.0/1.0)
|   |   |   |   |   dit > 0.693147: YES (2.0)

Number of Leaves  : 	317

Size of the tree : 	633


Correctly Classified Instances        1789               64.2601 %
Incorrectly Classified Instances       995               35.7399 %
Kappa statistic                          0.1243
Mean absolute error                      0.4077
Root mean squared error                  0.5337
Relative absolute error                126.4626 %
Root relative squared error            132.9647 %
Coverage of cases (0.95 level)          90.7687 %
Mean rel. region size (0.95 level)      89.4935 %
Total Number of Instances             2784     

=== Confusion Matrix ===

    a    b   <-- classified as
 1524  698 |    a = NO
  297  265 |    b = YES

=== Detailed Accuracy By Class ===

                 TP Rate  FP Rate  Precision  Recall   F-Measure  MCC      ROC Area  PRC Area  Class
                 0.686    0.528    0.837      0.686    0.754      0.133    0.578     0.834     NO
                 0.472    0.314    0.275      0.472    0.348      0.133    0.578     0.236     YES
Weighted Avg.    0.643    0.485    0.724      0.643    0.672      0.133    0.578     0.713     

