Classifier...: weka.classifiers.trees.J48 -C 0.25 -M 2
Training file: C:\Users\HP\Desktop\AbdulAli\Camruz\Configuration4\dataK=11\1tr.csv

Testing file: C:\Users\HP\Desktop\AbdulAli\Camruz\Configuration4\dataK=11\1test.csv

J48 pruned tree
------------------

cbo <= 0.154151
|   amc <= 3.740161: YES (40.0/3.0)
|   amc > 3.740161: NO (4.0/1.0)
cbo > 0.154151
|   ce <= 3.218876
|   |   wmc <= 2.552046: NO (82.0/14.0)
|   |   wmc > 2.552046
|   |   |   dit <= 1.098612
|   |   |   |   npm <= 3.401197
|   |   |   |   |   lcom <= 5.32301
|   |   |   |   |   |   lcom <= 3.314186: YES (3.0)
|   |   |   |   |   |   lcom > 3.314186: NO (9.0/2.0)
|   |   |   |   |   lcom > 5.32301: YES (4.0)
|   |   |   |   npm > 3.401197: NO (4.0)
|   |   |   dit > 1.098612: YES (6.0)
|   ce > 3.218876: YES (10.0)

Number of Leaves  : 	9

Size of the tree : 	17


Correctly Classified Instances        5178               38.6562 %
Incorrectly Classified Instances      8217               61.3438 %
Kappa statistic                         -0.0433
Mean absolute error                      0.5725
Root mean squared error                  0.6737
Relative absolute error                123.4875 %
Root relative squared error            139.9196 %
Coverage of cases (0.95 level)          91.5864 %
Mean rel. region size (0.95 level)      91.4782 %
Total Number of Instances            13395     

=== Confusion Matrix ===

    a    b   <-- classified as
 1308 7196 |    a = NO
 1021 3870 |    b = YES

=== Detailed Accuracy By Class ===

                 TP Rate  FP Rate  Precision  Recall   F-Measure  MCC      ROC Area  PRC Area  Class
                 0.154    0.209    0.562      0.154    0.241      -0.070   0.444     0.612     NO
                 0.791    0.846    0.350      0.791    0.485      -0.070   0.444     0.346     YES
Weighted Avg.    0.387    0.442    0.484      0.387    0.330      -0.070   0.444     0.515     

