Classifier...: weka.classifiers.trees.J48 -C 0.25 -M 2
Training file: C:\Users\HP\Desktop\AbdulAli\Baseline\Configuration1\dataK=4\4tr.csv

Testing file: C:\Users\HP\Desktop\AbdulAli\Baseline\Configuration1\dataK=4\4test.csv

J48 pruned tree
------------------

cbo <= 0: NO (211.0/30.0)
cbo > 0
|   lcom3 <= 0.287682
|   |   dit <= 0.693147
|   |   |   lcom <= 1.386294: NO (73.0/27.0)
|   |   |   lcom > 1.386294: YES (8.0/1.0)
|   |   dit > 0.693147
|   |   |   npm <= 1.098612
|   |   |   |   ca <= 0.693147: NO (14.0/3.0)
|   |   |   |   ca > 0.693147: YES (8.0/1.0)
|   |   |   npm > 1.098612
|   |   |   |   dit <= 1.791759
|   |   |   |   |   ca <= 1.386294: NO (125.0/12.0)
|   |   |   |   |   ca > 1.386294
|   |   |   |   |   |   lcom <= 0
|   |   |   |   |   |   |   dit <= 1.386294: NO (21.0/5.0)
|   |   |   |   |   |   |   dit > 1.386294
|   |   |   |   |   |   |   |   lcom3 <= 0.117783: NO (2.0)
|   |   |   |   |   |   |   |   lcom3 > 0.117783: YES (3.0)
|   |   |   |   |   |   lcom > 0: YES (2.0)
|   |   |   |   dit > 1.791759
|   |   |   |   |   ce <= 2.197225: YES (7.0/2.0)
|   |   |   |   |   ce > 2.197225: NO (4.0)
|   lcom3 > 0.287682
|   |   wmc <= 1.386294
|   |   |   ce <= 1.609438
|   |   |   |   rfc <= 1.791759
|   |   |   |   |   rfc <= 1.609438
|   |   |   |   |   |   noc <= 0
|   |   |   |   |   |   |   ic <= 0
|   |   |   |   |   |   |   |   npm <= 0.693147
|   |   |   |   |   |   |   |   |   mfa <= 0.346276
|   |   |   |   |   |   |   |   |   |   max_cc <= 0
|   |   |   |   |   |   |   |   |   |   |   ce <= 0: NO (31.0/9.0)
|   |   |   |   |   |   |   |   |   |   |   ce > 0
|   |   |   |   |   |   |   |   |   |   |   |   cbo <= 1.609438: YES (12.0/2.0)
|   |   |   |   |   |   |   |   |   |   |   |   cbo > 1.609438: NO (8.0/2.0)
|   |   |   |   |   |   |   |   |   |   max_cc > 0: NO (78.0/25.0)
|   |   |   |   |   |   |   |   |   mfa > 0.346276
|   |   |   |   |   |   |   |   |   |   wmc <= 0.693147
|   |   |   |   |   |   |   |   |   |   |   dit <= 1.791759
|   |   |   |   |   |   |   |   |   |   |   |   rfc <= 1.098612
|   |   |   |   |   |   |   |   |   |   |   |   |   loc <= 1.791759
|   |   |   |   |   |   |   |   |   |   |   |   |   |   ce <= 0.693147
|   |   |   |   |   |   |   |   |   |   |   |   |   |   |   loc <= 1.609438: YES (7.0/2.0)
|   |   |   |   |   |   |   |   |   |   |   |   |   |   |   loc > 1.609438
|   |   |   |   |   |   |   |   |   |   |   |   |   |   |   |   ce <= 0: YES (6.0/2.0)
|   |   |   |   |   |   |   |   |   |   |   |   |   |   |   |   ce > 0: NO (4.0)
|   |   |   |   |   |   |   |   |   |   |   |   |   |   ce > 0.693147: NO (2.0)
|   |   |   |   |   |   |   |   |   |   |   |   |   loc > 1.791759: YES (4.0)
|   |   |   |   |   |   |   |   |   |   |   |   rfc > 1.098612: NO (3.0/1.0)
|   |   |   |   |   |   |   |   |   |   |   dit > 1.791759: NO (4.0)
|   |   |   |   |   |   |   |   |   |   wmc > 0.693147: YES (2.0)
|   |   |   |   |   |   |   |   npm > 0.693147
|   |   |   |   |   |   |   |   |   amc <= 6.692332
|   |   |   |   |   |   |   |   |   |   amc <= 6.103677
|   |   |   |   |   |   |   |   |   |   |   amc <= 5.387244
|   |   |   |   |   |   |   |   |   |   |   |   cbo <= 2.484907
|   |   |   |   |   |   |   |   |   |   |   |   |   max_cc <= 0: YES (8.0/3.0)
|   |   |   |   |   |   |   |   |   |   |   |   |   max_cc > 0
|   |   |   |   |   |   |   |   |   |   |   |   |   |   ce <= 0
|   |   |   |   |   |   |   |   |   |   |   |   |   |   |   amc <= 1.754019
|   |   |   |   |   |   |   |   |   |   |   |   |   |   |   |   wmc <= 1.098612: NO (8.0/1.0)
|   |   |   |   |   |   |   |   |   |   |   |   |   |   |   |   wmc > 1.098612: YES (5.0/2.0)
|   |   |   |   |   |   |   |   |   |   |   |   |   |   |   amc > 1.754019: YES (2.0)
|   |   |   |   |   |   |   |   |   |   |   |   |   |   ce > 0
|   |   |   |   |   |   |   |   |   |   |   |   |   |   |   rfc <= 1.098612
|   |   |   |   |   |   |   |   |   |   |   |   |   |   |   |   cam <= 0.532805
|   |   |   |   |   |   |   |   |   |   |   |   |   |   |   |   |   cbo <= 1.386294: NO (2.0)
|   |   |   |   |   |   |   |   |   |   |   |   |   |   |   |   |   cbo > 1.386294: YES (4.0)
|   |   |   |   |   |   |   |   |   |   |   |   |   |   |   |   cam > 0.532805: YES (18.0/2.0)
|   |   |   |   |   |   |   |   |   |   |   |   |   |   |   rfc > 1.098612
|   |   |   |   |   |   |   |   |   |   |   |   |   |   |   |   wmc <= 1.098612
|   |   |   |   |   |   |   |   |   |   |   |   |   |   |   |   |   rfc <= 1.386294: NO (4.0)
|   |   |   |   |   |   |   |   |   |   |   |   |   |   |   |   |   rfc > 1.386294
|   |   |   |   |   |   |   |   |   |   |   |   |   |   |   |   |   |   cam <= 0.532805: YES (2.0)
|   |   |   |   |   |   |   |   |   |   |   |   |   |   |   |   |   |   cam > 0.532805: NO (2.0)
|   |   |   |   |   |   |   |   |   |   |   |   |   |   |   |   wmc > 1.098612: YES (40.0/16.0)
|   |   |   |   |   |   |   |   |   |   |   |   cbo > 2.484907: NO (7.0/1.0)
|   |   |   |   |   |   |   |   |   |   |   amc > 5.387244: NO (10.0)
|   |   |   |   |   |   |   |   |   |   amc > 6.103677: YES (8.0)
|   |   |   |   |   |   |   |   |   amc > 6.692332: NO (8.0)
|   |   |   |   |   |   |   ic > 0: NO (24.0/5.0)
|   |   |   |   |   |   noc > 0
|   |   |   |   |   |   |   lcom3 <= 0.938514: YES (4.0)
|   |   |   |   |   |   |   lcom3 > 0.938514
|   |   |   |   |   |   |   |   loc <= 2.833213: NO (17.0)
|   |   |   |   |   |   |   |   loc > 2.833213: YES (3.0/1.0)
|   |   |   |   |   rfc > 1.609438
|   |   |   |   |   |   moa <= 0
|   |   |   |   |   |   |   dit <= 1.609438: NO (24.0/1.0)
|   |   |   |   |   |   |   dit > 1.609438: YES (3.0/1.0)
|   |   |   |   |   |   moa > 0: YES (2.0)
|   |   |   |   rfc > 1.791759
|   |   |   |   |   dit <= 1.386294
|   |   |   |   |   |   ic <= 0.693147
|   |   |   |   |   |   |   ic <= 0
|   |   |   |   |   |   |   |   ca <= 0: NO (11.0/4.0)
|   |   |   |   |   |   |   |   ca > 0: YES (42.0/18.0)
|   |   |   |   |   |   |   ic > 0: NO (13.0/2.0)
|   |   |   |   |   |   ic > 0.693147: YES (4.0)
|   |   |   |   |   dit > 1.386294: YES (30.0/4.0)
|   |   |   ce > 1.609438
|   |   |   |   mfa <= 0.685712
|   |   |   |   |   npm <= 0.693147: YES (8.0/1.0)
|   |   |   |   |   npm > 0.693147: NO (106.0/32.0)
|   |   |   |   mfa > 0.685712: NO (58.0/7.0)
|   |   wmc > 1.386294
|   |   |   loc <= 6.248043
|   |   |   |   ce <= 2.564949
|   |   |   |   |   dit <= 1.386294
|   |   |   |   |   |   cbo <= 1.94591
|   |   |   |   |   |   |   noc <= 0
|   |   |   |   |   |   |   |   ce <= 1.609438
|   |   |   |   |   |   |   |   |   ca <= 0
|   |   |   |   |   |   |   |   |   |   lcom <= 3.713572: NO (97.0/31.0)
|   |   |   |   |   |   |   |   |   |   lcom > 3.713572: YES (5.0)
|   |   |   |   |   |   |   |   |   ca > 0
|   |   |   |   |   |   |   |   |   |   ca <= 0.693147
|   |   |   |   |   |   |   |   |   |   |   lcom <= 1.098612
|   |   |   |   |   |   |   |   |   |   |   |   dit <= 1.098612
|   |   |   |   |   |   |   |   |   |   |   |   |   ic <= 0: NO (24.0/7.0)
|   |   |   |   |   |   |   |   |   |   |   |   |   ic > 0
|   |   |   |   |   |   |   |   |   |   |   |   |   |   wmc <= 2.079442: NO (7.0/1.0)
|   |   |   |   |   |   |   |   |   |   |   |   |   |   wmc > 2.079442
|   |   |   |   |   |   |   |   |   |   |   |   |   |   |   ce <= 1.098612: YES (4.0)
|   |   |   |   |   |   |   |   |   |   |   |   |   |   |   ce > 1.098612: NO (5.0/1.0)
|   |   |   |   |   |   |   |   |   |   |   |   dit > 1.098612: YES (2.0)
|   |   |   |   |   |   |   |   |   |   |   lcom > 1.098612
|   |   |   |   |   |   |   |   |   |   |   |   moa <= 0
|   |   |   |   |   |   |   |   |   |   |   |   |   avg_cc <= 0.653938
|   |   |   |   |   |   |   |   |   |   |   |   |   |   cbo <= 0.693147: YES (6.0/2.0)
|   |   |   |   |   |   |   |   |   |   |   |   |   |   cbo > 0.693147: NO (15.0/4.0)
|   |   |   |   |   |   |   |   |   |   |   |   |   avg_cc > 0.653938: YES (49.0/9.0)
|   |   |   |   |   |   |   |   |   |   |   |   moa > 0: YES (16.0/3.0)
|   |   |   |   |   |   |   |   |   |   ca > 0.693147
|   |   |   |   |   |   |   |   |   |   |   max_cc <= 1.791759
|   |   |   |   |   |   |   |   |   |   |   |   max_cc <= 1.386294
|   |   |   |   |   |   |   |   |   |   |   |   |   lcom3 <= 0.414682: YES (8.0/1.0)
|   |   |   |   |   |   |   |   |   |   |   |   |   lcom3 > 0.414682
|   |   |   |   |   |   |   |   |   |   |   |   |   |   loc <= 5.337538
|   |   |   |   |   |   |   |   |   |   |   |   |   |   |   moa <= 0.693147
|   |   |   |   |   |   |   |   |   |   |   |   |   |   |   |   moa <= 0
|   |   |   |   |   |   |   |   |   |   |   |   |   |   |   |   |   max_cc <= 0.693147
|   |   |   |   |   |   |   |   |   |   |   |   |   |   |   |   |   |   cbo <= 1.791759
|   |   |   |   |   |   |   |   |   |   |   |   |   |   |   |   |   |   |   cbo <= 1.609438: NO (18.0/4.0)
|   |   |   |   |   |   |   |   |   |   |   |   |   |   |   |   |   |   |   cbo > 1.609438: YES (10.0/3.0)
|   |   |   |   |   |   |   |   |   |   |   |   |   |   |   |   |   |   cbo > 1.791759: NO (17.0/3.0)
|   |   |   |   |   |   |   |   |   |   |   |   |   |   |   |   |   max_cc > 0.693147: YES (7.0/1.0)
|   |   |   |   |   |   |   |   |   |   |   |   |   |   |   |   moa > 0: NO (16.0/5.0)
|   |   |   |   |   |   |   |   |   |   |   |   |   |   |   moa > 0.693147: YES (5.0/1.0)
|   |   |   |   |   |   |   |   |   |   |   |   |   |   loc > 5.337538: NO (11.0/1.0)
|   |   |   |   |   |   |   |   |   |   |   |   max_cc > 1.386294: NO (16.0/4.0)
|   |   |   |   |   |   |   |   |   |   |   max_cc > 1.791759: YES (10.0/2.0)
|   |   |   |   |   |   |   |   ce > 1.609438
|   |   |   |   |   |   |   |   |   max_cc <= 1.791759
|   |   |   |   |   |   |   |   |   |   npm <= 0.693147: YES (4.0)
|   |   |   |   |   |   |   |   |   |   npm > 0.693147
|   |   |   |   |   |   |   |   |   |   |   cbm <= 1.609438
|   |   |   |   |   |   |   |   |   |   |   |   cam <= 0.367725
|   |   |   |   |   |   |   |   |   |   |   |   |   npm <= 2.079442
|   |   |   |   |   |   |   |   |   |   |   |   |   |   ce <= 1.791759
|   |   |   |   |   |   |   |   |   |   |   |   |   |   |   ic <= 0.693147
|   |   |   |   |   |   |   |   |   |   |   |   |   |   |   |   wmc <= 1.791759: NO (3.0/1.0)
|   |   |   |   |   |   |   |   |   |   |   |   |   |   |   |   wmc > 1.791759: YES (10.0/1.0)
|   |   |   |   |   |   |   |   |   |   |   |   |   |   |   ic > 0.693147: NO (3.0/1.0)
|   |   |   |   |   |   |   |   |   |   |   |   |   |   ce > 1.791759
|   |   |   |   |   |   |   |   |   |   |   |   |   |   |   rfc <= 3.555348: NO (10.0/3.0)
|   |   |   |   |   |   |   |   |   |   |   |   |   |   |   rfc > 3.555348: YES (3.0)
|   |   |   |   |   |   |   |   |   |   |   |   |   npm > 2.079442: YES (9.0)
|   |   |   |   |   |   |   |   |   |   |   |   cam > 0.367725: NO (9.0/1.0)
|   |   |   |   |   |   |   |   |   |   |   cbm > 1.609438: NO (8.0)
|   |   |   |   |   |   |   |   |   max_cc > 1.791759: YES (6.0)
|   |   |   |   |   |   |   noc > 0
|   |   |   |   |   |   |   |   ce <= 1.098612
|   |   |   |   |   |   |   |   |   noc <= 0.693147
|   |   |   |   |   |   |   |   |   |   avg_cc <= 0.628609
|   |   |   |   |   |   |   |   |   |   |   wmc <= 1.791759: YES (2.0)
|   |   |   |   |   |   |   |   |   |   |   wmc > 1.791759: NO (2.0)
|   |   |   |   |   |   |   |   |   |   avg_cc > 0.628609: YES (15.0)
|   |   |   |   |   |   |   |   |   noc > 0.693147
|   |   |   |   |   |   |   |   |   |   avg_cc <= 0.980842: YES (6.0)
|   |   |   |   |   |   |   |   |   |   avg_cc > 0.980842: NO (4.0)
|   |   |   |   |   |   |   |   ce > 1.098612
|   |   |   |   |   |   |   |   |   dit <= 0.693147
|   |   |   |   |   |   |   |   |   |   wmc <= 2.639057: YES (2.0)
|   |   |   |   |   |   |   |   |   |   wmc > 2.639057: NO (3.0)
|   |   |   |   |   |   |   |   |   dit > 0.693147: NO (4.0)
|   |   |   |   |   |   cbo > 1.94591
|   |   |   |   |   |   |   mfa <= 0.64985
|   |   |   |   |   |   |   |   ic <= 0.693147
|   |   |   |   |   |   |   |   |   loc <= 6.113682
|   |   |   |   |   |   |   |   |   |   cbo <= 2.944439
|   |   |   |   |   |   |   |   |   |   |   lcom <= 4.127134
|   |   |   |   |   |   |   |   |   |   |   |   ca <= 2.197225
|   |   |   |   |   |   |   |   |   |   |   |   |   npm <= 2.484907: YES (107.0/35.0)
|   |   |   |   |   |   |   |   |   |   |   |   |   npm > 2.484907
|   |   |   |   |   |   |   |   |   |   |   |   |   |   ca <= 0.693147: YES (4.0)
|   |   |   |   |   |   |   |   |   |   |   |   |   |   ca > 0.693147
|   |   |   |   |   |   |   |   |   |   |   |   |   |   |   cam <= 0.262364: NO (9.0)
|   |   |   |   |   |   |   |   |   |   |   |   |   |   |   cam > 0.262364
|   |   |   |   |   |   |   |   |   |   |   |   |   |   |   |   wmc <= 2.639057: NO (2.0)
|   |   |   |   |   |   |   |   |   |   |   |   |   |   |   |   wmc > 2.639057: YES (2.0)
|   |   |   |   |   |   |   |   |   |   |   |   ca > 2.197225
|   |   |   |   |   |   |   |   |   |   |   |   |   noc <= 0
|   |   |   |   |   |   |   |   |   |   |   |   |   |   lcom <= 2.890372: YES (15.0)
|   |   |   |   |   |   |   |   |   |   |   |   |   |   lcom > 2.890372
|   |   |   |   |   |   |   |   |   |   |   |   |   |   |   rfc <= 2.302585: NO (2.0)
|   |   |   |   |   |   |   |   |   |   |   |   |   |   |   rfc > 2.302585: YES (7.0)
|   |   |   |   |   |   |   |   |   |   |   |   |   noc > 0
|   |   |   |   |   |   |   |   |   |   |   |   |   |   noc <= 0.693147: NO (4.0/1.0)
|   |   |   |   |   |   |   |   |   |   |   |   |   |   noc > 0.693147: YES (5.0)
|   |   |   |   |   |   |   |   |   |   |   lcom > 4.127134: YES (31.0/1.0)
|   |   |   |   |   |   |   |   |   |   cbo > 2.944439
|   |   |   |   |   |   |   |   |   |   |   loc <= 5.010635: NO (53.0/16.0)
|   |   |   |   |   |   |   |   |   |   |   loc > 5.010635
|   |   |   |   |   |   |   |   |   |   |   |   cbo <= 4.26268: YES (24.0/2.0)
|   |   |   |   |   |   |   |   |   |   |   |   cbo > 4.26268: NO (3.0/1.0)
|   |   |   |   |   |   |   |   |   loc > 6.113682
|   |   |   |   |   |   |   |   |   |   dit <= 0.693147
|   |   |   |   |   |   |   |   |   |   |   lcom <= 0: YES (3.0/1.0)
|   |   |   |   |   |   |   |   |   |   |   lcom > 0: NO (13.0)
|   |   |   |   |   |   |   |   |   |   dit > 0.693147: YES (2.0)
|   |   |   |   |   |   |   |   ic > 0.693147
|   |   |   |   |   |   |   |   |   max_cc <= 0.693147: NO (3.0/1.0)
|   |   |   |   |   |   |   |   |   max_cc > 0.693147: YES (21.0)
|   |   |   |   |   |   |   mfa > 0.64985: NO (34.0/11.0)
|   |   |   |   |   dit > 1.386294
|   |   |   |   |   |   lcom3 <= 0.653524
|   |   |   |   |   |   |   dit <= 1.791759
|   |   |   |   |   |   |   |   moa <= 0
|   |   |   |   |   |   |   |   |   max_cc <= 1.609438: NO (31.0/4.0)
|   |   |   |   |   |   |   |   |   max_cc > 1.609438
|   |   |   |   |   |   |   |   |   |   noc <= 0: YES (4.0)
|   |   |   |   |   |   |   |   |   |   noc > 0: NO (4.0/1.0)
|   |   |   |   |   |   |   |   moa > 0
|   |   |   |   |   |   |   |   |   lcom <= 1.098612: YES (6.0)
|   |   |   |   |   |   |   |   |   lcom > 1.098612
|   |   |   |   |   |   |   |   |   |   dit <= 1.609438
|   |   |   |   |   |   |   |   |   |   |   max_cc <= 1.098612: YES (5.0/1.0)
|   |   |   |   |   |   |   |   |   |   |   max_cc > 1.098612: NO (6.0/2.0)
|   |   |   |   |   |   |   |   |   |   dit > 1.609438
|   |   |   |   |   |   |   |   |   |   |   avg_cc <= 1.037233: NO (5.0/1.0)
|   |   |   |   |   |   |   |   |   |   |   avg_cc > 1.037233
|   |   |   |   |   |   |   |   |   |   |   |   ce <= 2.302585: YES (3.0)
|   |   |   |   |   |   |   |   |   |   |   |   ce > 2.302585: NO (2.0)
|   |   |   |   |   |   |   dit > 1.791759: YES (8.0/1.0)
|   |   |   |   |   |   lcom3 > 0.653524
|   |   |   |   |   |   |   npm <= 1.609438
|   |   |   |   |   |   |   |   ce <= 0.693147: NO (3.0)
|   |   |   |   |   |   |   |   ce > 0.693147
|   |   |   |   |   |   |   |   |   ce <= 1.609438: YES (8.0)
|   |   |   |   |   |   |   |   |   ce > 1.609438
|   |   |   |   |   |   |   |   |   |   npm <= 1.098612: NO (3.0/1.0)
|   |   |   |   |   |   |   |   |   |   npm > 1.098612
|   |   |   |   |   |   |   |   |   |   |   wmc <= 1.609438
|   |   |   |   |   |   |   |   |   |   |   |   max_cc <= 0.693147
|   |   |   |   |   |   |   |   |   |   |   |   |   ce <= 2.302585: YES (7.0/2.0)
|   |   |   |   |   |   |   |   |   |   |   |   |   ce > 2.302585: NO (2.0)
|   |   |   |   |   |   |   |   |   |   |   |   max_cc > 0.693147: NO (3.0)
|   |   |   |   |   |   |   |   |   |   |   wmc > 1.609438: YES (7.0/1.0)
|   |   |   |   |   |   |   npm > 1.609438
|   |   |   |   |   |   |   |   dit <= 1.609438: YES (81.0/1.0)
|   |   |   |   |   |   |   |   dit > 1.609438
|   |   |   |   |   |   |   |   |   wmc <= 2.197225: NO (4.0/1.0)
|   |   |   |   |   |   |   |   |   wmc > 2.197225: YES (3.0)
|   |   |   |   ce > 2.564949
|   |   |   |   |   rfc <= 3.135494: NO (15.0)
|   |   |   |   |   rfc > 3.135494
|   |   |   |   |   |   mfa <= 0.673977
|   |   |   |   |   |   |   dit <= 1.609438
|   |   |   |   |   |   |   |   cbm <= 2.639057: NO (104.0/36.0)
|   |   |   |   |   |   |   |   cbm > 2.639057: YES (7.0/1.0)
|   |   |   |   |   |   |   dit > 1.609438: NO (18.0/1.0)
|   |   |   |   |   |   mfa > 0.673977: YES (9.0/1.0)
|   |   |   loc > 6.248043
|   |   |   |   cam <= 0.273696
|   |   |   |   |   lcom3 <= 0.648169
|   |   |   |   |   |   cbo <= 2.397895
|   |   |   |   |   |   |   max_cc <= 1.098612: YES (5.0/1.0)
|   |   |   |   |   |   |   max_cc > 1.098612: NO (42.0/15.0)
|   |   |   |   |   |   cbo > 2.397895
|   |   |   |   |   |   |   ce <= 3.178054: YES (80.0/18.0)
|   |   |   |   |   |   |   ce > 3.178054
|   |   |   |   |   |   |   |   npm <= 2.564949
|   |   |   |   |   |   |   |   |   moa <= 2.079442: NO (10.0)
|   |   |   |   |   |   |   |   |   moa > 2.079442: YES (3.0/1.0)
|   |   |   |   |   |   |   |   npm > 2.564949: YES (20.0/6.0)
|   |   |   |   |   lcom3 > 0.648169
|   |   |   |   |   |   dit <= 1.098612: YES (68.0/9.0)
|   |   |   |   |   |   dit > 1.098612
|   |   |   |   |   |   |   dam <= 0.268264
|   |   |   |   |   |   |   |   noc <= 0: NO (4.0)
|   |   |   |   |   |   |   |   noc > 0: YES (4.0/1.0)
|   |   |   |   |   |   |   dam > 0.268264: YES (17.0/2.0)
|   |   |   |   cam > 0.273696: YES (51.0/4.0)

Number of Leaves  : 	149

Size of the tree : 	297


Correctly Classified Instances         526               47.0063 %
Incorrectly Classified Instances       593               52.9937 %
Kappa statistic                         -0.1123
Mean absolute error                      0.496 
Root mean squared error                  0.5916
Relative absolute error                134.3583 %
Root relative squared error            137.7439 %
Coverage of cases (0.95 level)          95.5317 %
Mean rel. region size (0.95 level)      92.0912 %
Total Number of Instances             1119     

=== Confusion Matrix ===

   a   b   <-- classified as
 432 414 |   a = NO
 179  94 |   b = YES

=== Detailed Accuracy By Class ===

                 TP Rate  FP Rate  Precision  Recall   F-Measure  MCC      ROC Area  PRC Area  Class
                 0.511    0.656    0.707      0.511    0.593      -0.125   0.435     0.738     NO
                 0.344    0.489    0.185      0.344    0.241      -0.125   0.435     0.225     YES
Weighted Avg.    0.470    0.615    0.580      0.470    0.507      -0.125   0.435     0.613     

