Classifier...: weka.classifiers.trees.J48 -C 0.25 -M 2
Training file: C:\Users\HP\Desktop\AbdulAli\Baseline\Configuration2\dataK=14\2tr.csv

Testing file: C:\Users\HP\Desktop\AbdulAli\Baseline\Configuration2\dataK=14\2test.csv

J48 pruned tree
------------------

loc <= 42: YES (271.0)
loc > 42: NO (252.0)

Number of Leaves  : 	2

Size of the tree : 	3


Correctly Classified Instances        5226               53.9319 %
Incorrectly Classified Instances      4464               46.0681 %
Kappa statistic                          0.1514
Mean absolute error                      0.4607
Root mean squared error                  0.6787
Relative absolute error                 94.97   %
Root relative squared error            137.8191 %
Coverage of cases (0.95 level)          53.9319 %
Mean rel. region size (0.95 level)      50      %
Total Number of Instances             9690     

=== Confusion Matrix ===

    a    b   <-- classified as
 1830 3852 |    a = NO
  612 3396 |    b = YES

=== Detailed Accuracy By Class ===

                 TP Rate  FP Rate  Precision  Recall   F-Measure  MCC      ROC Area  PRC Area  Class
                 0.322    0.153    0.749      0.322    0.451      0.192    0.585     0.639     NO
                 0.847    0.678    0.469      0.847    0.603      0.192    0.585     0.460     YES
Weighted Avg.    0.539    0.370    0.633      0.539    0.514      0.192    0.585     0.565     

