Classifier...: weka.classifiers.trees.J48 -C 0.25 -M 2
Training file: C:\Users\HP\Desktop\AbdulAli\Baseline\Configuration3\dataK=6\4tr.csv

Testing file: C:\Users\HP\Desktop\AbdulAli\Baseline\Configuration3\dataK=6\4test.csv

J48 pruned tree
------------------

loc <= 125.212476
|   lcom3 <= 0.146219: NO (207.0/31.0)
|   lcom3 > 0.146219
|   |   cbo <= 0: NO (224.0/32.0)
|   |   cbo > 0
|   |   |   ce <= 9.375053
|   |   |   |   lcom <= 6.102884
|   |   |   |   |   cbm <= 3.785913
|   |   |   |   |   |   moa <= 0
|   |   |   |   |   |   |   ic <= 0
|   |   |   |   |   |   |   |   noc <= 0
|   |   |   |   |   |   |   |   |   npm <= 0.978722
|   |   |   |   |   |   |   |   |   |   lcom <= 1.743681
|   |   |   |   |   |   |   |   |   |   |   amc <= 3.011754
|   |   |   |   |   |   |   |   |   |   |   |   npm <= 0
|   |   |   |   |   |   |   |   |   |   |   |   |   ce <= 0
|   |   |   |   |   |   |   |   |   |   |   |   |   |   cbo <= 5.58984: NO (23.0/4.0)
|   |   |   |   |   |   |   |   |   |   |   |   |   |   cbo > 5.58984: YES (2.0)
|   |   |   |   |   |   |   |   |   |   |   |   |   ce > 0
|   |   |   |   |   |   |   |   |   |   |   |   |   |   cbo <= 2.79492
|   |   |   |   |   |   |   |   |   |   |   |   |   |   |   wmc <= 0: YES (8.0/1.0)
|   |   |   |   |   |   |   |   |   |   |   |   |   |   |   wmc > 0: NO (4.0/1.0)
|   |   |   |   |   |   |   |   |   |   |   |   |   |   cbo > 2.79492: NO (9.0/1.0)
|   |   |   |   |   |   |   |   |   |   |   |   npm > 0: NO (177.0/40.0)
|   |   |   |   |   |   |   |   |   |   |   amc > 3.011754
|   |   |   |   |   |   |   |   |   |   |   |   max_cc <= 0.838658
|   |   |   |   |   |   |   |   |   |   |   |   |   lcom3 <= 1.42564: YES (3.0/1.0)
|   |   |   |   |   |   |   |   |   |   |   |   |   lcom3 > 1.42564
|   |   |   |   |   |   |   |   |   |   |   |   |   |   dit <= 4.663998: NO (35.0/13.0)
|   |   |   |   |   |   |   |   |   |   |   |   |   |   dit > 4.663998: YES (2.0)
|   |   |   |   |   |   |   |   |   |   |   |   max_cc > 0.838658: YES (3.0)
|   |   |   |   |   |   |   |   |   |   lcom > 1.743681
|   |   |   |   |   |   |   |   |   |   |   cbo <= 5.58984: NO (24.0)
|   |   |   |   |   |   |   |   |   |   |   cbo > 5.58984: YES (5.0/2.0)
|   |   |   |   |   |   |   |   |   npm > 0.978722
|   |   |   |   |   |   |   |   |   |   dam <= 1.068289
|   |   |   |   |   |   |   |   |   |   |   dit <= 2.331999: NO (270.0/106.0)
|   |   |   |   |   |   |   |   |   |   |   dit > 2.331999
|   |   |   |   |   |   |   |   |   |   |   |   mfa <= 0.714586: YES (15.0)
|   |   |   |   |   |   |   |   |   |   |   |   mfa > 0.714586
|   |   |   |   |   |   |   |   |   |   |   |   |   ce <= 2.556833: NO (15.0/3.0)
|   |   |   |   |   |   |   |   |   |   |   |   |   ce > 2.556833: YES (2.0)
|   |   |   |   |   |   |   |   |   |   dam > 1.068289
|   |   |   |   |   |   |   |   |   |   |   rfc <= 19.353579
|   |   |   |   |   |   |   |   |   |   |   |   cbo <= 6.521479
|   |   |   |   |   |   |   |   |   |   |   |   |   lcom3 <= 0.514814
|   |   |   |   |   |   |   |   |   |   |   |   |   |   lcom <= 1.743681
|   |   |   |   |   |   |   |   |   |   |   |   |   |   |   lcom <= 0
|   |   |   |   |   |   |   |   |   |   |   |   |   |   |   |   avg_cc <= 0.604136: YES (5.0/1.0)
|   |   |   |   |   |   |   |   |   |   |   |   |   |   |   |   avg_cc > 0.604136
|   |   |   |   |   |   |   |   |   |   |   |   |   |   |   |   |   wmc <= 3.858563
|   |   |   |   |   |   |   |   |   |   |   |   |   |   |   |   |   |   lcom3 <= 0.35641: NO (18.0/3.0)
|   |   |   |   |   |   |   |   |   |   |   |   |   |   |   |   |   |   lcom3 > 0.35641: YES (3.0)
|   |   |   |   |   |   |   |   |   |   |   |   |   |   |   |   |   wmc > 3.858563: NO (22.0/4.0)
|   |   |   |   |   |   |   |   |   |   |   |   |   |   |   lcom > 0: NO (6.0/1.0)
|   |   |   |   |   |   |   |   |   |   |   |   |   |   lcom > 1.743681: YES (6.0/1.0)
|   |   |   |   |   |   |   |   |   |   |   |   |   lcom3 > 0.514814: NO (51.0/4.0)
|   |   |   |   |   |   |   |   |   |   |   |   cbo > 6.521479
|   |   |   |   |   |   |   |   |   |   |   |   |   mfa <= 0.575816
|   |   |   |   |   |   |   |   |   |   |   |   |   |   max_cc <= 0.838658: NO (5.0)
|   |   |   |   |   |   |   |   |   |   |   |   |   |   max_cc > 0.838658: YES (3.0)
|   |   |   |   |   |   |   |   |   |   |   |   |   mfa > 0.575816: YES (6.0/1.0)
|   |   |   |   |   |   |   |   |   |   |   rfc > 19.353579: NO (10.0)
|   |   |   |   |   |   |   |   noc > 0: NO (57.0/9.0)
|   |   |   |   |   |   |   ic > 0
|   |   |   |   |   |   |   |   cbm <= 2.366196
|   |   |   |   |   |   |   |   |   dit <= 1.554666
|   |   |   |   |   |   |   |   |   |   ic <= 0.57792
|   |   |   |   |   |   |   |   |   |   |   wmc <= 3.858563
|   |   |   |   |   |   |   |   |   |   |   |   npm <= 0: YES (2.0)
|   |   |   |   |   |   |   |   |   |   |   |   npm > 0: NO (32.0/6.0)
|   |   |   |   |   |   |   |   |   |   |   wmc > 3.858563
|   |   |   |   |   |   |   |   |   |   |   |   ca <= 6.410284: YES (11.0/2.0)
|   |   |   |   |   |   |   |   |   |   |   |   ca > 6.410284: NO (2.0)
|   |   |   |   |   |   |   |   |   |   ic > 0.57792: YES (3.0)
|   |   |   |   |   |   |   |   |   dit > 1.554666
|   |   |   |   |   |   |   |   |   |   rfc <= 20.275179: NO (239.0/27.0)
|   |   |   |   |   |   |   |   |   |   rfc > 20.275179
|   |   |   |   |   |   |   |   |   |   |   ce <= 2.556833: YES (2.0)
|   |   |   |   |   |   |   |   |   |   |   ce > 2.556833
|   |   |   |   |   |   |   |   |   |   |   |   lcom <= 3.487362: NO (22.0/3.0)
|   |   |   |   |   |   |   |   |   |   |   |   lcom > 3.487362: YES (6.0/2.0)
|   |   |   |   |   |   |   |   cbm > 2.366196
|   |   |   |   |   |   |   |   |   npm <= 0.978722: YES (7.0)
|   |   |   |   |   |   |   |   |   npm > 0.978722
|   |   |   |   |   |   |   |   |   |   dam <= 0.623169
|   |   |   |   |   |   |   |   |   |   |   ca <= 0.915755: NO (104.0/34.0)
|   |   |   |   |   |   |   |   |   |   |   ca > 0.915755: YES (6.0/1.0)
|   |   |   |   |   |   |   |   |   |   dam > 0.623169: NO (14.0)
|   |   |   |   |   |   moa > 0
|   |   |   |   |   |   |   npm <= 6.851052
|   |   |   |   |   |   |   |   cam <= 0.447303: YES (79.0/30.0)
|   |   |   |   |   |   |   |   cam > 0.447303
|   |   |   |   |   |   |   |   |   ic <= 0
|   |   |   |   |   |   |   |   |   |   noc <= 0
|   |   |   |   |   |   |   |   |   |   |   lcom <= 2.615522
|   |   |   |   |   |   |   |   |   |   |   |   rfc <= 16.588782
|   |   |   |   |   |   |   |   |   |   |   |   |   loc <= 87.845402
|   |   |   |   |   |   |   |   |   |   |   |   |   |   npm <= 3.914887
|   |   |   |   |   |   |   |   |   |   |   |   |   |   |   ca <= 3.66302
|   |   |   |   |   |   |   |   |   |   |   |   |   |   |   |   ca <= 1.83151
|   |   |   |   |   |   |   |   |   |   |   |   |   |   |   |   |   ca <= 0: YES (2.0)
|   |   |   |   |   |   |   |   |   |   |   |   |   |   |   |   |   ca > 0: NO (34.0/11.0)
|   |   |   |   |   |   |   |   |   |   |   |   |   |   |   |   ca > 1.83151
|   |   |   |   |   |   |   |   |   |   |   |   |   |   |   |   |   npm <= 0: NO (3.0/1.0)
|   |   |   |   |   |   |   |   |   |   |   |   |   |   |   |   |   npm > 0: YES (4.0)
|   |   |   |   |   |   |   |   |   |   |   |   |   |   |   ca > 3.66302: NO (5.0)
|   |   |   |   |   |   |   |   |   |   |   |   |   |   npm > 3.914887: YES (6.0/1.0)
|   |   |   |   |   |   |   |   |   |   |   |   |   loc > 87.845402: YES (5.0)
|   |   |   |   |   |   |   |   |   |   |   |   rfc > 16.588782: NO (8.0)
|   |   |   |   |   |   |   |   |   |   |   lcom > 2.615522: YES (7.0/1.0)
|   |   |   |   |   |   |   |   |   |   noc > 0
|   |   |   |   |   |   |   |   |   |   |   wmc <= 2.893922: YES (6.0/1.0)
|   |   |   |   |   |   |   |   |   |   |   wmc > 2.893922: NO (2.0)
|   |   |   |   |   |   |   |   |   ic > 0: NO (27.0/5.0)
|   |   |   |   |   |   |   npm > 6.851052
|   |   |   |   |   |   |   |   max_cc <= 4.193292
|   |   |   |   |   |   |   |   |   cam <= 0.249405
|   |   |   |   |   |   |   |   |   |   dit <= 0.777333: YES (2.0)
|   |   |   |   |   |   |   |   |   |   dit > 0.777333: NO (11.0/4.0)
|   |   |   |   |   |   |   |   |   cam > 0.249405: NO (44.0/2.0)
|   |   |   |   |   |   |   |   max_cc > 4.193292
|   |   |   |   |   |   |   |   |   rfc <= 29.491169: YES (7.0/2.0)
|   |   |   |   |   |   |   |   |   rfc > 29.491169: NO (2.0)
|   |   |   |   |   cbm > 3.785913
|   |   |   |   |   |   npm <= 1.957443: YES (6.0)
|   |   |   |   |   |   npm > 1.957443
|   |   |   |   |   |   |   ca <= 1.83151: NO (11.0/1.0)
|   |   |   |   |   |   |   ca > 1.83151
|   |   |   |   |   |   |   |   ce <= 6.81822: YES (9.0)
|   |   |   |   |   |   |   |   ce > 6.81822
|   |   |   |   |   |   |   |   |   noc <= 0.971304: YES (3.0)
|   |   |   |   |   |   |   |   |   noc > 0.971304: NO (3.0)
|   |   |   |   lcom > 6.102884
|   |   |   |   |   dit <= 2.331999
|   |   |   |   |   |   max_cc <= 5.031951
|   |   |   |   |   |   |   dam <= 1.012649
|   |   |   |   |   |   |   |   ce <= 0
|   |   |   |   |   |   |   |   |   noc <= 0
|   |   |   |   |   |   |   |   |   |   avg_cc <= 0.924965: NO (43.0/6.0)
|   |   |   |   |   |   |   |   |   |   avg_cc > 0.924965
|   |   |   |   |   |   |   |   |   |   |   dit <= 0.777333: YES (4.0/1.0)
|   |   |   |   |   |   |   |   |   |   |   dit > 0.777333: NO (3.0/1.0)
|   |   |   |   |   |   |   |   |   noc > 0
|   |   |   |   |   |   |   |   |   |   noc <= 6.799125: YES (3.0)
|   |   |   |   |   |   |   |   |   |   noc > 6.799125: NO (3.0/1.0)
|   |   |   |   |   |   |   |   ce > 0
|   |   |   |   |   |   |   |   |   max_cc <= 1.677317
|   |   |   |   |   |   |   |   |   |   max_cc <= 0.838658
|   |   |   |   |   |   |   |   |   |   |   moa <= 0
|   |   |   |   |   |   |   |   |   |   |   |   cbo <= 1.86328
|   |   |   |   |   |   |   |   |   |   |   |   |   cam <= 0.310003: NO (3.0)
|   |   |   |   |   |   |   |   |   |   |   |   |   cam > 0.310003
|   |   |   |   |   |   |   |   |   |   |   |   |   |   avg_cc <= 0.790869: NO (5.0/2.0)
|   |   |   |   |   |   |   |   |   |   |   |   |   |   avg_cc > 0.790869: YES (17.0/1.0)
|   |   |   |   |   |   |   |   |   |   |   |   cbo > 1.86328
|   |   |   |   |   |   |   |   |   |   |   |   |   dam <= 0.311584
|   |   |   |   |   |   |   |   |   |   |   |   |   |   ce <= 7.670498
|   |   |   |   |   |   |   |   |   |   |   |   |   |   |   ce <= 4.261388: NO (93.0/35.0)
|   |   |   |   |   |   |   |   |   |   |   |   |   |   |   ce > 4.261388
|   |   |   |   |   |   |   |   |   |   |   |   |   |   |   |   npm <= 1.957443: NO (18.0/1.0)
|   |   |   |   |   |   |   |   |   |   |   |   |   |   |   |   npm > 1.957443: YES (12.0/2.0)
|   |   |   |   |   |   |   |   |   |   |   |   |   |   ce > 7.670498: NO (5.0)
|   |   |   |   |   |   |   |   |   |   |   |   |   dam > 0.311584: YES (4.0)
|   |   |   |   |   |   |   |   |   |   |   moa > 0
|   |   |   |   |   |   |   |   |   |   |   |   noc <= 0.971304: NO (8.0/1.0)
|   |   |   |   |   |   |   |   |   |   |   |   noc > 0.971304
|   |   |   |   |   |   |   |   |   |   |   |   |   cbo <= 26.085918: YES (3.0)
|   |   |   |   |   |   |   |   |   |   |   |   |   cbo > 26.085918: NO (3.0/1.0)
|   |   |   |   |   |   |   |   |   |   max_cc > 0.838658
|   |   |   |   |   |   |   |   |   |   |   ic <= 0: NO (40.0/18.0)
|   |   |   |   |   |   |   |   |   |   |   ic > 0: YES (18.0/5.0)
|   |   |   |   |   |   |   |   |   max_cc > 1.677317
|   |   |   |   |   |   |   |   |   |   npm <= 7.829773
|   |   |   |   |   |   |   |   |   |   |   lcom3 <= 0.675859: NO (4.0)
|   |   |   |   |   |   |   |   |   |   |   lcom3 > 0.675859: YES (25.0/8.0)
|   |   |   |   |   |   |   |   |   |   npm > 7.829773: YES (9.0)
|   |   |   |   |   |   |   dam > 1.012649
|   |   |   |   |   |   |   |   ce <= 4.261388
|   |   |   |   |   |   |   |   |   ic <= 0.57792
|   |   |   |   |   |   |   |   |   |   ca <= 17.399343
|   |   |   |   |   |   |   |   |   |   |   dit <= 0.777333
|   |   |   |   |   |   |   |   |   |   |   |   lcom3 <= 0.407326: YES (3.0)
|   |   |   |   |   |   |   |   |   |   |   |   lcom3 > 0.407326
|   |   |   |   |   |   |   |   |   |   |   |   |   noc <= 0.971304: NO (59.0/10.0)
|   |   |   |   |   |   |   |   |   |   |   |   |   noc > 0.971304
|   |   |   |   |   |   |   |   |   |   |   |   |   |   npm <= 4.893608: NO (3.0)
|   |   |   |   |   |   |   |   |   |   |   |   |   |   npm > 4.893608: YES (4.0)
|   |   |   |   |   |   |   |   |   |   |   dit > 0.777333: NO (40.0/5.0)
|   |   |   |   |   |   |   |   |   |   ca > 17.399343: NO (13.0/1.0)
|   |   |   |   |   |   |   |   |   ic > 0.57792
|   |   |   |   |   |   |   |   |   |   dit <= 1.554666: YES (2.0)
|   |   |   |   |   |   |   |   |   |   dit > 1.554666
|   |   |   |   |   |   |   |   |   |   |   cbo <= 7.453119: NO (9.0/2.0)
|   |   |   |   |   |   |   |   |   |   |   cbo > 7.453119: YES (2.0)
|   |   |   |   |   |   |   |   ce > 4.261388
|   |   |   |   |   |   |   |   |   dam <= 1.09971: NO (2.0)
|   |   |   |   |   |   |   |   |   dam > 1.09971
|   |   |   |   |   |   |   |   |   |   dit <= 1.554666: YES (12.0/3.0)
|   |   |   |   |   |   |   |   |   |   dit > 1.554666: NO (18.0/6.0)
|   |   |   |   |   |   max_cc > 5.031951
|   |   |   |   |   |   |   dit <= 0.777333: YES (12.0/1.0)
|   |   |   |   |   |   |   dit > 0.777333
|   |   |   |   |   |   |   |   dit <= 1.554666: NO (2.0)
|   |   |   |   |   |   |   |   dit > 1.554666
|   |   |   |   |   |   |   |   |   ca <= 0: NO (2.0)
|   |   |   |   |   |   |   |   |   ca > 0: YES (9.0/2.0)
|   |   |   |   |   dit > 2.331999
|   |   |   |   |   |   lcom3 <= 0.874392
|   |   |   |   |   |   |   moa <= 0
|   |   |   |   |   |   |   |   ce <= 6.81822: NO (11.0)
|   |   |   |   |   |   |   |   ce > 6.81822
|   |   |   |   |   |   |   |   |   dit <= 3.886665: NO (5.0/1.0)
|   |   |   |   |   |   |   |   |   dit > 3.886665: YES (2.0)
|   |   |   |   |   |   |   moa > 0
|   |   |   |   |   |   |   |   loc <= 57.033955: YES (2.0)
|   |   |   |   |   |   |   |   loc > 57.033955: NO (11.0/3.0)
|   |   |   |   |   |   lcom3 > 0.874392
|   |   |   |   |   |   |   noc <= 0.971304
|   |   |   |   |   |   |   |   dit <= 3.109332: YES (75.0/1.0)
|   |   |   |   |   |   |   |   dit > 3.109332
|   |   |   |   |   |   |   |   |   max_cc <= 1.677317: NO (9.0/3.0)
|   |   |   |   |   |   |   |   |   max_cc > 1.677317: YES (6.0)
|   |   |   |   |   |   |   noc > 0.971304: NO (6.0/1.0)
|   |   |   ce > 9.375053
|   |   |   |   rfc <= 22.118377: NO (66.0/2.0)
|   |   |   |   rfc > 22.118377
|   |   |   |   |   cbo <= 19.564438
|   |   |   |   |   |   ic <= 0.57792: NO (18.0/4.0)
|   |   |   |   |   |   ic > 0.57792
|   |   |   |   |   |   |   ca <= 0.915755
|   |   |   |   |   |   |   |   cbo <= 12.111319: YES (4.0/1.0)
|   |   |   |   |   |   |   |   cbo > 12.111319: NO (11.0/3.0)
|   |   |   |   |   |   |   ca > 0.915755: YES (4.0)
|   |   |   |   |   cbo > 19.564438: NO (6.0)
loc > 125.212476
|   loc <= 733.574664
|   |   cbm <= 3.785913
|   |   |   ce <= 18.750105
|   |   |   |   cbo <= 13.974599
|   |   |   |   |   rfc <= 3.686396
|   |   |   |   |   |   loc <= 487.083088: YES (76.0/17.0)
|   |   |   |   |   |   loc > 487.083088: NO (13.0/2.0)
|   |   |   |   |   rfc > 3.686396
|   |   |   |   |   |   noc <= 0
|   |   |   |   |   |   |   ca <= 7.326039
|   |   |   |   |   |   |   |   ce <= 1.704555: NO (206.0/62.0)
|   |   |   |   |   |   |   |   ce > 1.704555
|   |   |   |   |   |   |   |   |   mfa <= 0.534672
|   |   |   |   |   |   |   |   |   |   wmc <= 4.823203: NO (36.0/11.0)
|   |   |   |   |   |   |   |   |   |   wmc > 4.823203
|   |   |   |   |   |   |   |   |   |   |   ic <= 0.57792
|   |   |   |   |   |   |   |   |   |   |   |   cbm <= 1.892957
|   |   |   |   |   |   |   |   |   |   |   |   |   cbm <= 0.473239
|   |   |   |   |   |   |   |   |   |   |   |   |   |   ic <= 0
|   |   |   |   |   |   |   |   |   |   |   |   |   |   |   moa <= 0: NO (67.0/29.0)
|   |   |   |   |   |   |   |   |   |   |   |   |   |   |   moa > 0
|   |   |   |   |   |   |   |   |   |   |   |   |   |   |   |   wmc <= 27.009938
|   |   |   |   |   |   |   |   |   |   |   |   |   |   |   |   |   moa <= 3.805604
|   |   |   |   |   |   |   |   |   |   |   |   |   |   |   |   |   |   ce <= 8.522775: YES (72.0/17.0)
|   |   |   |   |   |   |   |   |   |   |   |   |   |   |   |   |   |   ce > 8.522775
|   |   |   |   |   |   |   |   |   |   |   |   |   |   |   |   |   |   |   npm <= 12.723381: NO (14.0/4.0)
|   |   |   |   |   |   |   |   |   |   |   |   |   |   |   |   |   |   |   npm > 12.723381: YES (2.0)
|   |   |   |   |   |   |   |   |   |   |   |   |   |   |   |   |   moa > 3.805604: NO (5.0/1.0)
|   |   |   |   |   |   |   |   |   |   |   |   |   |   |   |   wmc > 27.009938
|   |   |   |   |   |   |   |   |   |   |   |   |   |   |   |   |   npm <= 29.361649: NO (7.0)
|   |   |   |   |   |   |   |   |   |   |   |   |   |   |   |   |   npm > 29.361649
|   |   |   |   |   |   |   |   |   |   |   |   |   |   |   |   |   |   ce <= 4.261388: NO (4.0)
|   |   |   |   |   |   |   |   |   |   |   |   |   |   |   |   |   |   ce > 4.261388
|   |   |   |   |   |   |   |   |   |   |   |   |   |   |   |   |   |   |   moa <= 0.951401: YES (2.0)
|   |   |   |   |   |   |   |   |   |   |   |   |   |   |   |   |   |   |   moa > 0.951401
|   |   |   |   |   |   |   |   |   |   |   |   |   |   |   |   |   |   |   |   avg_cc <= 1.220487
|   |   |   |   |   |   |   |   |   |   |   |   |   |   |   |   |   |   |   |   |   ce <= 6.81822: NO (3.0)
|   |   |   |   |   |   |   |   |   |   |   |   |   |   |   |   |   |   |   |   |   ce > 6.81822: YES (5.0/2.0)
|   |   |   |   |   |   |   |   |   |   |   |   |   |   |   |   |   |   |   |   avg_cc > 1.220487: YES (4.0)
|   |   |   |   |   |   |   |   |   |   |   |   |   |   ic > 0
|   |   |   |   |   |   |   |   |   |   |   |   |   |   |   moa <= 2.854203
|   |   |   |   |   |   |   |   |   |   |   |   |   |   |   |   ca <= 5.494529
|   |   |   |   |   |   |   |   |   |   |   |   |   |   |   |   |   dit <= 0.777333: NO (5.0/2.0)
|   |   |   |   |   |   |   |   |   |   |   |   |   |   |   |   |   dit > 0.777333
|   |   |   |   |   |   |   |   |   |   |   |   |   |   |   |   |   |   dit <= 1.554666: YES (11.0/1.0)
|   |   |   |   |   |   |   |   |   |   |   |   |   |   |   |   |   |   dit > 1.554666
|   |   |   |   |   |   |   |   |   |   |   |   |   |   |   |   |   |   |   moa <= 0: NO (4.0/1.0)
|   |   |   |   |   |   |   |   |   |   |   |   |   |   |   |   |   |   |   moa > 0: YES (3.0)
|   |   |   |   |   |   |   |   |   |   |   |   |   |   |   |   ca > 5.494529: NO (2.0)
|   |   |   |   |   |   |   |   |   |   |   |   |   |   |   moa > 2.854203: NO (2.0)
|   |   |   |   |   |   |   |   |   |   |   |   |   cbm > 0.473239: YES (16.0/2.0)
|   |   |   |   |   |   |   |   |   |   |   |   cbm > 1.892957
|   |   |   |   |   |   |   |   |   |   |   |   |   avg_cc <= 2.163817: NO (8.0)
|   |   |   |   |   |   |   |   |   |   |   |   |   avg_cc > 2.163817: YES (5.0/2.0)
|   |   |   |   |   |   |   |   |   |   |   ic > 0.57792
|   |   |   |   |   |   |   |   |   |   |   |   mfa <= 0.454592: YES (19.0/1.0)
|   |   |   |   |   |   |   |   |   |   |   |   mfa > 0.454592
|   |   |   |   |   |   |   |   |   |   |   |   |   max_cc <= 13.418536
|   |   |   |   |   |   |   |   |   |   |   |   |   |   moa <= 0
|   |   |   |   |   |   |   |   |   |   |   |   |   |   |   ca <= 0: NO (3.0)
|   |   |   |   |   |   |   |   |   |   |   |   |   |   |   ca > 0: YES (4.0/1.0)
|   |   |   |   |   |   |   |   |   |   |   |   |   |   moa > 0: NO (5.0)
|   |   |   |   |   |   |   |   |   |   |   |   |   max_cc > 13.418536: YES (3.0)
|   |   |   |   |   |   |   |   |   mfa > 0.534672
|   |   |   |   |   |   |   |   |   |   rfc <= 66.35513
|   |   |   |   |   |   |   |   |   |   |   ce <= 5.113665
|   |   |   |   |   |   |   |   |   |   |   |   moa <= 0.951401
|   |   |   |   |   |   |   |   |   |   |   |   |   cbm <= 0.473239
|   |   |   |   |   |   |   |   |   |   |   |   |   |   max_cc <= 7.547926
|   |   |   |   |   |   |   |   |   |   |   |   |   |   |   ca <= 0.915755: NO (16.0)
|   |   |   |   |   |   |   |   |   |   |   |   |   |   |   ca > 0.915755
|   |   |   |   |   |   |   |   |   |   |   |   |   |   |   |   cam <= 0.273262: YES (2.0)
|   |   |   |   |   |   |   |   |   |   |   |   |   |   |   |   cam > 0.273262: NO (5.0/1.0)
|   |   |   |   |   |   |   |   |   |   |   |   |   |   max_cc > 7.547926: YES (2.0)
|   |   |   |   |   |   |   |   |   |   |   |   |   cbm > 0.473239: NO (25.0)
|   |   |   |   |   |   |   |   |   |   |   |   moa > 0.951401: YES (3.0)
|   |   |   |   |   |   |   |   |   |   |   ce > 5.113665
|   |   |   |   |   |   |   |   |   |   |   |   wmc <= 9.646406
|   |   |   |   |   |   |   |   |   |   |   |   |   moa <= 0.951401
|   |   |   |   |   |   |   |   |   |   |   |   |   |   dit <= 3.109332
|   |   |   |   |   |   |   |   |   |   |   |   |   |   |   ca <= 0.915755
|   |   |   |   |   |   |   |   |   |   |   |   |   |   |   |   ca <= 0
|   |   |   |   |   |   |   |   |   |   |   |   |   |   |   |   |   moa <= 0
|   |   |   |   |   |   |   |   |   |   |   |   |   |   |   |   |   |   lcom <= 3.487362
|   |   |   |   |   |   |   |   |   |   |   |   |   |   |   |   |   |   |   mfa <= 0.677755: NO (11.0)
|   |   |   |   |   |   |   |   |   |   |   |   |   |   |   |   |   |   |   mfa > 0.677755: YES (3.0/1.0)
|   |   |   |   |   |   |   |   |   |   |   |   |   |   |   |   |   |   lcom > 3.487362
|   |   |   |   |   |   |   |   |   |   |   |   |   |   |   |   |   |   |   dit <= 2.331999: YES (8.0/3.0)
|   |   |   |   |   |   |   |   |   |   |   |   |   |   |   |   |   |   |   dit > 2.331999
|   |   |   |   |   |   |   |   |   |   |   |   |   |   |   |   |   |   |   |   npm <= 3.914887
|   |   |   |   |   |   |   |   |   |   |   |   |   |   |   |   |   |   |   |   |   rfc <= 39.628758: YES (3.0/1.0)
|   |   |   |   |   |   |   |   |   |   |   |   |   |   |   |   |   |   |   |   |   rfc > 39.628758: NO (3.0)
|   |   |   |   |   |   |   |   |   |   |   |   |   |   |   |   |   |   |   |   npm > 3.914887: YES (2.0)
|   |   |   |   |   |   |   |   |   |   |   |   |   |   |   |   |   moa > 0
|   |   |   |   |   |   |   |   |   |   |   |   |   |   |   |   |   |   cbo <= 8.384759: YES (2.0)
|   |   |   |   |   |   |   |   |   |   |   |   |   |   |   |   |   |   cbo > 8.384759
|   |   |   |   |   |   |   |   |   |   |   |   |   |   |   |   |   |   |   loc <= 157.335049: NO (3.0)
|   |   |   |   |   |   |   |   |   |   |   |   |   |   |   |   |   |   |   loc > 157.335049: YES (3.0/1.0)
|   |   |   |   |   |   |   |   |   |   |   |   |   |   |   |   ca > 0: NO (12.0/3.0)
|   |   |   |   |   |   |   |   |   |   |   |   |   |   |   ca > 0.915755
|   |   |   |   |   |   |   |   |   |   |   |   |   |   |   |   rfc <= 32.255966: YES (8.0/1.0)
|   |   |   |   |   |   |   |   |   |   |   |   |   |   |   |   rfc > 32.255966: NO (2.0)
|   |   |   |   |   |   |   |   |   |   |   |   |   |   dit > 3.109332: YES (5.0)
|   |   |   |   |   |   |   |   |   |   |   |   |   moa > 0.951401
|   |   |   |   |   |   |   |   |   |   |   |   |   |   lcom <= 0: NO (9.0)
|   |   |   |   |   |   |   |   |   |   |   |   |   |   lcom > 0
|   |   |   |   |   |   |   |   |   |   |   |   |   |   |   ca <= 0.915755: YES (4.0/1.0)
|   |   |   |   |   |   |   |   |   |   |   |   |   |   |   ca > 0.915755: NO (2.0)
|   |   |   |   |   |   |   |   |   |   |   |   wmc > 9.646406
|   |   |   |   |   |   |   |   |   |   |   |   |   lcom <= 68.875407: NO (29.0/3.0)
|   |   |   |   |   |   |   |   |   |   |   |   |   lcom > 68.875407: YES (2.0)
|   |   |   |   |   |   |   |   |   |   rfc > 66.35513
|   |   |   |   |   |   |   |   |   |   |   amc <= 16.728142: NO (2.0)
|   |   |   |   |   |   |   |   |   |   |   amc > 16.728142: YES (7.0)
|   |   |   |   |   |   |   ca > 7.326039
|   |   |   |   |   |   |   |   dam <= 0.509865: YES (11.0)
|   |   |   |   |   |   |   |   dam > 0.509865
|   |   |   |   |   |   |   |   |   rfc <= 27.647971
|   |   |   |   |   |   |   |   |   |   ca <= 12.820568: NO (8.0)
|   |   |   |   |   |   |   |   |   |   ca > 12.820568: YES (2.0)
|   |   |   |   |   |   |   |   |   rfc > 27.647971: YES (5.0)
|   |   |   |   |   |   noc > 0
|   |   |   |   |   |   |   max_cc <= 5.870609
|   |   |   |   |   |   |   |   dit <= 2.331999
|   |   |   |   |   |   |   |   |   ca <= 8.241794: YES (44.0/8.0)
|   |   |   |   |   |   |   |   |   ca > 8.241794: NO (2.0)
|   |   |   |   |   |   |   |   dit > 2.331999: NO (9.0/3.0)
|   |   |   |   |   |   |   max_cc > 5.870609
|   |   |   |   |   |   |   |   avg_cc <= 3.746258
|   |   |   |   |   |   |   |   |   wmc <= 49.196673: NO (35.0/9.0)
|   |   |   |   |   |   |   |   |   wmc > 49.196673: YES (2.0)
|   |   |   |   |   |   |   |   avg_cc > 3.746258: YES (3.0)
|   |   |   |   cbo > 13.974599
|   |   |   |   |   lcom3 <= 0.5666
|   |   |   |   |   |   avg_cc <= 1.581738: YES (12.0/4.0)
|   |   |   |   |   |   avg_cc > 1.581738
|   |   |   |   |   |   |   lcom3 <= 0.297008: YES (2.0)
|   |   |   |   |   |   |   lcom3 > 0.297008: NO (18.0/1.0)
|   |   |   |   |   lcom3 > 0.5666
|   |   |   |   |   |   dit <= 3.109332
|   |   |   |   |   |   |   dit <= 2.331999
|   |   |   |   |   |   |   |   cbo <= 65.214795: YES (168.0/40.0)
|   |   |   |   |   |   |   |   cbo > 65.214795
|   |   |   |   |   |   |   |   |   dit <= 0.777333
|   |   |   |   |   |   |   |   |   |   lcom3 <= 0.763083: YES (2.0)
|   |   |   |   |   |   |   |   |   |   lcom3 > 0.763083: NO (8.0)
|   |   |   |   |   |   |   |   |   dit > 0.777333
|   |   |   |   |   |   |   |   |   |   lcom3 <= 0.787072: NO (2.0)
|   |   |   |   |   |   |   |   |   |   lcom3 > 0.787072: YES (6.0/1.0)
|   |   |   |   |   |   |   dit > 2.331999
|   |   |   |   |   |   |   |   avg_cc <= 1.145002: YES (11.0/1.0)
|   |   |   |   |   |   |   |   avg_cc > 1.145002: NO (21.0/5.0)
|   |   |   |   |   |   dit > 3.109332: YES (13.0/1.0)
|   |   |   ce > 18.750105
|   |   |   |   moa <= 1.902802: NO (82.0/15.0)
|   |   |   |   moa > 1.902802
|   |   |   |   |   noc <= 2.913911: YES (22.0/6.0)
|   |   |   |   |   noc > 2.913911: NO (3.0)
|   |   cbm > 3.785913
|   |   |   ca <= 0
|   |   |   |   dam <= 0.719041: YES (2.0)
|   |   |   |   dam > 0.719041: NO (15.0/3.0)
|   |   |   ca > 0
|   |   |   |   ce <= 24.716048: YES (108.0/18.0)
|   |   |   |   ce > 24.716048
|   |   |   |   |   lcom3 <= 0.584878: YES (2.0)
|   |   |   |   |   lcom3 > 0.584878: NO (5.0)
|   loc > 733.574664
|   |   mfa <= 0.656958
|   |   |   rfc <= 74.649521
|   |   |   |   dit <= 1.554666
|   |   |   |   |   noc <= 0
|   |   |   |   |   |   dit <= 0.777333
|   |   |   |   |   |   |   npm <= 0.978722: NO (2.0)
|   |   |   |   |   |   |   npm > 0.978722: YES (26.0/7.0)
|   |   |   |   |   |   dit > 0.777333
|   |   |   |   |   |   |   wmc <= 19.292813: YES (5.0/1.0)
|   |   |   |   |   |   |   wmc > 19.292813: NO (5.0)
|   |   |   |   |   noc > 0
|   |   |   |   |   |   wmc <= 19.292813: YES (4.0)
|   |   |   |   |   |   wmc > 19.292813: NO (3.0)
|   |   |   |   dit > 1.554666: NO (8.0/2.0)
|   |   |   rfc > 74.649521: YES (166.0/35.0)
|   |   mfa > 0.656958
|   |   |   amc <= 393.021852: YES (83.0)
|   |   |   amc > 393.021852: NO (10.0/1.0)

Number of Leaves  : 	212

Size of the tree : 	423


Correctly Classified Instances        2790               35.5097 %
Incorrectly Classified Instances      5067               64.4903 %
Kappa statistic                         -0.1716
Mean absolute error                      0.5701
Root mean squared error                  0.646 
Relative absolute error                132.9862 %
Root relative squared error            139.5293 %
Coverage of cases (0.95 level)          91.0017 %
Mean rel. region size (0.95 level)      92.0644 %
Total Number of Instances             7857     

=== Confusion Matrix ===

    a    b   <-- classified as
 1612 3800 |    a = NO
 1267 1178 |    b = YES

=== Detailed Accuracy By Class ===

                 TP Rate  FP Rate  Precision  Recall   F-Measure  MCC      ROC Area  PRC Area  Class
                 0.298    0.518    0.560      0.298    0.389      -0.212   0.385     0.625     NO
                 0.482    0.702    0.237      0.482    0.317      -0.212   0.385     0.262     YES
Weighted Avg.    0.355    0.575    0.459      0.355    0.367      -0.212   0.385     0.512     

