Classifier...: weka.classifiers.trees.J48 -C 0.25 -M 2
Training file: C:\Users\HP\Desktop\AbdulAli\Baseline\Configuration3\dataK=8\11tr.csv

Testing file: C:\Users\HP\Desktop\AbdulAli\Baseline\Configuration3\dataK=8\11test.csv

J48 pruned tree
------------------

ce <= 0
|   amc <= 40.542467
|   |   moa <= 2.55208
|   |   |   ca <= 2.04212
|   |   |   |   cbo <= 2.068346
|   |   |   |   |   moa <= 0: NO (539.0/101.0)
|   |   |   |   |   moa > 0
|   |   |   |   |   |   lcom3 <= 0.765965: NO (47.0)
|   |   |   |   |   |   lcom3 > 0.765965
|   |   |   |   |   |   |   wmc <= 12.17004
|   |   |   |   |   |   |   |   lcom3 <= 1.175982: NO (12.0)
|   |   |   |   |   |   |   |   lcom3 > 1.175982: YES (5.0/1.0)
|   |   |   |   |   |   |   wmc > 12.17004: YES (2.0)
|   |   |   |   cbo > 2.068346
|   |   |   |   |   cbo <= 9.307558: NO (235.0/8.0)
|   |   |   |   |   cbo > 9.307558
|   |   |   |   |   |   amc <= 25.204498
|   |   |   |   |   |   |   npm <= 10.043391
|   |   |   |   |   |   |   |   lcom3 <= 0.855862: NO (16.0/1.0)
|   |   |   |   |   |   |   |   lcom3 > 0.855862
|   |   |   |   |   |   |   |   |   cam <= 0.449506: YES (10.0/2.0)
|   |   |   |   |   |   |   |   |   cam > 0.449506: NO (4.0)
|   |   |   |   |   |   |   npm > 10.043391: NO (18.0)
|   |   |   |   |   |   amc > 25.204498: YES (4.0)
|   |   |   ca > 2.04212
|   |   |   |   moa <= 0
|   |   |   |   |   amc <= 1.644422
|   |   |   |   |   |   lcom3 <= 1.086995: NO (13.0)
|   |   |   |   |   |   lcom3 > 1.086995
|   |   |   |   |   |   |   noc <= 0.966877
|   |   |   |   |   |   |   |   max_cc <= 0
|   |   |   |   |   |   |   |   |   loc <= 1.836382: NO (19.0/1.0)
|   |   |   |   |   |   |   |   |   loc > 1.836382
|   |   |   |   |   |   |   |   |   |   cbo <= 5.170865: YES (4.0)
|   |   |   |   |   |   |   |   |   |   cbo > 5.170865: NO (12.0/4.0)
|   |   |   |   |   |   |   |   max_cc > 0
|   |   |   |   |   |   |   |   |   ca <= 33.694981: NO (144.0/24.0)
|   |   |   |   |   |   |   |   |   ca > 33.694981
|   |   |   |   |   |   |   |   |   |   wmc <= 2.281882: NO (3.0)
|   |   |   |   |   |   |   |   |   |   wmc > 2.281882: YES (7.0/1.0)
|   |   |   |   |   |   |   noc > 0.966877
|   |   |   |   |   |   |   |   wmc <= 1.521255
|   |   |   |   |   |   |   |   |   mfa <= 1.034992: NO (7.0/1.0)
|   |   |   |   |   |   |   |   |   mfa > 1.034992: YES (2.0)
|   |   |   |   |   |   |   |   wmc > 1.521255: YES (3.0)
|   |   |   |   |   amc > 1.644422
|   |   |   |   |   |   dit <= 1.006704
|   |   |   |   |   |   |   ca <= 6.12636
|   |   |   |   |   |   |   |   ic <= 0
|   |   |   |   |   |   |   |   |   npm <= 13.133666
|   |   |   |   |   |   |   |   |   |   avg_cc <= 1.197436
|   |   |   |   |   |   |   |   |   |   |   max_cc <= 0.983556
|   |   |   |   |   |   |   |   |   |   |   |   cam <= 0.377052: NO (9.0)
|   |   |   |   |   |   |   |   |   |   |   |   cam > 0.377052
|   |   |   |   |   |   |   |   |   |   |   |   |   max_cc <= 0: YES (8.0/3.0)
|   |   |   |   |   |   |   |   |   |   |   |   |   max_cc > 0
|   |   |   |   |   |   |   |   |   |   |   |   |   |   cam <= 0.561882
|   |   |   |   |   |   |   |   |   |   |   |   |   |   |   avg_cc <= 0.445475: YES (2.0)
|   |   |   |   |   |   |   |   |   |   |   |   |   |   |   avg_cc > 0.445475
|   |   |   |   |   |   |   |   |   |   |   |   |   |   |   |   loc <= 44.80773: NO (11.0/3.0)
|   |   |   |   |   |   |   |   |   |   |   |   |   |   |   |   loc > 44.80773: YES (4.0/1.0)
|   |   |   |   |   |   |   |   |   |   |   |   |   |   cam > 0.561882: NO (15.0)
|   |   |   |   |   |   |   |   |   |   |   max_cc > 0.983556
|   |   |   |   |   |   |   |   |   |   |   |   lcom <= 1.418906: NO (6.0/1.0)
|   |   |   |   |   |   |   |   |   |   |   |   lcom > 1.418906: YES (11.0/2.0)
|   |   |   |   |   |   |   |   |   |   avg_cc > 1.197436: NO (17.0)
|   |   |   |   |   |   |   |   |   npm > 13.133666: YES (8.0/2.0)
|   |   |   |   |   |   |   |   ic > 0
|   |   |   |   |   |   |   |   |   avg_cc <= 1.83279
|   |   |   |   |   |   |   |   |   |   loc <= 49.582325: NO (4.0)
|   |   |   |   |   |   |   |   |   |   loc > 49.582325: YES (2.0)
|   |   |   |   |   |   |   |   |   avg_cc > 1.83279: NO (3.0)
|   |   |   |   |   |   |   ca > 6.12636: YES (100.0/44.0)
|   |   |   |   |   |   dit > 1.006704
|   |   |   |   |   |   |   rfc <= 3.55461: YES (3.0)
|   |   |   |   |   |   |   rfc > 3.55461
|   |   |   |   |   |   |   |   amc <= 11.12227: NO (39.0/5.0)
|   |   |   |   |   |   |   |   amc > 11.12227: YES (4.0/1.0)
|   |   |   |   moa > 0
|   |   |   |   |   ic <= 0: NO (90.0/11.0)
|   |   |   |   |   ic > 0
|   |   |   |   |   |   avg_cc <= 1.34847
|   |   |   |   |   |   |   npm <= 6.180548
|   |   |   |   |   |   |   |   cbo <= 9.307558: NO (3.0)
|   |   |   |   |   |   |   |   cbo > 9.307558: YES (3.0)
|   |   |   |   |   |   |   npm > 6.180548: NO (10.0)
|   |   |   |   |   |   avg_cc > 1.34847: YES (5.0/1.0)
|   |   moa > 2.55208
|   |   |   rfc <= 127.965976
|   |   |   |   ca <= 3.06318
|   |   |   |   |   lcom3 <= 0.680679: YES (4.0/1.0)
|   |   |   |   |   lcom3 > 0.680679: NO (20.0)
|   |   |   |   ca > 3.06318
|   |   |   |   |   npm <= 22.404488
|   |   |   |   |   |   avg_cc <= 0.58318: NO (3.0)
|   |   |   |   |   |   avg_cc > 0.58318: YES (14.0/2.0)
|   |   |   |   |   npm > 22.404488
|   |   |   |   |   |   max_cc <= 7.376673: NO (9.0/1.0)
|   |   |   |   |   |   max_cc > 7.376673
|   |   |   |   |   |   |   wmc <= 38.792001: NO (3.0)
|   |   |   |   |   |   |   wmc > 38.792001: YES (2.0)
|   |   |   rfc > 127.965976: YES (11.0/1.0)
|   amc > 40.542467
|   |   dit <= 2.013407
|   |   |   moa <= 0.850693
|   |   |   |   rfc <= 36.967949: NO (33.0/8.0)
|   |   |   |   rfc > 36.967949: YES (3.0)
|   |   |   moa > 0.850693: YES (2.0)
|   |   dit > 2.013407: YES (55.0)
ce > 0
|   ce <= 16.787852
|   |   amc <= 76.061973
|   |   |   cbm <= 1.512337
|   |   |   |   loc <= 106.877455
|   |   |   |   |   lcom <= 21.28359
|   |   |   |   |   |   ca <= 0
|   |   |   |   |   |   |   mfa <= 0.775713
|   |   |   |   |   |   |   |   max_cc <= 2.950669
|   |   |   |   |   |   |   |   |   moa <= 0
|   |   |   |   |   |   |   |   |   |   loc <= 64.64066
|   |   |   |   |   |   |   |   |   |   |   cbo <= 10.341731
|   |   |   |   |   |   |   |   |   |   |   |   lcom3 <= 0.709644: NO (52.0/10.0)
|   |   |   |   |   |   |   |   |   |   |   |   lcom3 > 0.709644
|   |   |   |   |   |   |   |   |   |   |   |   |   rfc <= 13.50752
|   |   |   |   |   |   |   |   |   |   |   |   |   |   ic <= 0
|   |   |   |   |   |   |   |   |   |   |   |   |   |   |   dit <= 1.006704
|   |   |   |   |   |   |   |   |   |   |   |   |   |   |   |   dam <= 0.236445
|   |   |   |   |   |   |   |   |   |   |   |   |   |   |   |   |   lcom3 <= 1.419289: YES (3.0/1.0)
|   |   |   |   |   |   |   |   |   |   |   |   |   |   |   |   |   lcom3 > 1.419289
|   |   |   |   |   |   |   |   |   |   |   |   |   |   |   |   |   |   cbo <= 3.102519
|   |   |   |   |   |   |   |   |   |   |   |   |   |   |   |   |   |   |   cbo <= 1.034173
|   |   |   |   |   |   |   |   |   |   |   |   |   |   |   |   |   |   |   |   max_cc <= 0.983556: YES (5.0/1.0)
|   |   |   |   |   |   |   |   |   |   |   |   |   |   |   |   |   |   |   |   max_cc > 0.983556: NO (3.0/1.0)
|   |   |   |   |   |   |   |   |   |   |   |   |   |   |   |   |   |   |   cbo > 1.034173: NO (4.0)
|   |   |   |   |   |   |   |   |   |   |   |   |   |   |   |   |   |   cbo > 3.102519: YES (6.0/1.0)
|   |   |   |   |   |   |   |   |   |   |   |   |   |   |   |   dam > 0.236445: YES (4.0)
|   |   |   |   |   |   |   |   |   |   |   |   |   |   |   dit > 1.006704
|   |   |   |   |   |   |   |   |   |   |   |   |   |   |   |   dam <= 0.177334
|   |   |   |   |   |   |   |   |   |   |   |   |   |   |   |   |   avg_cc <= 0.522667: NO (6.0/1.0)
|   |   |   |   |   |   |   |   |   |   |   |   |   |   |   |   |   avg_cc > 0.522667: YES (6.0/1.0)
|   |   |   |   |   |   |   |   |   |   |   |   |   |   |   |   dam > 0.177334: NO (3.0)
|   |   |   |   |   |   |   |   |   |   |   |   |   |   ic > 0: YES (16.0/7.0)
|   |   |   |   |   |   |   |   |   |   |   |   |   rfc > 13.50752
|   |   |   |   |   |   |   |   |   |   |   |   |   |   npm <= 3.090274: NO (14.0/1.0)
|   |   |   |   |   |   |   |   |   |   |   |   |   |   npm > 3.090274
|   |   |   |   |   |   |   |   |   |   |   |   |   |   |   rfc <= 16.351208: NO (3.0)
|   |   |   |   |   |   |   |   |   |   |   |   |   |   |   rfc > 16.351208: YES (2.0)
|   |   |   |   |   |   |   |   |   |   |   cbo > 10.341731: NO (15.0)
|   |   |   |   |   |   |   |   |   |   loc > 64.64066: YES (22.0/6.0)
|   |   |   |   |   |   |   |   |   moa > 0
|   |   |   |   |   |   |   |   |   |   dam <= 1.034446: YES (7.0/1.0)
|   |   |   |   |   |   |   |   |   |   dam > 1.034446
|   |   |   |   |   |   |   |   |   |   |   dit <= 1.006704
|   |   |   |   |   |   |   |   |   |   |   |   avg_cc <= 0.600215: NO (6.0)
|   |   |   |   |   |   |   |   |   |   |   |   avg_cc > 0.600215
|   |   |   |   |   |   |   |   |   |   |   |   |   cbo <= 2.068346: YES (3.0)
|   |   |   |   |   |   |   |   |   |   |   |   |   cbo > 2.068346
|   |   |   |   |   |   |   |   |   |   |   |   |   |   loc <= 49.582325: NO (4.0)
|   |   |   |   |   |   |   |   |   |   |   |   |   |   loc > 49.582325
|   |   |   |   |   |   |   |   |   |   |   |   |   |   |   lcom3 <= 0.368646: NO (2.0)
|   |   |   |   |   |   |   |   |   |   |   |   |   |   |   lcom3 > 0.368646: YES (4.0/1.0)
|   |   |   |   |   |   |   |   |   |   |   dit > 1.006704
|   |   |   |   |   |   |   |   |   |   |   |   mfa <= 0.692918
|   |   |   |   |   |   |   |   |   |   |   |   |   avg_cc <= 0.757307: YES (12.0/1.0)
|   |   |   |   |   |   |   |   |   |   |   |   |   avg_cc > 0.757307: NO (3.0/1.0)
|   |   |   |   |   |   |   |   |   |   |   |   mfa > 0.692918: NO (3.0)
|   |   |   |   |   |   |   |   max_cc > 2.950669: NO (47.0/7.0)
|   |   |   |   |   |   |   mfa > 0.775713
|   |   |   |   |   |   |   |   moa <= 0: NO (210.0/28.0)
|   |   |   |   |   |   |   |   moa > 0
|   |   |   |   |   |   |   |   |   amc <= 12.702854
|   |   |   |   |   |   |   |   |   |   wmc <= 1.521255: YES (3.0/1.0)
|   |   |   |   |   |   |   |   |   |   wmc > 1.521255: NO (21.0/2.0)
|   |   |   |   |   |   |   |   |   amc > 12.702854: YES (3.0)
|   |   |   |   |   |   ca > 0
|   |   |   |   |   |   |   mfa <= 0.925964
|   |   |   |   |   |   |   |   cbm <= 1.008224
|   |   |   |   |   |   |   |   |   npm <= 8.498254
|   |   |   |   |   |   |   |   |   |   npm <= 7.725686
|   |   |   |   |   |   |   |   |   |   |   loc <= 28.280289
|   |   |   |   |   |   |   |   |   |   |   |   ca <= 8.16848
|   |   |   |   |   |   |   |   |   |   |   |   |   cbm <= 0.504112
|   |   |   |   |   |   |   |   |   |   |   |   |   |   wmc <= 5.324392
|   |   |   |   |   |   |   |   |   |   |   |   |   |   |   mfa <= 0.846672
|   |   |   |   |   |   |   |   |   |   |   |   |   |   |   |   ce <= 4.796529
|   |   |   |   |   |   |   |   |   |   |   |   |   |   |   |   |   dit <= 1.006704: NO (370.0/90.0)
|   |   |   |   |   |   |   |   |   |   |   |   |   |   |   |   |   dit > 1.006704
|   |   |   |   |   |   |   |   |   |   |   |   |   |   |   |   |   |   ic <= 0
|   |   |   |   |   |   |   |   |   |   |   |   |   |   |   |   |   |   |   lcom <= 0
|   |   |   |   |   |   |   |   |   |   |   |   |   |   |   |   |   |   |   |   noc <= 5.801262
|   |   |   |   |   |   |   |   |   |   |   |   |   |   |   |   |   |   |   |   |   mfa <= 0.471717: YES (3.0)
|   |   |   |   |   |   |   |   |   |   |   |   |   |   |   |   |   |   |   |   |   mfa > 0.471717
|   |   |   |   |   |   |   |   |   |   |   |   |   |   |   |   |   |   |   |   |   |   moa <= 0
|   |   |   |   |   |   |   |   |   |   |   |   |   |   |   |   |   |   |   |   |   |   |   max_cc <= 0.491778: YES (8.0/2.0)
|   |   |   |   |   |   |   |   |   |   |   |   |   |   |   |   |   |   |   |   |   |   |   max_cc > 0.491778: NO (3.0)
|   |   |   |   |   |   |   |   |   |   |   |   |   |   |   |   |   |   |   |   |   |   moa > 0: NO (8.0/2.0)
|   |   |   |   |   |   |   |   |   |   |   |   |   |   |   |   |   |   |   |   noc > 5.801262: YES (2.0)
|   |   |   |   |   |   |   |   |   |   |   |   |   |   |   |   |   |   |   lcom > 0
|   |   |   |   |   |   |   |   |   |   |   |   |   |   |   |   |   |   |   |   max_cc <= 0: YES (3.0/1.0)
|   |   |   |   |   |   |   |   |   |   |   |   |   |   |   |   |   |   |   |   max_cc > 0
|   |   |   |   |   |   |   |   |   |   |   |   |   |   |   |   |   |   |   |   |   cbo <= 4.136692
|   |   |   |   |   |   |   |   |   |   |   |   |   |   |   |   |   |   |   |   |   |   mfa <= 0.811557: NO (15.0/1.0)
|   |   |   |   |   |   |   |   |   |   |   |   |   |   |   |   |   |   |   |   |   |   mfa > 0.811557: YES (3.0)
|   |   |   |   |   |   |   |   |   |   |   |   |   |   |   |   |   |   |   |   |   cbo > 4.136692: NO (16.0)
|   |   |   |   |   |   |   |   |   |   |   |   |   |   |   |   |   |   ic > 0: NO (12.0/1.0)
|   |   |   |   |   |   |   |   |   |   |   |   |   |   |   |   ce > 4.796529
|   |   |   |   |   |   |   |   |   |   |   |   |   |   |   |   |   wmc <= 4.563765
|   |   |   |   |   |   |   |   |   |   |   |   |   |   |   |   |   |   dit <= 1.006704
|   |   |   |   |   |   |   |   |   |   |   |   |   |   |   |   |   |   |   max_cc <= 0.983556
|   |   |   |   |   |   |   |   |   |   |   |   |   |   |   |   |   |   |   |   dam <= 0.443334
|   |   |   |   |   |   |   |   |   |   |   |   |   |   |   |   |   |   |   |   |   lcom3 <= 1.098259: YES (2.0)
|   |   |   |   |   |   |   |   |   |   |   |   |   |   |   |   |   |   |   |   |   lcom3 > 1.098259
|   |   |   |   |   |   |   |   |   |   |   |   |   |   |   |   |   |   |   |   |   |   noc <= 0.966877
|   |   |   |   |   |   |   |   |   |   |   |   |   |   |   |   |   |   |   |   |   |   |   rfc <= 8.531065: NO (13.0/3.0)
|   |   |   |   |   |   |   |   |   |   |   |   |   |   |   |   |   |   |   |   |   |   |   rfc > 8.531065: YES (2.0)
|   |   |   |   |   |   |   |   |   |   |   |   |   |   |   |   |   |   |   |   |   |   noc > 0.966877: NO (2.0/1.0)
|   |   |   |   |   |   |   |   |   |   |   |   |   |   |   |   |   |   |   |   dam > 0.443334: NO (12.0/1.0)
|   |   |   |   |   |   |   |   |   |   |   |   |   |   |   |   |   |   |   max_cc > 0.983556: YES (6.0/2.0)
|   |   |   |   |   |   |   |   |   |   |   |   |   |   |   |   |   |   dit > 1.006704
|   |   |   |   |   |   |   |   |   |   |   |   |   |   |   |   |   |   |   npm <= 2.317706: NO (10.0/1.0)
|   |   |   |   |   |   |   |   |   |   |   |   |   |   |   |   |   |   |   npm > 2.317706: YES (7.0/2.0)
|   |   |   |   |   |   |   |   |   |   |   |   |   |   |   |   |   wmc > 4.563765: YES (5.0)
|   |   |   |   |   |   |   |   |   |   |   |   |   |   |   mfa > 0.846672: NO (48.0/4.0)
|   |   |   |   |   |   |   |   |   |   |   |   |   |   wmc > 5.324392: NO (32.0/2.0)
|   |   |   |   |   |   |   |   |   |   |   |   |   cbm > 0.504112
|   |   |   |   |   |   |   |   |   |   |   |   |   |   wmc <= 5.324392: NO (34.0/8.0)
|   |   |   |   |   |   |   |   |   |   |   |   |   |   wmc > 5.324392: YES (15.0/2.0)
|   |   |   |   |   |   |   |   |   |   |   |   ca > 8.16848
|   |   |   |   |   |   |   |   |   |   |   |   |   moa <= 0
|   |   |   |   |   |   |   |   |   |   |   |   |   |   noc <= 6.768139
|   |   |   |   |   |   |   |   |   |   |   |   |   |   |   noc <= 0.966877
|   |   |   |   |   |   |   |   |   |   |   |   |   |   |   |   amc <= 4.39509
|   |   |   |   |   |   |   |   |   |   |   |   |   |   |   |   |   lcom3 <= 1.715624: YES (11.0/2.0)
|   |   |   |   |   |   |   |   |   |   |   |   |   |   |   |   |   lcom3 > 1.715624
|   |   |   |   |   |   |   |   |   |   |   |   |   |   |   |   |   |   ce <= 2.398265: NO (51.0/14.0)
|   |   |   |   |   |   |   |   |   |   |   |   |   |   |   |   |   |   ce > 2.398265
|   |   |   |   |   |   |   |   |   |   |   |   |   |   |   |   |   |   |   ca <= 21.442261: YES (7.0/1.0)
|   |   |   |   |   |   |   |   |   |   |   |   |   |   |   |   |   |   |   ca > 21.442261: NO (8.0/2.0)
|   |   |   |   |   |   |   |   |   |   |   |   |   |   |   |   amc > 4.39509: NO (5.0)
|   |   |   |   |   |   |   |   |   |   |   |   |   |   |   noc > 0.966877
|   |   |   |   |   |   |   |   |   |   |   |   |   |   |   |   npm <= 0.772569: NO (2.0)
|   |   |   |   |   |   |   |   |   |   |   |   |   |   |   |   npm > 0.772569: YES (23.0/8.0)
|   |   |   |   |   |   |   |   |   |   |   |   |   |   noc > 6.768139: NO (6.0)
|   |   |   |   |   |   |   |   |   |   |   |   |   moa > 0
|   |   |   |   |   |   |   |   |   |   |   |   |   |   wmc <= 3.803137
|   |   |   |   |   |   |   |   |   |   |   |   |   |   |   lcom3 <= 0.59137: NO (2.0)
|   |   |   |   |   |   |   |   |   |   |   |   |   |   |   lcom3 > 0.59137
|   |   |   |   |   |   |   |   |   |   |   |   |   |   |   |   wmc <= 2.281882: YES (4.0/1.0)
|   |   |   |   |   |   |   |   |   |   |   |   |   |   |   |   wmc > 2.281882: NO (3.0/1.0)
|   |   |   |   |   |   |   |   |   |   |   |   |   |   wmc > 3.803137: YES (4.0)
|   |   |   |   |   |   |   |   |   |   |   loc > 28.280289
|   |   |   |   |   |   |   |   |   |   |   |   moa <= 0
|   |   |   |   |   |   |   |   |   |   |   |   |   ce <= 9.593058
|   |   |   |   |   |   |   |   |   |   |   |   |   |   avg_cc <= 0.603137
|   |   |   |   |   |   |   |   |   |   |   |   |   |   |   ca <= 1.02106
|   |   |   |   |   |   |   |   |   |   |   |   |   |   |   |   cbo <= 8.273385
|   |   |   |   |   |   |   |   |   |   |   |   |   |   |   |   |   max_cc <= 0.491778
|   |   |   |   |   |   |   |   |   |   |   |   |   |   |   |   |   |   dam <= 0.689631
|   |   |   |   |   |   |   |   |   |   |   |   |   |   |   |   |   |   |   rfc <= 14.218442: NO (16.0/1.0)
|   |   |   |   |   |   |   |   |   |   |   |   |   |   |   |   |   |   |   rfc > 14.218442: YES (3.0/1.0)
|   |   |   |   |   |   |   |   |   |   |   |   |   |   |   |   |   |   dam > 0.689631
|   |   |   |   |   |   |   |   |   |   |   |   |   |   |   |   |   |   |   ce <= 2.398265: YES (2.0)
|   |   |   |   |   |   |   |   |   |   |   |   |   |   |   |   |   |   |   ce > 2.398265
|   |   |   |   |   |   |   |   |   |   |   |   |   |   |   |   |   |   |   |   ce <= 3.597397: NO (5.0/1.0)
|   |   |   |   |   |   |   |   |   |   |   |   |   |   |   |   |   |   |   |   ce > 3.597397
|   |   |   |   |   |   |   |   |   |   |   |   |   |   |   |   |   |   |   |   |   avg_cc <= 0.458233: NO (4.0/1.0)
|   |   |   |   |   |   |   |   |   |   |   |   |   |   |   |   |   |   |   |   |   avg_cc > 0.458233: YES (3.0)
|   |   |   |   |   |   |   |   |   |   |   |   |   |   |   |   |   max_cc > 0.491778: YES (4.0/1.0)
|   |   |   |   |   |   |   |   |   |   |   |   |   |   |   |   cbo > 8.273385: YES (3.0)
|   |   |   |   |   |   |   |   |   |   |   |   |   |   |   ca > 1.02106: YES (43.0/9.0)
|   |   |   |   |   |   |   |   |   |   |   |   |   |   avg_cc > 0.603137
|   |   |   |   |   |   |   |   |   |   |   |   |   |   |   max_cc <= 2.458891: NO (120.0/32.0)
|   |   |   |   |   |   |   |   |   |   |   |   |   |   |   max_cc > 2.458891
|   |   |   |   |   |   |   |   |   |   |   |   |   |   |   |   noc <= 0.966877
|   |   |   |   |   |   |   |   |   |   |   |   |   |   |   |   |   dit <= 2.013407
|   |   |   |   |   |   |   |   |   |   |   |   |   |   |   |   |   |   dit <= 1.006704
|   |   |   |   |   |   |   |   |   |   |   |   |   |   |   |   |   |   |   noc <= 0: NO (38.0/17.0)
|   |   |   |   |   |   |   |   |   |   |   |   |   |   |   |   |   |   |   noc > 0: YES (4.0/1.0)
|   |   |   |   |   |   |   |   |   |   |   |   |   |   |   |   |   |   dit > 1.006704
|   |   |   |   |   |   |   |   |   |   |   |   |   |   |   |   |   |   |   ce <= 4.796529: YES (9.0)
|   |   |   |   |   |   |   |   |   |   |   |   |   |   |   |   |   |   |   ce > 4.796529: NO (3.0/1.0)
|   |   |   |   |   |   |   |   |   |   |   |   |   |   |   |   |   dit > 2.013407: NO (16.0/3.0)
|   |   |   |   |   |   |   |   |   |   |   |   |   |   |   |   noc > 0.966877: NO (4.0)
|   |   |   |   |   |   |   |   |   |   |   |   |   ce > 9.593058
|   |   |   |   |   |   |   |   |   |   |   |   |   |   ce <= 14.389588
|   |   |   |   |   |   |   |   |   |   |   |   |   |   |   amc <= 10.14843: NO (28.0)
|   |   |   |   |   |   |   |   |   |   |   |   |   |   |   amc > 10.14843
|   |   |   |   |   |   |   |   |   |   |   |   |   |   |   |   amc <= 10.4944: YES (3.0)
|   |   |   |   |   |   |   |   |   |   |   |   |   |   |   |   amc > 10.4944: NO (30.0/4.0)
|   |   |   |   |   |   |   |   |   |   |   |   |   |   ce > 14.389588
|   |   |   |   |   |   |   |   |   |   |   |   |   |   |   cam <= 0.36197: NO (3.0/1.0)
|   |   |   |   |   |   |   |   |   |   |   |   |   |   |   cam > 0.36197: YES (7.0/1.0)
|   |   |   |   |   |   |   |   |   |   |   |   moa > 0
|   |   |   |   |   |   |   |   |   |   |   |   |   noc <= 0.966877
|   |   |   |   |   |   |   |   |   |   |   |   |   |   npm <= 3.090274
|   |   |   |   |   |   |   |   |   |   |   |   |   |   |   dit <= 2.013407
|   |   |   |   |   |   |   |   |   |   |   |   |   |   |   |   moa <= 0.850693
|   |   |   |   |   |   |   |   |   |   |   |   |   |   |   |   |   dam <= 0.253334: NO (6.0)
|   |   |   |   |   |   |   |   |   |   |   |   |   |   |   |   |   dam > 0.253334
|   |   |   |   |   |   |   |   |   |   |   |   |   |   |   |   |   |   dam <= 0.486798: YES (3.0)
|   |   |   |   |   |   |   |   |   |   |   |   |   |   |   |   |   |   dam > 0.486798
|   |   |   |   |   |   |   |   |   |   |   |   |   |   |   |   |   |   |   mfa <= 0.853235: NO (54.0/18.0)
|   |   |   |   |   |   |   |   |   |   |   |   |   |   |   |   |   |   |   mfa > 0.853235: YES (3.0)
|   |   |   |   |   |   |   |   |   |   |   |   |   |   |   |   moa > 0.850693
|   |   |   |   |   |   |   |   |   |   |   |   |   |   |   |   |   ic <= 0
|   |   |   |   |   |   |   |   |   |   |   |   |   |   |   |   |   |   wmc <= 4.563765
|   |   |   |   |   |   |   |   |   |   |   |   |   |   |   |   |   |   |   dit <= 1.006704
|   |   |   |   |   |   |   |   |   |   |   |   |   |   |   |   |   |   |   |   lcom <= 0.709453
|   |   |   |   |   |   |   |   |   |   |   |   |   |   |   |   |   |   |   |   |   npm <= 1.545137
|   |   |   |   |   |   |   |   |   |   |   |   |   |   |   |   |   |   |   |   |   |   wmc <= 3.04251: YES (7.0/1.0)
|   |   |   |   |   |   |   |   |   |   |   |   |   |   |   |   |   |   |   |   |   |   wmc > 3.04251
|   |   |   |   |   |   |   |   |   |   |   |   |   |   |   |   |   |   |   |   |   |   |   lcom3 <= 0.639646: YES (2.0)
|   |   |   |   |   |   |   |   |   |   |   |   |   |   |   |   |   |   |   |   |   |   |   lcom3 > 0.639646: NO (6.0/1.0)
|   |   |   |   |   |   |   |   |   |   |   |   |   |   |   |   |   |   |   |   |   npm > 1.545137: NO (3.0)
|   |   |   |   |   |   |   |   |   |   |   |   |   |   |   |   |   |   |   |   lcom > 0.709453: YES (6.0)
|   |   |   |   |   |   |   |   |   |   |   |   |   |   |   |   |   |   |   dit > 1.006704: YES (3.0)
|   |   |   |   |   |   |   |   |   |   |   |   |   |   |   |   |   |   wmc > 4.563765: NO (2.0)
|   |   |   |   |   |   |   |   |   |   |   |   |   |   |   |   |   ic > 0: NO (4.0/1.0)
|   |   |   |   |   |   |   |   |   |   |   |   |   |   |   dit > 2.013407: NO (8.0/1.0)
|   |   |   |   |   |   |   |   |   |   |   |   |   |   npm > 3.090274
|   |   |   |   |   |   |   |   |   |   |   |   |   |   |   rfc <= 9.952909: YES (8.0)
|   |   |   |   |   |   |   |   |   |   |   |   |   |   |   rfc > 9.952909
|   |   |   |   |   |   |   |   |   |   |   |   |   |   |   |   ic <= 0.762882
|   |   |   |   |   |   |   |   |   |   |   |   |   |   |   |   |   ic <= 0
|   |   |   |   |   |   |   |   |   |   |   |   |   |   |   |   |   |   cbo <= 13.44425
|   |   |   |   |   |   |   |   |   |   |   |   |   |   |   |   |   |   |   wmc <= 7.606275
|   |   |   |   |   |   |   |   |   |   |   |   |   |   |   |   |   |   |   |   dit <= 1.006704: YES (45.0/13.0)
|   |   |   |   |   |   |   |   |   |   |   |   |   |   |   |   |   |   |   |   dit > 1.006704
|   |   |   |   |   |   |   |   |   |   |   |   |   |   |   |   |   |   |   |   |   max_cc <= 0.491778: YES (5.0)
|   |   |   |   |   |   |   |   |   |   |   |   |   |   |   |   |   |   |   |   |   max_cc > 0.491778
|   |   |   |   |   |   |   |   |   |   |   |   |   |   |   |   |   |   |   |   |   |   ca <= 1.02106
|   |   |   |   |   |   |   |   |   |   |   |   |   |   |   |   |   |   |   |   |   |   |   amc <= 6.039512: YES (3.0)
|   |   |   |   |   |   |   |   |   |   |   |   |   |   |   |   |   |   |   |   |   |   |   amc > 6.039512: NO (2.0)
|   |   |   |   |   |   |   |   |   |   |   |   |   |   |   |   |   |   |   |   |   |   ca > 1.02106: NO (8.0/2.0)
|   |   |   |   |   |   |   |   |   |   |   |   |   |   |   |   |   |   |   wmc > 7.606275
|   |   |   |   |   |   |   |   |   |   |   |   |   |   |   |   |   |   |   |   cam <= 0.268391: NO (5.0)
|   |   |   |   |   |   |   |   |   |   |   |   |   |   |   |   |   |   |   |   cam > 0.268391
|   |   |   |   |   |   |   |   |   |   |   |   |   |   |   |   |   |   |   |   |   cbo <= 8.273385: YES (2.0)
|   |   |   |   |   |   |   |   |   |   |   |   |   |   |   |   |   |   |   |   |   cbo > 8.273385: NO (5.0/1.0)
|   |   |   |   |   |   |   |   |   |   |   |   |   |   |   |   |   |   cbo > 13.44425: NO (4.0)
|   |   |   |   |   |   |   |   |   |   |   |   |   |   |   |   |   ic > 0: NO (32.0/13.0)
|   |   |   |   |   |   |   |   |   |   |   |   |   |   |   |   ic > 0.762882: YES (8.0/1.0)
|   |   |   |   |   |   |   |   |   |   |   |   |   noc > 0.966877: NO (15.0/3.0)
|   |   |   |   |   |   |   |   |   |   npm > 7.725686
|   |   |   |   |   |   |   |   |   |   |   noc <= 0
|   |   |   |   |   |   |   |   |   |   |   |   ce <= 8.393926: NO (30.0)
|   |   |   |   |   |   |   |   |   |   |   |   ce > 8.393926: YES (2.0)
|   |   |   |   |   |   |   |   |   |   |   noc > 0: YES (2.0)
|   |   |   |   |   |   |   |   |   npm > 8.498254
|   |   |   |   |   |   |   |   |   |   cam <= 0.317907: YES (19.0/1.0)
|   |   |   |   |   |   |   |   |   |   cam > 0.317907
|   |   |   |   |   |   |   |   |   |   |   avg_cc <= 0.641484: YES (3.0)
|   |   |   |   |   |   |   |   |   |   |   avg_cc > 0.641484
|   |   |   |   |   |   |   |   |   |   |   |   loc <= 77.12806
|   |   |   |   |   |   |   |   |   |   |   |   |   dam <= 0.689631: YES (6.0/1.0)
|   |   |   |   |   |   |   |   |   |   |   |   |   dam > 0.689631: NO (3.0)
|   |   |   |   |   |   |   |   |   |   |   |   loc > 77.12806: NO (11.0)
|   |   |   |   |   |   |   |   cbm > 1.008224
|   |   |   |   |   |   |   |   |   mfa <= 0.81002
|   |   |   |   |   |   |   |   |   |   ca <= 1.02106
|   |   |   |   |   |   |   |   |   |   |   dit <= 2.013407
|   |   |   |   |   |   |   |   |   |   |   |   cam <= 0.342199: YES (3.0)
|   |   |   |   |   |   |   |   |   |   |   |   cam > 0.342199: NO (13.0/1.0)
|   |   |   |   |   |   |   |   |   |   |   dit > 2.013407: YES (7.0/2.0)
|   |   |   |   |   |   |   |   |   |   ca > 1.02106
|   |   |   |   |   |   |   |   |   |   |   lcom3 <= 0.414727: NO (7.0/2.0)
|   |   |   |   |   |   |   |   |   |   |   lcom3 > 0.414727: YES (30.0/1.0)
|   |   |   |   |   |   |   |   |   mfa > 0.81002: NO (9.0)
|   |   |   |   |   |   |   mfa > 0.925964
|   |   |   |   |   |   |   |   rfc <= 13.50752
|   |   |   |   |   |   |   |   |   moa <= 0
|   |   |   |   |   |   |   |   |   |   ce <= 4.796529
|   |   |   |   |   |   |   |   |   |   |   loc <= 14.323783
|   |   |   |   |   |   |   |   |   |   |   |   ic <= 0
|   |   |   |   |   |   |   |   |   |   |   |   |   dit <= 3.020111
|   |   |   |   |   |   |   |   |   |   |   |   |   |   avg_cc <= 0.38881
|   |   |   |   |   |   |   |   |   |   |   |   |   |   |   ca <= 1.02106: NO (13.0)
|   |   |   |   |   |   |   |   |   |   |   |   |   |   |   ca > 1.02106
|   |   |   |   |   |   |   |   |   |   |   |   |   |   |   |   max_cc <= 0
|   |   |   |   |   |   |   |   |   |   |   |   |   |   |   |   |   dit <= 2.013407: NO (2.0)
|   |   |   |   |   |   |   |   |   |   |   |   |   |   |   |   |   dit > 2.013407: YES (4.0/1.0)
|   |   |   |   |   |   |   |   |   |   |   |   |   |   |   |   max_cc > 0
|   |   |   |   |   |   |   |   |   |   |   |   |   |   |   |   |   mfa <= 1.010823
|   |   |   |   |   |   |   |   |   |   |   |   |   |   |   |   |   |   cbo <= 5.170865: YES (3.0)
|   |   |   |   |   |   |   |   |   |   |   |   |   |   |   |   |   |   cbo > 5.170865
|   |   |   |   |   |   |   |   |   |   |   |   |   |   |   |   |   |   |   mfa <= 0.944472: YES (2.0)
|   |   |   |   |   |   |   |   |   |   |   |   |   |   |   |   |   |   |   mfa > 0.944472: NO (10.0/1.0)
|   |   |   |   |   |   |   |   |   |   |   |   |   |   |   |   |   mfa > 1.010823: NO (6.0)
|   |   |   |   |   |   |   |   |   |   |   |   |   |   avg_cc > 0.38881
|   |   |   |   |   |   |   |   |   |   |   |   |   |   |   noc <= 0: YES (7.0/1.0)
|   |   |   |   |   |   |   |   |   |   |   |   |   |   |   noc > 0
|   |   |   |   |   |   |   |   |   |   |   |   |   |   |   |   rfc <= 2.843688: YES (4.0/1.0)
|   |   |   |   |   |   |   |   |   |   |   |   |   |   |   |   rfc > 2.843688: NO (2.0)
|   |   |   |   |   |   |   |   |   |   |   |   |   dit > 3.020111
|   |   |   |   |   |   |   |   |   |   |   |   |   |   ce <= 3.597397
|   |   |   |   |   |   |   |   |   |   |   |   |   |   |   lcom3 <= 0.59137: NO (4.0)
|   |   |   |   |   |   |   |   |   |   |   |   |   |   |   lcom3 > 0.59137
|   |   |   |   |   |   |   |   |   |   |   |   |   |   |   |   lcom <= 1.418906
|   |   |   |   |   |   |   |   |   |   |   |   |   |   |   |   |   dit <= 5.033519: YES (14.0/3.0)
|   |   |   |   |   |   |   |   |   |   |   |   |   |   |   |   |   dit > 5.033519
|   |   |   |   |   |   |   |   |   |   |   |   |   |   |   |   |   |   cbo <= 2.068346: YES (3.0/1.0)
|   |   |   |   |   |   |   |   |   |   |   |   |   |   |   |   |   |   cbo > 2.068346: NO (2.0)
|   |   |   |   |   |   |   |   |   |   |   |   |   |   |   |   lcom > 1.418906: NO (27.0/9.0)
|   |   |   |   |   |   |   |   |   |   |   |   |   |   ce > 3.597397: YES (4.0)
|   |   |   |   |   |   |   |   |   |   |   |   ic > 0
|   |   |   |   |   |   |   |   |   |   |   |   |   lcom3 <= 1.303429: YES (7.0)
|   |   |   |   |   |   |   |   |   |   |   |   |   lcom3 > 1.303429
|   |   |   |   |   |   |   |   |   |   |   |   |   |   noc <= 0
|   |   |   |   |   |   |   |   |   |   |   |   |   |   |   ca <= 3.06318
|   |   |   |   |   |   |   |   |   |   |   |   |   |   |   |   max_cc <= 0.491778
|   |   |   |   |   |   |   |   |   |   |   |   |   |   |   |   |   mfa <= 0.98836: NO (8.0/2.0)
|   |   |   |   |   |   |   |   |   |   |   |   |   |   |   |   |   mfa > 0.98836
|   |   |   |   |   |   |   |   |   |   |   |   |   |   |   |   |   |   rfc <= 4.976455: YES (13.0)
|   |   |   |   |   |   |   |   |   |   |   |   |   |   |   |   |   |   rfc > 4.976455: NO (3.0/1.0)
|   |   |   |   |   |   |   |   |   |   |   |   |   |   |   |   max_cc > 0.491778: YES (3.0/1.0)
|   |   |   |   |   |   |   |   |   |   |   |   |   |   |   ca > 3.06318: NO (9.0/2.0)
|   |   |   |   |   |   |   |   |   |   |   |   |   |   noc > 0: NO (2.0)
|   |   |   |   |   |   |   |   |   |   |   loc > 14.323783: NO (20.0/1.0)
|   |   |   |   |   |   |   |   |   |   ce > 4.796529
|   |   |   |   |   |   |   |   |   |   |   ce <= 9.593058
|   |   |   |   |   |   |   |   |   |   |   |   noc <= 0
|   |   |   |   |   |   |   |   |   |   |   |   |   rfc <= 6.398299: YES (25.0/3.0)
|   |   |   |   |   |   |   |   |   |   |   |   |   rfc > 6.398299
|   |   |   |   |   |   |   |   |   |   |   |   |   |   dit <= 4.026815
|   |   |   |   |   |   |   |   |   |   |   |   |   |   |   cbo <= 6.205038: NO (4.0)
|   |   |   |   |   |   |   |   |   |   |   |   |   |   |   cbo > 6.205038
|   |   |   |   |   |   |   |   |   |   |   |   |   |   |   |   mfa <= 0.944472: YES (9.0/1.0)
|   |   |   |   |   |   |   |   |   |   |   |   |   |   |   |   mfa > 0.944472
|   |   |   |   |   |   |   |   |   |   |   |   |   |   |   |   |   dit <= 3.020111
|   |   |   |   |   |   |   |   |   |   |   |   |   |   |   |   |   |   lcom3 <= 0.126722: YES (2.0)
|   |   |   |   |   |   |   |   |   |   |   |   |   |   |   |   |   |   lcom3 > 0.126722: NO (47.0/15.0)
|   |   |   |   |   |   |   |   |   |   |   |   |   |   |   |   |   dit > 3.020111: YES (2.0)
|   |   |   |   |   |   |   |   |   |   |   |   |   |   dit > 4.026815: YES (4.0)
|   |   |   |   |   |   |   |   |   |   |   |   noc > 0: YES (5.0)
|   |   |   |   |   |   |   |   |   |   |   ce > 9.593058: YES (6.0)
|   |   |   |   |   |   |   |   |   moa > 0
|   |   |   |   |   |   |   |   |   |   wmc <= 4.563765
|   |   |   |   |   |   |   |   |   |   |   mfa <= 1.004123: NO (19.0/1.0)
|   |   |   |   |   |   |   |   |   |   |   mfa > 1.004123
|   |   |   |   |   |   |   |   |   |   |   |   wmc <= 1.521255: NO (3.0/1.0)
|   |   |   |   |   |   |   |   |   |   |   |   wmc > 1.521255: YES (3.0)
|   |   |   |   |   |   |   |   |   |   wmc > 4.563765: YES (5.0/1.0)
|   |   |   |   |   |   |   |   rfc > 13.50752
|   |   |   |   |   |   |   |   |   cam <= 0.754105: YES (42.0/1.0)
|   |   |   |   |   |   |   |   |   cam > 0.754105: NO (10.0/3.0)
|   |   |   |   |   lcom > 21.28359
|   |   |   |   |   |   npm <= 2.317706: YES (32.0/1.0)
|   |   |   |   |   |   npm > 2.317706
|   |   |   |   |   |   |   dit <= 3.020111
|   |   |   |   |   |   |   |   max_cc <= 0.983556
|   |   |   |   |   |   |   |   |   noc <= 0
|   |   |   |   |   |   |   |   |   |   max_cc <= 0.491778
|   |   |   |   |   |   |   |   |   |   |   moa <= 0
|   |   |   |   |   |   |   |   |   |   |   |   lcom <= 79.458737
|   |   |   |   |   |   |   |   |   |   |   |   |   npm <= 9.270823
|   |   |   |   |   |   |   |   |   |   |   |   |   |   ce <= 9.593058
|   |   |   |   |   |   |   |   |   |   |   |   |   |   |   ce <= 2.398265: YES (36.0/14.0)
|   |   |   |   |   |   |   |   |   |   |   |   |   |   |   ce > 2.398265
|   |   |   |   |   |   |   |   |   |   |   |   |   |   |   |   dit <= 2.013407
|   |   |   |   |   |   |   |   |   |   |   |   |   |   |   |   |   ic <= 0: NO (34.0/11.0)
|   |   |   |   |   |   |   |   |   |   |   |   |   |   |   |   |   ic > 0: YES (9.0/3.0)
|   |   |   |   |   |   |   |   |   |   |   |   |   |   |   |   dit > 2.013407: NO (3.0)
|   |   |   |   |   |   |   |   |   |   |   |   |   |   ce > 9.593058: YES (5.0)
|   |   |   |   |   |   |   |   |   |   |   |   |   npm > 9.270823: NO (6.0)
|   |   |   |   |   |   |   |   |   |   |   |   lcom > 79.458737
|   |   |   |   |   |   |   |   |   |   |   |   |   cam <= 0.192223
|   |   |   |   |   |   |   |   |   |   |   |   |   |   amc <= 0.597971: NO (4.0)
|   |   |   |   |   |   |   |   |   |   |   |   |   |   amc > 0.597971: YES (3.0/1.0)
|   |   |   |   |   |   |   |   |   |   |   |   |   cam > 0.192223: YES (24.0/3.0)
|   |   |   |   |   |   |   |   |   |   |   moa > 0
|   |   |   |   |   |   |   |   |   |   |   |   wmc <= 8.366902: NO (6.0)
|   |   |   |   |   |   |   |   |   |   |   |   wmc > 8.366902
|   |   |   |   |   |   |   |   |   |   |   |   |   moa <= 0.850693
|   |   |   |   |   |   |   |   |   |   |   |   |   |   cbm <= 1.008224: YES (6.0)
|   |   |   |   |   |   |   |   |   |   |   |   |   |   cbm > 1.008224: NO (3.0/1.0)
|   |   |   |   |   |   |   |   |   |   |   |   |   moa > 0.850693
|   |   |   |   |   |   |   |   |   |   |   |   |   |   rfc <= 22.749507: NO (3.0)
|   |   |   |   |   |   |   |   |   |   |   |   |   |   rfc > 22.749507: YES (3.0/1.0)
|   |   |   |   |   |   |   |   |   |   max_cc > 0.491778
|   |   |   |   |   |   |   |   |   |   |   ca <= 7.14742: YES (13.0/2.0)
|   |   |   |   |   |   |   |   |   |   |   ca > 7.14742: NO (2.0)
|   |   |   |   |   |   |   |   |   noc > 0
|   |   |   |   |   |   |   |   |   |   cbo <= 34.127711
|   |   |   |   |   |   |   |   |   |   |   dam <= 1.083706: YES (3.0)
|   |   |   |   |   |   |   |   |   |   |   dam > 1.083706
|   |   |   |   |   |   |   |   |   |   |   |   lcom3 <= 0.810261: YES (5.0)
|   |   |   |   |   |   |   |   |   |   |   |   lcom3 > 0.810261
|   |   |   |   |   |   |   |   |   |   |   |   |   cam <= 0.248983: YES (3.0)
|   |   |   |   |   |   |   |   |   |   |   |   |   cam > 0.248983: NO (6.0)
|   |   |   |   |   |   |   |   |   |   cbo > 34.127711: YES (15.0)
|   |   |   |   |   |   |   |   max_cc > 0.983556
|   |   |   |   |   |   |   |   |   lcom3 <= 0.696972: NO (26.0/4.0)
|   |   |   |   |   |   |   |   |   lcom3 > 0.696972
|   |   |   |   |   |   |   |   |   |   lcom3 <= 0.774414: YES (15.0/3.0)
|   |   |   |   |   |   |   |   |   |   lcom3 > 0.774414
|   |   |   |   |   |   |   |   |   |   |   rfc <= 19.194896
|   |   |   |   |   |   |   |   |   |   |   |   moa <= 0: YES (11.0/2.0)
|   |   |   |   |   |   |   |   |   |   |   |   moa > 0
|   |   |   |   |   |   |   |   |   |   |   |   |   cbo <= 16.546769: NO (10.0/2.0)
|   |   |   |   |   |   |   |   |   |   |   |   |   cbo > 16.546769: YES (4.0)
|   |   |   |   |   |   |   |   |   |   |   rfc > 19.194896
|   |   |   |   |   |   |   |   |   |   |   |   ca <= 50.031941
|   |   |   |   |   |   |   |   |   |   |   |   |   dam <= 0.898491: NO (11.0)
|   |   |   |   |   |   |   |   |   |   |   |   |   dam > 0.898491
|   |   |   |   |   |   |   |   |   |   |   |   |   |   mfa <= 0.480453
|   |   |   |   |   |   |   |   |   |   |   |   |   |   |   max_cc <= 2.950669: NO (5.0)
|   |   |   |   |   |   |   |   |   |   |   |   |   |   |   max_cc > 2.950669
|   |   |   |   |   |   |   |   |   |   |   |   |   |   |   |   lcom3 <= 0.850849: NO (4.0)
|   |   |   |   |   |   |   |   |   |   |   |   |   |   |   |   lcom3 > 0.850849: YES (4.0/1.0)
|   |   |   |   |   |   |   |   |   |   |   |   |   |   mfa > 0.480453: YES (2.0)
|   |   |   |   |   |   |   |   |   |   |   |   ca > 50.031941: YES (2.0)
|   |   |   |   |   |   |   dit > 3.020111
|   |   |   |   |   |   |   |   cbo <= 11.375904
|   |   |   |   |   |   |   |   |   dit <= 4.026815: NO (16.0)
|   |   |   |   |   |   |   |   |   dit > 4.026815: YES (3.0/1.0)
|   |   |   |   |   |   |   |   cbo > 11.375904: YES (2.0)
|   |   |   |   loc > 106.877455
|   |   |   |   |   dit <= 2.013407
|   |   |   |   |   |   dit <= 1.006704: YES (382.0/109.0)
|   |   |   |   |   |   dit > 1.006704
|   |   |   |   |   |   |   npm <= 2.317706
|   |   |   |   |   |   |   |   cbo <= 7.239211: YES (3.0/1.0)
|   |   |   |   |   |   |   |   cbo > 7.239211: NO (16.0/3.0)
|   |   |   |   |   |   |   npm > 2.317706
|   |   |   |   |   |   |   |   ic <= 0
|   |   |   |   |   |   |   |   |   noc <= 0.966877: YES (35.0/7.0)
|   |   |   |   |   |   |   |   |   noc > 0.966877
|   |   |   |   |   |   |   |   |   |   dam <= 0.985187: YES (3.0/1.0)
|   |   |   |   |   |   |   |   |   |   dam > 0.985187: NO (2.0)
|   |   |   |   |   |   |   |   ic > 0
|   |   |   |   |   |   |   |   |   rfc <= 45.499014: YES (84.0/28.0)
|   |   |   |   |   |   |   |   |   rfc > 45.499014: NO (8.0/1.0)
|   |   |   |   |   dit > 2.013407
|   |   |   |   |   |   avg_cc <= 0.58318: YES (12.0)
|   |   |   |   |   |   avg_cc > 0.58318
|   |   |   |   |   |   |   cam <= 0.465771
|   |   |   |   |   |   |   |   lcom3 <= 0.916868
|   |   |   |   |   |   |   |   |   cbo <= 15.512596
|   |   |   |   |   |   |   |   |   |   dit <= 4.026815: YES (62.0/18.0)
|   |   |   |   |   |   |   |   |   |   dit > 4.026815: NO (5.0/1.0)
|   |   |   |   |   |   |   |   |   cbo > 15.512596: NO (7.0/1.0)
|   |   |   |   |   |   |   |   lcom3 > 0.916868
|   |   |   |   |   |   |   |   |   ca <= 9.18954
|   |   |   |   |   |   |   |   |   |   max_cc <= 13.76979: NO (35.0/5.0)
|   |   |   |   |   |   |   |   |   |   max_cc > 13.76979: YES (2.0)
|   |   |   |   |   |   |   |   |   ca > 9.18954: YES (4.0)
|   |   |   |   |   |   |   cam > 0.465771: NO (13.0)
|   |   |   cbm > 1.512337
|   |   |   |   mfa <= 1.010823
|   |   |   |   |   dit <= 3.020111
|   |   |   |   |   |   cbm <= 2.016449
|   |   |   |   |   |   |   ce <= 3.597397
|   |   |   |   |   |   |   |   dit <= 2.013407
|   |   |   |   |   |   |   |   |   noc <= 0.966877
|   |   |   |   |   |   |   |   |   |   rfc <= 11.374753: YES (3.0)
|   |   |   |   |   |   |   |   |   |   rfc > 11.374753: NO (6.0/1.0)
|   |   |   |   |   |   |   |   |   noc > 0.966877: YES (2.0)
|   |   |   |   |   |   |   |   dit > 2.013407: NO (7.0/2.0)
|   |   |   |   |   |   |   ce > 3.597397
|   |   |   |   |   |   |   |   avg_cc <= 1.563438: YES (152.0/5.0)
|   |   |   |   |   |   |   |   avg_cc > 1.563438
|   |   |   |   |   |   |   |   |   noc <= 0
|   |   |   |   |   |   |   |   |   |   moa <= 0
|   |   |   |   |   |   |   |   |   |   |   wmc <= 6.845647: YES (2.0)
|   |   |   |   |   |   |   |   |   |   |   wmc > 6.845647: NO (3.0/1.0)
|   |   |   |   |   |   |   |   |   |   moa > 0: NO (8.0/2.0)
|   |   |   |   |   |   |   |   |   noc > 0: YES (3.0)
|   |   |   |   |   |   cbm > 2.016449: YES (526.0/188.0)
|   |   |   |   |   dit > 3.020111
|   |   |   |   |   |   ce <= 5.995662
|   |   |   |   |   |   |   cbo <= 4.136692
|   |   |   |   |   |   |   |   dam <= 0.373334: YES (4.0)
|   |   |   |   |   |   |   |   dam > 0.373334
|   |   |   |   |   |   |   |   |   npm <= 8.498254: NO (13.0)
|   |   |   |   |   |   |   |   |   npm > 8.498254: YES (3.0/1.0)
|   |   |   |   |   |   |   cbo > 4.136692: NO (23.0)
|   |   |   |   |   |   ce > 5.995662
|   |   |   |   |   |   |   cam <= 0.621027
|   |   |   |   |   |   |   |   rfc <= 18.483974: YES (19.0)
|   |   |   |   |   |   |   |   rfc > 18.483974
|   |   |   |   |   |   |   |   |   max_cc <= 5.40956
|   |   |   |   |   |   |   |   |   |   noc <= 0
|   |   |   |   |   |   |   |   |   |   |   dit <= 4.026815
|   |   |   |   |   |   |   |   |   |   |   |   dam <= 0.985187: YES (2.0)
|   |   |   |   |   |   |   |   |   |   |   |   dam > 0.985187
|   |   |   |   |   |   |   |   |   |   |   |   |   mfa <= 0.82161: YES (9.0/2.0)
|   |   |   |   |   |   |   |   |   |   |   |   |   mfa > 0.82161: NO (7.0/1.0)
|   |   |   |   |   |   |   |   |   |   |   dit > 4.026815
|   |   |   |   |   |   |   |   |   |   |   |   mfa <= 0.940351: NO (9.0/1.0)
|   |   |   |   |   |   |   |   |   |   |   |   mfa > 0.940351: YES (9.0/2.0)
|   |   |   |   |   |   |   |   |   |   noc > 0: YES (5.0/1.0)
|   |   |   |   |   |   |   |   |   max_cc > 5.40956: YES (7.0)
|   |   |   |   |   |   |   cam > 0.621027: NO (10.0/1.0)
|   |   |   |   mfa > 1.010823: YES (68.0/1.0)
|   |   amc > 76.061973: YES (70.0/1.0)
|   ce > 16.787852
|   |   cbm <= 1.512337
|   |   |   lcom <= 426.38126
|   |   |   |   dit <= 3.020111
|   |   |   |   |   ic <= 0.762882
|   |   |   |   |   |   cbm <= 0.504112
|   |   |   |   |   |   |   moa <= 0
|   |   |   |   |   |   |   |   max_cc <= 2.458891
|   |   |   |   |   |   |   |   |   lcom <= 1.418906: NO (8.0)
|   |   |   |   |   |   |   |   |   lcom > 1.418906
|   |   |   |   |   |   |   |   |   |   mfa <= 0.20023
|   |   |   |   |   |   |   |   |   |   |   loc <= 103.20469: NO (7.0)
|   |   |   |   |   |   |   |   |   |   |   loc > 103.20469
|   |   |   |   |   |   |   |   |   |   |   |   loc <= 156.45978: YES (5.0)
|   |   |   |   |   |   |   |   |   |   |   |   loc > 156.45978
|   |   |   |   |   |   |   |   |   |   |   |   |   wmc <= 3.803137: YES (3.0/1.0)
|   |   |   |   |   |   |   |   |   |   |   |   |   wmc > 3.803137: NO (7.0/1.0)
|   |   |   |   |   |   |   |   |   |   mfa > 0.20023: YES (6.0)
|   |   |   |   |   |   |   |   max_cc > 2.458891: YES (51.0/13.0)
|   |   |   |   |   |   |   moa > 0
|   |   |   |   |   |   |   |   noc <= 0
|   |   |   |   |   |   |   |   |   ic <= 0
|   |   |   |   |   |   |   |   |   |   ca <= 8.16848: YES (75.0/16.0)
|   |   |   |   |   |   |   |   |   |   ca > 8.16848
|   |   |   |   |   |   |   |   |   |   |   loc <= 343.770784
|   |   |   |   |   |   |   |   |   |   |   |   lcom3 <= 0.853708
|   |   |   |   |   |   |   |   |   |   |   |   |   loc <= 167.845351: YES (3.0/1.0)
|   |   |   |   |   |   |   |   |   |   |   |   |   loc > 167.845351: NO (4.0/1.0)
|   |   |   |   |   |   |   |   |   |   |   |   lcom3 > 0.853708: YES (5.0)
|   |   |   |   |   |   |   |   |   |   |   loc > 343.770784: NO (5.0)
|   |   |   |   |   |   |   |   |   ic > 0
|   |   |   |   |   |   |   |   |   |   dam <= 1.108335: YES (5.0)
|   |   |   |   |   |   |   |   |   |   dam > 1.108335
|   |   |   |   |   |   |   |   |   |   |   mfa <= 0.476482: NO (3.0)
|   |   |   |   |   |   |   |   |   |   |   mfa > 0.476482: YES (12.0/2.0)
|   |   |   |   |   |   |   |   noc > 0: YES (9.0/1.0)
|   |   |   |   |   |   cbm > 0.504112
|   |   |   |   |   |   |   wmc <= 9.12753
|   |   |   |   |   |   |   |   loc <= 202.736616: YES (7.0/1.0)
|   |   |   |   |   |   |   |   loc > 202.736616: NO (2.0)
|   |   |   |   |   |   |   wmc > 9.12753: YES (16.0)
|   |   |   |   |   ic > 0.762882
|   |   |   |   |   |   ic <= 1.525765
|   |   |   |   |   |   |   cbm <= 1.008224
|   |   |   |   |   |   |   |   dam <= 1.087646: YES (3.0/1.0)
|   |   |   |   |   |   |   |   dam > 1.087646: NO (4.0)
|   |   |   |   |   |   |   cbm > 1.008224: YES (7.0/2.0)
|   |   |   |   |   |   ic > 1.525765: NO (2.0)
|   |   |   |   dit > 3.020111
|   |   |   |   |   cbo <= 22.751807
|   |   |   |   |   |   dam <= 0.147778: YES (2.0)
|   |   |   |   |   |   dam > 0.147778: NO (13.0)
|   |   |   |   |   cbo > 22.751807: YES (5.0)
|   |   |   lcom > 426.38126: YES (67.0/4.0)
|   |   cbm > 1.512337: YES (131.0/2.0)

Number of Leaves  : 	326

Size of the tree : 	651


Correctly Classified Instances        1556               55.8908 %
Incorrectly Classified Instances      1228               44.1092 %
Kappa statistic                          0.0833
Mean absolute error                      0.4551
Root mean squared error                  0.5608
Relative absolute error                141.1624 %
Root relative squared error            139.7124 %
Coverage of cases (0.95 level)          89.8707 %
Mean rel. region size (0.95 level)      89.7809 %
Total Number of Instances             2784     

=== Confusion Matrix ===

    a    b   <-- classified as
 1237  985 |    a = NO
  243  319 |    b = YES

=== Detailed Accuracy By Class ===

                 TP Rate  FP Rate  Precision  Recall   F-Measure  MCC      ROC Area  PRC Area  Class
                 0.557    0.432    0.836      0.557    0.668      0.100    0.553     0.815     NO
                 0.568    0.443    0.245      0.568    0.342      0.100    0.553     0.229     YES
Weighted Avg.    0.559    0.435    0.716      0.559    0.602      0.100    0.553     0.696     

