Classifier...: weka.classifiers.trees.J48 -C 0.25 -M 2
Training file: C:\Users\HP\Desktop\AbdulAli\Baseline\Configuration3\dataK=12\3tr.csv

Testing file: C:\Users\HP\Desktop\AbdulAli\Baseline\Configuration3\dataK=12\3test.csv

J48 pruned tree
------------------

loc <= 160.279542
|   ce <= 0
|   |   amc <= 30.684279: NO (1669.0/308.0)
|   |   amc > 30.684279
|   |   |   dit <= 1.650303: NO (20.0/2.0)
|   |   |   dit > 1.650303
|   |   |   |   loc <= 123.291956: YES (35.0)
|   |   |   |   loc > 123.291956: NO (5.0/1.0)
|   ce > 0
|   |   cbm <= 3.267913
|   |   |   cam <= 0.447253
|   |   |   |   dit <= 1.650303
|   |   |   |   |   noc <= 6.591069
|   |   |   |   |   |   ce <= 4.618278
|   |   |   |   |   |   |   cbm <= 2.614331
|   |   |   |   |   |   |   |   cbm <= 0.653583
|   |   |   |   |   |   |   |   |   max_cc <= 3.850689
|   |   |   |   |   |   |   |   |   |   lcom3 <= 0.804035
|   |   |   |   |   |   |   |   |   |   |   noc <= 0
|   |   |   |   |   |   |   |   |   |   |   |   cbo <= 11.079369
|   |   |   |   |   |   |   |   |   |   |   |   |   moa <= 0.87727
|   |   |   |   |   |   |   |   |   |   |   |   |   |   wmc <= 8.200031
|   |   |   |   |   |   |   |   |   |   |   |   |   |   |   npm <= 7.554508
|   |   |   |   |   |   |   |   |   |   |   |   |   |   |   |   moa <= 0
|   |   |   |   |   |   |   |   |   |   |   |   |   |   |   |   |   dit <= 0.825151
|   |   |   |   |   |   |   |   |   |   |   |   |   |   |   |   |   |   max_cc <= 1.540276
|   |   |   |   |   |   |   |   |   |   |   |   |   |   |   |   |   |   |   ca <= 0.945619: NO (15.0/3.0)
|   |   |   |   |   |   |   |   |   |   |   |   |   |   |   |   |   |   |   ca > 0.945619: YES (9.0/2.0)
|   |   |   |   |   |   |   |   |   |   |   |   |   |   |   |   |   |   max_cc > 1.540276: NO (5.0)
|   |   |   |   |   |   |   |   |   |   |   |   |   |   |   |   |   dit > 0.825151
|   |   |   |   |   |   |   |   |   |   |   |   |   |   |   |   |   |   ca <= 0: YES (2.0)
|   |   |   |   |   |   |   |   |   |   |   |   |   |   |   |   |   |   ca > 0: NO (18.0/4.0)
|   |   |   |   |   |   |   |   |   |   |   |   |   |   |   |   moa > 0: NO (72.0/27.0)
|   |   |   |   |   |   |   |   |   |   |   |   |   |   |   npm > 7.554508: YES (7.0/1.0)
|   |   |   |   |   |   |   |   |   |   |   |   |   |   wmc > 8.200031: NO (56.0/11.0)
|   |   |   |   |   |   |   |   |   |   |   |   |   moa > 0.87727
|   |   |   |   |   |   |   |   |   |   |   |   |   |   max_cc <= 3.080551
|   |   |   |   |   |   |   |   |   |   |   |   |   |   |   mfa <= 0.577459
|   |   |   |   |   |   |   |   |   |   |   |   |   |   |   |   dit <= 0.825151: YES (22.0/9.0)
|   |   |   |   |   |   |   |   |   |   |   |   |   |   |   |   dit > 0.825151: NO (3.0)
|   |   |   |   |   |   |   |   |   |   |   |   |   |   |   mfa > 0.577459: YES (3.0)
|   |   |   |   |   |   |   |   |   |   |   |   |   |   max_cc > 3.080551: NO (3.0)
|   |   |   |   |   |   |   |   |   |   |   |   cbo > 11.079369: NO (18.0/1.0)
|   |   |   |   |   |   |   |   |   |   |   noc > 0
|   |   |   |   |   |   |   |   |   |   |   |   npm <= 9.443134: NO (18.0/1.0)
|   |   |   |   |   |   |   |   |   |   |   |   npm > 9.443134: YES (2.0)
|   |   |   |   |   |   |   |   |   |   lcom3 > 0.804035
|   |   |   |   |   |   |   |   |   |   |   dit <= 0.825151
|   |   |   |   |   |   |   |   |   |   |   |   moa <= 0
|   |   |   |   |   |   |   |   |   |   |   |   |   max_cc <= 2.310413
|   |   |   |   |   |   |   |   |   |   |   |   |   |   ce <= 2.309139: NO (125.0/51.0)
|   |   |   |   |   |   |   |   |   |   |   |   |   |   ce > 2.309139
|   |   |   |   |   |   |   |   |   |   |   |   |   |   |   noc <= 1.098511
|   |   |   |   |   |   |   |   |   |   |   |   |   |   |   |   dam <= 0.303559
|   |   |   |   |   |   |   |   |   |   |   |   |   |   |   |   |   max_cc <= 1.540276
|   |   |   |   |   |   |   |   |   |   |   |   |   |   |   |   |   |   ce <= 3.463709
|   |   |   |   |   |   |   |   |   |   |   |   |   |   |   |   |   |   |   loc <= 5.650881: NO (2.0)
|   |   |   |   |   |   |   |   |   |   |   |   |   |   |   |   |   |   |   loc > 5.650881
|   |   |   |   |   |   |   |   |   |   |   |   |   |   |   |   |   |   |   |   wmc <= 19.133407: YES (6.0)
|   |   |   |   |   |   |   |   |   |   |   |   |   |   |   |   |   |   |   |   wmc > 19.133407: NO (3.0/1.0)
|   |   |   |   |   |   |   |   |   |   |   |   |   |   |   |   |   |   ce > 3.463709
|   |   |   |   |   |   |   |   |   |   |   |   |   |   |   |   |   |   |   amc <= 15.616833
|   |   |   |   |   |   |   |   |   |   |   |   |   |   |   |   |   |   |   |   lcom3 <= 0.953049: YES (2.0)
|   |   |   |   |   |   |   |   |   |   |   |   |   |   |   |   |   |   |   |   lcom3 > 0.953049: NO (21.0/8.0)
|   |   |   |   |   |   |   |   |   |   |   |   |   |   |   |   |   |   |   amc > 15.616833: YES (3.0)
|   |   |   |   |   |   |   |   |   |   |   |   |   |   |   |   |   max_cc > 1.540276: NO (2.0)
|   |   |   |   |   |   |   |   |   |   |   |   |   |   |   |   dam > 0.303559: YES (3.0/1.0)
|   |   |   |   |   |   |   |   |   |   |   |   |   |   |   noc > 1.098511: YES (6.0/1.0)
|   |   |   |   |   |   |   |   |   |   |   |   |   max_cc > 2.310413: YES (13.0/4.0)
|   |   |   |   |   |   |   |   |   |   |   |   moa > 0
|   |   |   |   |   |   |   |   |   |   |   |   |   ca <= 9.456188
|   |   |   |   |   |   |   |   |   |   |   |   |   |   ce <= 3.463709
|   |   |   |   |   |   |   |   |   |   |   |   |   |   |   moa <= 1.75454
|   |   |   |   |   |   |   |   |   |   |   |   |   |   |   |   rfc <= 10.997052: YES (2.0)
|   |   |   |   |   |   |   |   |   |   |   |   |   |   |   |   rfc > 10.997052: NO (9.0/3.0)
|   |   |   |   |   |   |   |   |   |   |   |   |   |   |   moa > 1.75454: YES (6.0/1.0)
|   |   |   |   |   |   |   |   |   |   |   |   |   |   ce > 3.463709: NO (2.0)
|   |   |   |   |   |   |   |   |   |   |   |   |   ca > 9.456188: YES (8.0)
|   |   |   |   |   |   |   |   |   |   |   dit > 0.825151
|   |   |   |   |   |   |   |   |   |   |   |   moa <= 0: YES (5.0)
|   |   |   |   |   |   |   |   |   |   |   |   moa > 0
|   |   |   |   |   |   |   |   |   |   |   |   |   ca <= 0.945619: YES (2.0)
|   |   |   |   |   |   |   |   |   |   |   |   |   ca > 0.945619: NO (5.0/1.0)
|   |   |   |   |   |   |   |   |   max_cc > 3.850689
|   |   |   |   |   |   |   |   |   |   dam <= 1.011864
|   |   |   |   |   |   |   |   |   |   |   ca <= 0: NO (2.0)
|   |   |   |   |   |   |   |   |   |   |   ca > 0
|   |   |   |   |   |   |   |   |   |   |   |   noc <= 0: YES (23.0/4.0)
|   |   |   |   |   |   |   |   |   |   |   |   noc > 0
|   |   |   |   |   |   |   |   |   |   |   |   |   cbo <= 9.064938: NO (2.0)
|   |   |   |   |   |   |   |   |   |   |   |   |   cbo > 9.064938: YES (4.0/1.0)
|   |   |   |   |   |   |   |   |   |   dam > 1.011864
|   |   |   |   |   |   |   |   |   |   |   noc <= 1.098511
|   |   |   |   |   |   |   |   |   |   |   |   lcom3 <= 0.291708: YES (4.0/1.0)
|   |   |   |   |   |   |   |   |   |   |   |   lcom3 > 0.291708
|   |   |   |   |   |   |   |   |   |   |   |   |   moa <= 0
|   |   |   |   |   |   |   |   |   |   |   |   |   |   lcom <= 2.072: NO (12.0/3.0)
|   |   |   |   |   |   |   |   |   |   |   |   |   |   lcom > 2.072: YES (7.0/1.0)
|   |   |   |   |   |   |   |   |   |   |   |   |   moa > 0: NO (7.0/2.0)
|   |   |   |   |   |   |   |   |   |   |   noc > 1.098511: NO (3.0)
|   |   |   |   |   |   |   |   cbm > 0.653583
|   |   |   |   |   |   |   |   |   cam <= 0.33544: YES (10.0)
|   |   |   |   |   |   |   |   |   cam > 0.33544
|   |   |   |   |   |   |   |   |   |   max_cc <= 0.770138: NO (9.0/2.0)
|   |   |   |   |   |   |   |   |   |   max_cc > 0.770138
|   |   |   |   |   |   |   |   |   |   |   lcom3 <= 0.408391: YES (6.0)
|   |   |   |   |   |   |   |   |   |   |   lcom3 > 0.408391
|   |   |   |   |   |   |   |   |   |   |   |   ce <= 3.463709
|   |   |   |   |   |   |   |   |   |   |   |   |   moa <= 0: YES (4.0/1.0)
|   |   |   |   |   |   |   |   |   |   |   |   |   moa > 0: NO (7.0/2.0)
|   |   |   |   |   |   |   |   |   |   |   |   ce > 3.463709: NO (2.0)
|   |   |   |   |   |   |   cbm > 2.614331: NO (26.0/6.0)
|   |   |   |   |   |   ce > 4.618278
|   |   |   |   |   |   |   ce <= 13.854835
|   |   |   |   |   |   |   |   npm <= 2.83294: NO (82.0/38.0)
|   |   |   |   |   |   |   |   npm > 2.83294
|   |   |   |   |   |   |   |   |   lcom3 <= 0.976762
|   |   |   |   |   |   |   |   |   |   moa <= 0
|   |   |   |   |   |   |   |   |   |   |   noc <= 2.197023
|   |   |   |   |   |   |   |   |   |   |   |   dit <= 0.825151
|   |   |   |   |   |   |   |   |   |   |   |   |   avg_cc <= 0.718951: YES (4.0)
|   |   |   |   |   |   |   |   |   |   |   |   |   avg_cc > 0.718951: NO (25.0/6.0)
|   |   |   |   |   |   |   |   |   |   |   |   dit > 0.825151
|   |   |   |   |   |   |   |   |   |   |   |   |   lcom <= 0.690667: NO (9.0/2.0)
|   |   |   |   |   |   |   |   |   |   |   |   |   lcom > 0.690667: YES (26.0/7.0)
|   |   |   |   |   |   |   |   |   |   |   noc > 2.197023: YES (4.0)
|   |   |   |   |   |   |   |   |   |   moa > 0
|   |   |   |   |   |   |   |   |   |   |   cbo <= 7.050507
|   |   |   |   |   |   |   |   |   |   |   |   moa <= 1.75454
|   |   |   |   |   |   |   |   |   |   |   |   |   lcom3 <= 0.735458: YES (20.0/5.0)
|   |   |   |   |   |   |   |   |   |   |   |   |   lcom3 > 0.735458: NO (6.0)
|   |   |   |   |   |   |   |   |   |   |   |   moa > 1.75454
|   |   |   |   |   |   |   |   |   |   |   |   |   dam <= 0.971389: YES (3.0/1.0)
|   |   |   |   |   |   |   |   |   |   |   |   |   dam > 0.971389: NO (7.0)
|   |   |   |   |   |   |   |   |   |   |   cbo > 7.050507
|   |   |   |   |   |   |   |   |   |   |   |   moa <= 3.509081: YES (92.0/23.0)
|   |   |   |   |   |   |   |   |   |   |   |   moa > 3.509081: NO (6.0/2.0)
|   |   |   |   |   |   |   |   |   lcom3 > 0.976762
|   |   |   |   |   |   |   |   |   |   rfc <= 6.767417: NO (2.0)
|   |   |   |   |   |   |   |   |   |   rfc > 6.767417: YES (53.0/5.0)
|   |   |   |   |   |   |   ce > 13.854835
|   |   |   |   |   |   |   |   moa <= 0: NO (38.0/7.0)
|   |   |   |   |   |   |   |   moa > 0
|   |   |   |   |   |   |   |   |   rfc <= 19.456323: NO (2.0)
|   |   |   |   |   |   |   |   |   rfc > 19.456323: YES (17.0/2.0)
|   |   |   |   |   noc > 6.591069: NO (33.0/8.0)
|   |   |   |   dit > 1.650303
|   |   |   |   |   mfa <= 0.768807
|   |   |   |   |   |   dit <= 3.300606
|   |   |   |   |   |   |   rfc <= 34.68301
|   |   |   |   |   |   |   |   dam <= 0.424983
|   |   |   |   |   |   |   |   |   noc <= 0: NO (69.0/26.0)
|   |   |   |   |   |   |   |   |   noc > 0: YES (14.0/5.0)
|   |   |   |   |   |   |   |   dam > 0.424983
|   |   |   |   |   |   |   |   |   max_cc <= 4.620827
|   |   |   |   |   |   |   |   |   |   cbm <= 1.960748
|   |   |   |   |   |   |   |   |   |   |   cam <= 0.300603
|   |   |   |   |   |   |   |   |   |   |   |   lcom <= 39.367998
|   |   |   |   |   |   |   |   |   |   |   |   |   amc <= 13.56511: NO (53.0/11.0)
|   |   |   |   |   |   |   |   |   |   |   |   |   amc > 13.56511: YES (3.0)
|   |   |   |   |   |   |   |   |   |   |   |   lcom > 39.367998: YES (10.0/3.0)
|   |   |   |   |   |   |   |   |   |   |   cam > 0.300603: NO (128.0/17.0)
|   |   |   |   |   |   |   |   |   |   cbm > 1.960748
|   |   |   |   |   |   |   |   |   |   |   ic <= 0.658299
|   |   |   |   |   |   |   |   |   |   |   |   moa <= 0: YES (4.0/1.0)
|   |   |   |   |   |   |   |   |   |   |   |   moa > 0
|   |   |   |   |   |   |   |   |   |   |   |   |   lcom3 <= 0.555634: NO (12.0/2.0)
|   |   |   |   |   |   |   |   |   |   |   |   |   lcom3 > 0.555634: YES (2.0)
|   |   |   |   |   |   |   |   |   |   |   ic > 0.658299
|   |   |   |   |   |   |   |   |   |   |   |   ca <= 0.945619: NO (18.0/3.0)
|   |   |   |   |   |   |   |   |   |   |   |   ca > 0.945619
|   |   |   |   |   |   |   |   |   |   |   |   |   npm <= 5.665881: YES (3.0)
|   |   |   |   |   |   |   |   |   |   |   |   |   npm > 5.665881
|   |   |   |   |   |   |   |   |   |   |   |   |   |   moa <= 0
|   |   |   |   |   |   |   |   |   |   |   |   |   |   |   cbo <= 8.057723: NO (4.0/1.0)
|   |   |   |   |   |   |   |   |   |   |   |   |   |   |   cbo > 8.057723: YES (3.0)
|   |   |   |   |   |   |   |   |   |   |   |   |   |   moa > 0: NO (6.0/1.0)
|   |   |   |   |   |   |   |   |   max_cc > 4.620827
|   |   |   |   |   |   |   |   |   |   max_cc <= 6.161103: NO (4.0)
|   |   |   |   |   |   |   |   |   |   max_cc > 6.161103
|   |   |   |   |   |   |   |   |   |   |   lcom3 <= 0.564992
|   |   |   |   |   |   |   |   |   |   |   |   rfc <= 29.607448: NO (2.0)
|   |   |   |   |   |   |   |   |   |   |   |   rfc > 29.607448: YES (5.0/2.0)
|   |   |   |   |   |   |   |   |   |   |   lcom3 > 0.564992: YES (5.0)
|   |   |   |   |   |   |   rfc > 34.68301
|   |   |   |   |   |   |   |   dit <= 2.475454
|   |   |   |   |   |   |   |   |   ce <= 26.555101: YES (34.0/14.0)
|   |   |   |   |   |   |   |   |   ce > 26.555101: NO (3.0)
|   |   |   |   |   |   |   |   dit > 2.475454
|   |   |   |   |   |   |   |   |   cbo <= 7.050507: NO (16.0/4.0)
|   |   |   |   |   |   |   |   |   cbo > 7.050507: YES (7.0/1.0)
|   |   |   |   |   |   dit > 3.300606
|   |   |   |   |   |   |   wmc <= 14.577834: NO (67.0/9.0)
|   |   |   |   |   |   |   wmc > 14.577834: YES (2.0)
|   |   |   |   |   mfa > 0.768807
|   |   |   |   |   |   moa <= 0
|   |   |   |   |   |   |   cbo <= 12.086584
|   |   |   |   |   |   |   |   noc <= 1.098511
|   |   |   |   |   |   |   |   |   dam <= 1.062457
|   |   |   |   |   |   |   |   |   |   ca <= 0: NO (3.0/1.0)
|   |   |   |   |   |   |   |   |   |   ca > 0: YES (10.0)
|   |   |   |   |   |   |   |   |   dam > 1.062457
|   |   |   |   |   |   |   |   |   |   amc <= 2.964946: NO (12.0/3.0)
|   |   |   |   |   |   |   |   |   |   amc > 2.964946
|   |   |   |   |   |   |   |   |   |   |   max_cc <= 6.93124: YES (7.0/1.0)
|   |   |   |   |   |   |   |   |   |   |   max_cc > 6.93124: NO (3.0/1.0)
|   |   |   |   |   |   |   |   noc > 1.098511: NO (4.0/1.0)
|   |   |   |   |   |   |   cbo > 12.086584: NO (3.0)
|   |   |   |   |   |   moa > 0
|   |   |   |   |   |   |   cbo <= 10.072153
|   |   |   |   |   |   |   |   cbo <= 9.064938
|   |   |   |   |   |   |   |   |   dam <= 0.303559: NO (2.0)
|   |   |   |   |   |   |   |   |   dam > 0.303559: YES (16.0/4.0)
|   |   |   |   |   |   |   |   cbo > 9.064938: NO (5.0/1.0)
|   |   |   |   |   |   |   cbo > 10.072153: YES (20.0/2.0)
|   |   |   cam > 0.447253
|   |   |   |   dam <= 1.169265
|   |   |   |   |   npm <= 2.83294
|   |   |   |   |   |   dam <= 0.319536
|   |   |   |   |   |   |   moa <= 0.87727
|   |   |   |   |   |   |   |   npm <= 0
|   |   |   |   |   |   |   |   |   ce <= 5.772848: NO (55.0/4.0)
|   |   |   |   |   |   |   |   |   ce > 5.772848: YES (5.0)
|   |   |   |   |   |   |   |   npm > 0
|   |   |   |   |   |   |   |   |   dit <= 0.825151
|   |   |   |   |   |   |   |   |   |   cbo <= 10.072153
|   |   |   |   |   |   |   |   |   |   |   lcom <= 0
|   |   |   |   |   |   |   |   |   |   |   |   moa <= 0: NO (124.0/38.0)
|   |   |   |   |   |   |   |   |   |   |   |   moa > 0
|   |   |   |   |   |   |   |   |   |   |   |   |   loc <= 9.246897: YES (3.0)
|   |   |   |   |   |   |   |   |   |   |   |   |   loc > 9.246897: NO (9.0/2.0)
|   |   |   |   |   |   |   |   |   |   |   lcom > 0
|   |   |   |   |   |   |   |   |   |   |   |   noc <= 0
|   |   |   |   |   |   |   |   |   |   |   |   |   ce <= 2.309139
|   |   |   |   |   |   |   |   |   |   |   |   |   |   wmc <= 2.733344: NO (95.0/36.0)
|   |   |   |   |   |   |   |   |   |   |   |   |   |   wmc > 2.733344
|   |   |   |   |   |   |   |   |   |   |   |   |   |   |   npm <= 1.888627: YES (3.0)
|   |   |   |   |   |   |   |   |   |   |   |   |   |   |   npm > 1.888627: NO (3.0/1.0)
|   |   |   |   |   |   |   |   |   |   |   |   |   ce > 2.309139
|   |   |   |   |   |   |   |   |   |   |   |   |   |   cam <= 0.686409: YES (44.0/16.0)
|   |   |   |   |   |   |   |   |   |   |   |   |   |   cam > 0.686409: NO (6.0)
|   |   |   |   |   |   |   |   |   |   |   |   noc > 0
|   |   |   |   |   |   |   |   |   |   |   |   |   noc <= 2.197023: NO (5.0)
|   |   |   |   |   |   |   |   |   |   |   |   |   noc > 2.197023
|   |   |   |   |   |   |   |   |   |   |   |   |   |   noc <= 3.295534: YES (2.0)
|   |   |   |   |   |   |   |   |   |   |   |   |   |   noc > 3.295534: NO (3.0/1.0)
|   |   |   |   |   |   |   |   |   |   cbo > 10.072153: NO (41.0/7.0)
|   |   |   |   |   |   |   |   |   dit > 0.825151
|   |   |   |   |   |   |   |   |   |   lcom3 <= 1.649846
|   |   |   |   |   |   |   |   |   |   |   lcom3 <= 1.20017
|   |   |   |   |   |   |   |   |   |   |   |   mfa <= 0.776214: NO (33.0/2.0)
|   |   |   |   |   |   |   |   |   |   |   |   mfa > 0.776214
|   |   |   |   |   |   |   |   |   |   |   |   |   cbo <= 3.021646: NO (3.0)
|   |   |   |   |   |   |   |   |   |   |   |   |   cbo > 3.021646: YES (11.0/4.0)
|   |   |   |   |   |   |   |   |   |   |   lcom3 > 1.20017: YES (25.0/3.0)
|   |   |   |   |   |   |   |   |   |   lcom3 > 1.649846
|   |   |   |   |   |   |   |   |   |   |   ic <= 0
|   |   |   |   |   |   |   |   |   |   |   |   npm <= 1.888627
|   |   |   |   |   |   |   |   |   |   |   |   |   cbo <= 10.072153
|   |   |   |   |   |   |   |   |   |   |   |   |   |   ca <= 2.836856
|   |   |   |   |   |   |   |   |   |   |   |   |   |   |   ca <= 0.945619
|   |   |   |   |   |   |   |   |   |   |   |   |   |   |   |   ce <= 1.15457
|   |   |   |   |   |   |   |   |   |   |   |   |   |   |   |   |   cam <= 0.80754: YES (3.0)
|   |   |   |   |   |   |   |   |   |   |   |   |   |   |   |   |   cam > 0.80754: NO (54.0/17.0)
|   |   |   |   |   |   |   |   |   |   |   |   |   |   |   |   ce > 1.15457: NO (67.0/9.0)
|   |   |   |   |   |   |   |   |   |   |   |   |   |   |   ca > 0.945619
|   |   |   |   |   |   |   |   |   |   |   |   |   |   |   |   loc <= 2.054866: NO (6.0)
|   |   |   |   |   |   |   |   |   |   |   |   |   |   |   |   loc > 2.054866
|   |   |   |   |   |   |   |   |   |   |   |   |   |   |   |   |   max_cc <= 0: YES (16.0/4.0)
|   |   |   |   |   |   |   |   |   |   |   |   |   |   |   |   |   max_cc > 0: NO (8.0/2.0)
|   |   |   |   |   |   |   |   |   |   |   |   |   |   ca > 2.836856: NO (8.0)
|   |   |   |   |   |   |   |   |   |   |   |   |   cbo > 10.072153: YES (9.0/3.0)
|   |   |   |   |   |   |   |   |   |   |   |   npm > 1.888627
|   |   |   |   |   |   |   |   |   |   |   |   |   dit <= 2.475454
|   |   |   |   |   |   |   |   |   |   |   |   |   |   mfa <= 0.75387: NO (9.0/1.0)
|   |   |   |   |   |   |   |   |   |   |   |   |   |   mfa > 0.75387: YES (10.0/2.0)
|   |   |   |   |   |   |   |   |   |   |   |   |   dit > 2.475454: NO (32.0/14.0)
|   |   |   |   |   |   |   |   |   |   |   ic > 0: NO (261.0/58.0)
|   |   |   |   |   |   |   moa > 0.87727: NO (31.0/14.0)
|   |   |   |   |   |   dam > 0.319536
|   |   |   |   |   |   |   mfa <= 0.755411
|   |   |   |   |   |   |   |   ca <= 2.836856
|   |   |   |   |   |   |   |   |   mfa <= 0.635715
|   |   |   |   |   |   |   |   |   |   avg_cc <= 1.595513
|   |   |   |   |   |   |   |   |   |   |   avg_cc <= 0.507643: YES (2.0)
|   |   |   |   |   |   |   |   |   |   |   avg_cc > 0.507643: NO (14.0/3.0)
|   |   |   |   |   |   |   |   |   |   avg_cc > 1.595513: YES (3.0)
|   |   |   |   |   |   |   |   |   mfa > 0.635715: NO (11.0)
|   |   |   |   |   |   |   |   ca > 2.836856: YES (8.0/1.0)
|   |   |   |   |   |   |   mfa > 0.755411: YES (7.0)
|   |   |   |   |   npm > 2.83294
|   |   |   |   |   |   avg_cc <= 2.399231
|   |   |   |   |   |   |   amc <= 10.987739
|   |   |   |   |   |   |   |   max_cc <= 3.080551
|   |   |   |   |   |   |   |   |   moa <= 0
|   |   |   |   |   |   |   |   |   |   amc <= 5.919321
|   |   |   |   |   |   |   |   |   |   |   ca <= 1.891238
|   |   |   |   |   |   |   |   |   |   |   |   ca <= 0.945619
|   |   |   |   |   |   |   |   |   |   |   |   |   ic <= 0
|   |   |   |   |   |   |   |   |   |   |   |   |   |   lcom3 <= 1.45264: YES (6.0/2.0)
|   |   |   |   |   |   |   |   |   |   |   |   |   |   lcom3 > 1.45264
|   |   |   |   |   |   |   |   |   |   |   |   |   |   |   ca <= 0: YES (32.0/13.0)
|   |   |   |   |   |   |   |   |   |   |   |   |   |   |   ca > 0: NO (53.0/23.0)
|   |   |   |   |   |   |   |   |   |   |   |   |   ic > 0: NO (47.0/19.0)
|   |   |   |   |   |   |   |   |   |   |   |   ca > 0.945619: YES (14.0/5.0)
|   |   |   |   |   |   |   |   |   |   |   ca > 1.891238
|   |   |   |   |   |   |   |   |   |   |   |   lcom3 <= 1.516881
|   |   |   |   |   |   |   |   |   |   |   |   |   cam <= 0.686409: YES (14.0/2.0)
|   |   |   |   |   |   |   |   |   |   |   |   |   cam > 0.686409: NO (3.0)
|   |   |   |   |   |   |   |   |   |   |   |   lcom3 > 1.516881: NO (65.0/18.0)
|   |   |   |   |   |   |   |   |   |   amc > 5.919321: NO (20.0/1.0)
|   |   |   |   |   |   |   |   |   moa > 0
|   |   |   |   |   |   |   |   |   |   ce <= 4.618278
|   |   |   |   |   |   |   |   |   |   |   max_cc <= 1.540276
|   |   |   |   |   |   |   |   |   |   |   |   dam <= 0.121424
|   |   |   |   |   |   |   |   |   |   |   |   |   max_cc <= 0: YES (4.0/1.0)
|   |   |   |   |   |   |   |   |   |   |   |   |   max_cc > 0: NO (9.0/1.0)
|   |   |   |   |   |   |   |   |   |   |   |   dam > 0.121424: YES (3.0/1.0)
|   |   |   |   |   |   |   |   |   |   |   max_cc > 1.540276: YES (9.0)
|   |   |   |   |   |   |   |   |   |   ce > 4.618278: NO (11.0/1.0)
|   |   |   |   |   |   |   |   max_cc > 3.080551: NO (16.0/3.0)
|   |   |   |   |   |   |   amc > 10.987739
|   |   |   |   |   |   |   |   ic <= 1.316597
|   |   |   |   |   |   |   |   |   dam <= 0.07589
|   |   |   |   |   |   |   |   |   |   noc <= 1.098511: YES (21.0/4.0)
|   |   |   |   |   |   |   |   |   |   noc > 1.098511
|   |   |   |   |   |   |   |   |   |   |   cbo <= 55.396843: NO (2.0)
|   |   |   |   |   |   |   |   |   |   |   cbo > 55.396843: YES (2.0)
|   |   |   |   |   |   |   |   |   dam > 0.07589
|   |   |   |   |   |   |   |   |   |   ce <= 3.463709: NO (7.0/1.0)
|   |   |   |   |   |   |   |   |   |   ce > 3.463709: YES (2.0)
|   |   |   |   |   |   |   |   ic > 1.316597: YES (4.0)
|   |   |   |   |   |   avg_cc > 2.399231: YES (22.0/4.0)
|   |   |   |   dam > 1.169265
|   |   |   |   |   ce <= 6.927418
|   |   |   |   |   |   lcom3 <= 0.753687
|   |   |   |   |   |   |   noc <= 1.098511: NO (406.0/69.0)
|   |   |   |   |   |   |   noc > 1.098511
|   |   |   |   |   |   |   |   npm <= 6.610194
|   |   |   |   |   |   |   |   |   avg_cc <= 1.59795: NO (37.0/4.0)
|   |   |   |   |   |   |   |   |   avg_cc > 1.59795: YES (2.0)
|   |   |   |   |   |   |   |   npm > 6.610194: YES (5.0/1.0)
|   |   |   |   |   |   lcom3 > 0.753687
|   |   |   |   |   |   |   cbo <= 9.064938
|   |   |   |   |   |   |   |   cbm <= 1.307165
|   |   |   |   |   |   |   |   |   max_cc <= 3.080551: NO (41.0/10.0)
|   |   |   |   |   |   |   |   |   max_cc > 3.080551: YES (8.0/1.0)
|   |   |   |   |   |   |   |   cbm > 1.307165: NO (13.0)
|   |   |   |   |   |   |   cbo > 9.064938: YES (8.0/1.0)
|   |   |   |   |   ce > 6.927418
|   |   |   |   |   |   ce <= 12.700266
|   |   |   |   |   |   |   ca <= 0: NO (29.0/2.0)
|   |   |   |   |   |   |   ca > 0
|   |   |   |   |   |   |   |   noc <= 0
|   |   |   |   |   |   |   |   |   ce <= 11.545696
|   |   |   |   |   |   |   |   |   |   max_cc <= 2.310413
|   |   |   |   |   |   |   |   |   |   |   rfc <= 19.456323: NO (15.0/5.0)
|   |   |   |   |   |   |   |   |   |   |   rfc > 19.456323: YES (4.0/1.0)
|   |   |   |   |   |   |   |   |   |   max_cc > 2.310413: YES (11.0/3.0)
|   |   |   |   |   |   |   |   |   ce > 11.545696: NO (3.0/1.0)
|   |   |   |   |   |   |   |   noc > 0: NO (5.0/1.0)
|   |   |   |   |   |   ce > 12.700266: YES (4.0)
|   |   cbm > 3.267913
|   |   |   dam <= 1.048659
|   |   |   |   lcom3 <= 1.516881
|   |   |   |   |   lcom3 <= 0.522741
|   |   |   |   |   |   ce <= 4.618278: NO (7.0)
|   |   |   |   |   |   ce > 4.618278: YES (19.0/6.0)
|   |   |   |   |   lcom3 > 0.522741: YES (115.0/10.0)
|   |   |   |   lcom3 > 1.516881
|   |   |   |   |   ca <= 0.945619
|   |   |   |   |   |   cbm <= 5.882244
|   |   |   |   |   |   |   max_cc <= 0.770138: NO (172.0/80.0)
|   |   |   |   |   |   |   max_cc > 0.770138
|   |   |   |   |   |   |   |   ic <= 0.658299: NO (6.0/2.0)
|   |   |   |   |   |   |   |   ic > 0.658299: YES (6.0)
|   |   |   |   |   |   cbm > 5.882244: NO (26.0/6.0)
|   |   |   |   |   ca > 0.945619: YES (37.0/11.0)
|   |   |   dam > 1.048659
|   |   |   |   rfc <= 27.915594: NO (167.0/55.0)
|   |   |   |   rfc > 27.915594
|   |   |   |   |   lcom <= 33.842665: YES (55.0/19.0)
|   |   |   |   |   lcom > 33.842665: NO (8.0)
loc > 160.279542
|   amc <= 117.609506
|   |   ce <= 0
|   |   |   mfa <= 0.749826
|   |   |   |   noc <= 0
|   |   |   |   |   rfc <= 138.732042
|   |   |   |   |   |   ic <= 0.658299
|   |   |   |   |   |   |   dit <= 0.825151
|   |   |   |   |   |   |   |   max_cc <= 5.390965: NO (93.0/18.0)
|   |   |   |   |   |   |   |   max_cc > 5.390965
|   |   |   |   |   |   |   |   |   wmc <= 12.755604
|   |   |   |   |   |   |   |   |   |   cbo <= 8.057723: NO (28.0/2.0)
|   |   |   |   |   |   |   |   |   |   cbo > 8.057723
|   |   |   |   |   |   |   |   |   |   |   moa <= 0: YES (3.0)
|   |   |   |   |   |   |   |   |   |   |   moa > 0
|   |   |   |   |   |   |   |   |   |   |   |   cbo <= 16.115445: NO (4.0)
|   |   |   |   |   |   |   |   |   |   |   |   cbo > 16.115445: YES (2.0)
|   |   |   |   |   |   |   |   |   wmc > 12.755604
|   |   |   |   |   |   |   |   |   |   wmc <= 22.777865: YES (49.0/21.0)
|   |   |   |   |   |   |   |   |   |   wmc > 22.777865: NO (26.0/5.0)
|   |   |   |   |   |   |   dit > 0.825151
|   |   |   |   |   |   |   |   ic <= 0: NO (24.0/3.0)
|   |   |   |   |   |   |   |   ic > 0
|   |   |   |   |   |   |   |   |   dam <= 0.734189: NO (7.0)
|   |   |   |   |   |   |   |   |   dam > 0.734189
|   |   |   |   |   |   |   |   |   |   dam <= 1.022515: YES (4.0/1.0)
|   |   |   |   |   |   |   |   |   |   dam > 1.022515
|   |   |   |   |   |   |   |   |   |   |   loc <= 275.352034: NO (9.0)
|   |   |   |   |   |   |   |   |   |   |   loc > 275.352034
|   |   |   |   |   |   |   |   |   |   |   |   dit <= 1.650303
|   |   |   |   |   |   |   |   |   |   |   |   |   wmc <= 10.022261: YES (4.0)
|   |   |   |   |   |   |   |   |   |   |   |   |   wmc > 10.022261
|   |   |   |   |   |   |   |   |   |   |   |   |   |   avg_cc <= 1.894198: NO (12.0)
|   |   |   |   |   |   |   |   |   |   |   |   |   |   avg_cc > 1.894198: YES (4.0/1.0)
|   |   |   |   |   |   |   |   |   |   |   |   dit > 1.650303: YES (3.0)
|   |   |   |   |   |   ic > 0.658299: NO (22.0/3.0)
|   |   |   |   |   rfc > 138.732042
|   |   |   |   |   |   avg_cc <= 1.128164: NO (5.0/1.0)
|   |   |   |   |   |   avg_cc > 1.128164: YES (13.0/1.0)
|   |   |   |   noc > 0
|   |   |   |   |   lcom <= 439.954647
|   |   |   |   |   |   ca <= 2.836856
|   |   |   |   |   |   |   lcom3 <= 0.818577: NO (8.0)
|   |   |   |   |   |   |   lcom3 > 0.818577: YES (5.0/1.0)
|   |   |   |   |   |   ca > 2.836856
|   |   |   |   |   |   |   loc <= 195.72598: NO (2.0)
|   |   |   |   |   |   |   loc > 195.72598: YES (26.0/4.0)
|   |   |   |   |   lcom > 439.954647: NO (8.0)
|   |   |   mfa > 0.749826: YES (19.0)
|   |   ce > 0
|   |   |   cbm <= 5.882244
|   |   |   |   wmc <= 38.266813
|   |   |   |   |   rfc <= 13.534833
|   |   |   |   |   |   amc <= 110.386085
|   |   |   |   |   |   |   cam <= 0.339167: YES (35.0)
|   |   |   |   |   |   |   cam > 0.339167
|   |   |   |   |   |   |   |   cam <= 0.375753: NO (5.0/1.0)
|   |   |   |   |   |   |   |   cam > 0.375753: YES (74.0/17.0)
|   |   |   |   |   |   amc > 110.386085: NO (10.0/1.0)
|   |   |   |   |   rfc > 13.534833
|   |   |   |   |   |   cbo <= 15.10823
|   |   |   |   |   |   |   rfc <= 39.758573
|   |   |   |   |   |   |   |   dit <= 1.650303
|   |   |   |   |   |   |   |   |   ce <= 2.309139
|   |   |   |   |   |   |   |   |   |   npm <= 1.888627: NO (26.0/3.0)
|   |   |   |   |   |   |   |   |   |   npm > 1.888627
|   |   |   |   |   |   |   |   |   |   |   lcom3 <= 0.207437: NO (7.0)
|   |   |   |   |   |   |   |   |   |   |   lcom3 > 0.207437
|   |   |   |   |   |   |   |   |   |   |   |   ce <= 1.15457
|   |   |   |   |   |   |   |   |   |   |   |   |   moa <= 0
|   |   |   |   |   |   |   |   |   |   |   |   |   |   dam <= 0.055193: NO (3.0/1.0)
|   |   |   |   |   |   |   |   |   |   |   |   |   |   dam > 0.055193: YES (7.0)
|   |   |   |   |   |   |   |   |   |   |   |   |   moa > 0: NO (14.0/5.0)
|   |   |   |   |   |   |   |   |   |   |   |   ce > 1.15457
|   |   |   |   |   |   |   |   |   |   |   |   |   dam <= 0.578208
|   |   |   |   |   |   |   |   |   |   |   |   |   |   rfc <= 22.840031: NO (5.0/2.0)
|   |   |   |   |   |   |   |   |   |   |   |   |   |   rfc > 22.840031: YES (5.0)
|   |   |   |   |   |   |   |   |   |   |   |   |   dam > 0.578208
|   |   |   |   |   |   |   |   |   |   |   |   |   |   loc <= 258.913107: NO (12.0/2.0)
|   |   |   |   |   |   |   |   |   |   |   |   |   |   loc > 258.913107: YES (7.0/2.0)
|   |   |   |   |   |   |   |   |   ce > 2.309139
|   |   |   |   |   |   |   |   |   |   ic <= 0
|   |   |   |   |   |   |   |   |   |   |   moa <= 0
|   |   |   |   |   |   |   |   |   |   |   |   ce <= 10.391126
|   |   |   |   |   |   |   |   |   |   |   |   |   cam <= 0.337699: NO (36.0/15.0)
|   |   |   |   |   |   |   |   |   |   |   |   |   cam > 0.337699: YES (4.0)
|   |   |   |   |   |   |   |   |   |   |   |   ce > 10.391126: NO (5.0)
|   |   |   |   |   |   |   |   |   |   |   moa > 0
|   |   |   |   |   |   |   |   |   |   |   |   dit <= 0.825151: YES (70.0/24.0)
|   |   |   |   |   |   |   |   |   |   |   |   dit > 0.825151
|   |   |   |   |   |   |   |   |   |   |   |   |   npm <= 8.498821
|   |   |   |   |   |   |   |   |   |   |   |   |   |   cbo <= 7.050507
|   |   |   |   |   |   |   |   |   |   |   |   |   |   |   cbo <= 4.028861: NO (2.0)
|   |   |   |   |   |   |   |   |   |   |   |   |   |   |   cbo > 4.028861: YES (4.0/1.0)
|   |   |   |   |   |   |   |   |   |   |   |   |   |   cbo > 7.050507: NO (5.0)
|   |   |   |   |   |   |   |   |   |   |   |   |   npm > 8.498821: YES (2.0)
|   |   |   |   |   |   |   |   |   |   ic > 0
|   |   |   |   |   |   |   |   |   |   |   noc <= 0
|   |   |   |   |   |   |   |   |   |   |   |   wmc <= 6.377802: NO (3.0)
|   |   |   |   |   |   |   |   |   |   |   |   wmc > 6.377802
|   |   |   |   |   |   |   |   |   |   |   |   |   dam <= 0.823946: YES (9.0)
|   |   |   |   |   |   |   |   |   |   |   |   |   dam > 0.823946
|   |   |   |   |   |   |   |   |   |   |   |   |   |   dam <= 1.079321: NO (2.0)
|   |   |   |   |   |   |   |   |   |   |   |   |   |   dam > 1.079321
|   |   |   |   |   |   |   |   |   |   |   |   |   |   |   ic <= 0.658299: YES (14.0/3.0)
|   |   |   |   |   |   |   |   |   |   |   |   |   |   |   ic > 0.658299: NO (4.0/1.0)
|   |   |   |   |   |   |   |   |   |   |   noc > 0: YES (5.0)
|   |   |   |   |   |   |   |   dit > 1.650303
|   |   |   |   |   |   |   |   |   ic <= 0.658299: NO (60.0/12.0)
|   |   |   |   |   |   |   |   |   ic > 0.658299
|   |   |   |   |   |   |   |   |   |   moa <= 1.75454
|   |   |   |   |   |   |   |   |   |   |   rfc <= 27.069667: NO (5.0)
|   |   |   |   |   |   |   |   |   |   |   rfc > 27.069667
|   |   |   |   |   |   |   |   |   |   |   |   lcom <= 6.216: YES (7.0)
|   |   |   |   |   |   |   |   |   |   |   |   lcom > 6.216
|   |   |   |   |   |   |   |   |   |   |   |   |   dit <= 2.475454
|   |   |   |   |   |   |   |   |   |   |   |   |   |   rfc <= 33.837083: NO (6.0/1.0)
|   |   |   |   |   |   |   |   |   |   |   |   |   |   rfc > 33.837083: YES (4.0/1.0)
|   |   |   |   |   |   |   |   |   |   |   |   |   dit > 2.475454: NO (4.0/1.0)
|   |   |   |   |   |   |   |   |   |   moa > 1.75454: NO (3.0)
|   |   |   |   |   |   |   rfc > 39.758573
|   |   |   |   |   |   |   |   npm <= 5.665881
|   |   |   |   |   |   |   |   |   noc <= 0
|   |   |   |   |   |   |   |   |   |   mfa <= 0.730032: YES (84.0/14.0)
|   |   |   |   |   |   |   |   |   |   mfa > 0.730032: NO (7.0/2.0)
|   |   |   |   |   |   |   |   |   noc > 0
|   |   |   |   |   |   |   |   |   |   lcom3 <= 0.773443: NO (8.0/2.0)
|   |   |   |   |   |   |   |   |   |   lcom3 > 0.773443: YES (3.0)
|   |   |   |   |   |   |   |   npm > 5.665881
|   |   |   |   |   |   |   |   |   noc <= 0
|   |   |   |   |   |   |   |   |   |   cam <= 0.227649
|   |   |   |   |   |   |   |   |   |   |   max_cc <= 12.322205
|   |   |   |   |   |   |   |   |   |   |   |   amc <= 28.079778
|   |   |   |   |   |   |   |   |   |   |   |   |   lcom <= 85.642663
|   |   |   |   |   |   |   |   |   |   |   |   |   |   dam <= 0.067458: NO (7.0/2.0)
|   |   |   |   |   |   |   |   |   |   |   |   |   |   dam > 0.067458
|   |   |   |   |   |   |   |   |   |   |   |   |   |   |   cbm <= 0.653583
|   |   |   |   |   |   |   |   |   |   |   |   |   |   |   |   cbo <= 13.093799
|   |   |   |   |   |   |   |   |   |   |   |   |   |   |   |   |   ic <= 0
|   |   |   |   |   |   |   |   |   |   |   |   |   |   |   |   |   |   rfc <= 78.671219: YES (26.0/1.0)
|   |   |   |   |   |   |   |   |   |   |   |   |   |   |   |   |   |   rfc > 78.671219
|   |   |   |   |   |   |   |   |   |   |   |   |   |   |   |   |   |   |   ca <= 0.945619: YES (2.0)
|   |   |   |   |   |   |   |   |   |   |   |   |   |   |   |   |   |   |   ca > 0.945619: NO (2.0)
|   |   |   |   |   |   |   |   |   |   |   |   |   |   |   |   |   ic > 0
|   |   |   |   |   |   |   |   |   |   |   |   |   |   |   |   |   |   cbo <= 7.050507: NO (2.0)
|   |   |   |   |   |   |   |   |   |   |   |   |   |   |   |   |   |   cbo > 7.050507: YES (5.0/1.0)
|   |   |   |   |   |   |   |   |   |   |   |   |   |   |   |   cbo > 13.093799: NO (2.0)
|   |   |   |   |   |   |   |   |   |   |   |   |   |   |   cbm > 0.653583: YES (15.0)
|   |   |   |   |   |   |   |   |   |   |   |   |   lcom > 85.642663
|   |   |   |   |   |   |   |   |   |   |   |   |   |   lcom <= 103.599995: NO (6.0)
|   |   |   |   |   |   |   |   |   |   |   |   |   |   lcom > 103.599995
|   |   |   |   |   |   |   |   |   |   |   |   |   |   |   cbo <= 7.050507
|   |   |   |   |   |   |   |   |   |   |   |   |   |   |   |   cbo <= 2.014431: YES (2.0)
|   |   |   |   |   |   |   |   |   |   |   |   |   |   |   |   cbo > 2.014431: NO (19.0/5.0)
|   |   |   |   |   |   |   |   |   |   |   |   |   |   |   cbo > 7.050507
|   |   |   |   |   |   |   |   |   |   |   |   |   |   |   |   wmc <= 34.622355
|   |   |   |   |   |   |   |   |   |   |   |   |   |   |   |   |   max_cc <= 4.620827: YES (15.0/1.0)
|   |   |   |   |   |   |   |   |   |   |   |   |   |   |   |   |   max_cc > 4.620827
|   |   |   |   |   |   |   |   |   |   |   |   |   |   |   |   |   |   wmc <= 21.86675: NO (4.0)
|   |   |   |   |   |   |   |   |   |   |   |   |   |   |   |   |   |   wmc > 21.86675
|   |   |   |   |   |   |   |   |   |   |   |   |   |   |   |   |   |   |   wmc <= 25.511209: YES (5.0)
|   |   |   |   |   |   |   |   |   |   |   |   |   |   |   |   |   |   |   wmc > 25.511209
|   |   |   |   |   |   |   |   |   |   |   |   |   |   |   |   |   |   |   |   wmc <= 29.155667: NO (2.0)
|   |   |   |   |   |   |   |   |   |   |   |   |   |   |   |   |   |   |   |   wmc > 29.155667: YES (8.0/3.0)
|   |   |   |   |   |   |   |   |   |   |   |   |   |   |   |   wmc > 34.622355: NO (6.0/1.0)
|   |   |   |   |   |   |   |   |   |   |   |   amc > 28.079778: NO (8.0)
|   |   |   |   |   |   |   |   |   |   |   max_cc > 12.322205: YES (18.0/2.0)
|   |   |   |   |   |   |   |   |   |   cam > 0.227649: NO (141.0/59.0)
|   |   |   |   |   |   |   |   |   noc > 0
|   |   |   |   |   |   |   |   |   |   noc <= 1.098511: YES (26.0/8.0)
|   |   |   |   |   |   |   |   |   |   noc > 1.098511
|   |   |   |   |   |   |   |   |   |   |   avg_cc <= 1.305443: YES (6.0)
|   |   |   |   |   |   |   |   |   |   |   avg_cc > 1.305443: NO (7.0/2.0)
|   |   |   |   |   |   cbo > 15.10823
|   |   |   |   |   |   |   npm <= 3.777254: YES (42.0/7.0)
|   |   |   |   |   |   |   npm > 3.777254
|   |   |   |   |   |   |   |   dit <= 1.650303
|   |   |   |   |   |   |   |   |   noc <= 0
|   |   |   |   |   |   |   |   |   |   cbo <= 66.476212: YES (159.0/44.0)
|   |   |   |   |   |   |   |   |   |   cbo > 66.476212: NO (8.0/2.0)
|   |   |   |   |   |   |   |   |   noc > 0
|   |   |   |   |   |   |   |   |   |   max_cc <= 5.390965: YES (21.0/5.0)
|   |   |   |   |   |   |   |   |   |   max_cc > 5.390965
|   |   |   |   |   |   |   |   |   |   |   ca <= 6.619332
|   |   |   |   |   |   |   |   |   |   |   |   dam <= 1.022515: NO (3.0)
|   |   |   |   |   |   |   |   |   |   |   |   dam > 1.022515: YES (3.0)
|   |   |   |   |   |   |   |   |   |   |   ca > 6.619332: NO (7.0)
|   |   |   |   |   |   |   |   dit > 1.650303
|   |   |   |   |   |   |   |   |   amc <= 7.544288
|   |   |   |   |   |   |   |   |   |   cbm <= 2.614331
|   |   |   |   |   |   |   |   |   |   |   ca <= 114.419874: NO (26.0/4.0)
|   |   |   |   |   |   |   |   |   |   |   ca > 114.419874: YES (3.0)
|   |   |   |   |   |   |   |   |   |   cbm > 2.614331: YES (2.0)
|   |   |   |   |   |   |   |   |   amc > 7.544288: YES (183.0/64.0)
|   |   |   |   wmc > 38.266813
|   |   |   |   |   noc <= 0
|   |   |   |   |   |   cbo <= 10.072153
|   |   |   |   |   |   |   ce <= 4.618278
|   |   |   |   |   |   |   |   lcom <= 315.634653: NO (2.0)
|   |   |   |   |   |   |   |   lcom > 315.634653
|   |   |   |   |   |   |   |   |   ca <= 4.728094
|   |   |   |   |   |   |   |   |   |   cbo <= 3.021646: YES (6.0/1.0)
|   |   |   |   |   |   |   |   |   |   cbo > 3.021646: NO (4.0/1.0)
|   |   |   |   |   |   |   |   |   ca > 4.728094: YES (3.0)
|   |   |   |   |   |   |   ce > 4.618278: NO (4.0)
|   |   |   |   |   |   cbo > 10.072153: YES (118.0/24.0)
|   |   |   |   |   noc > 0
|   |   |   |   |   |   amc <= 7.986459
|   |   |   |   |   |   |   npm <= 37.772538: NO (6.0/1.0)
|   |   |   |   |   |   |   npm > 37.772538: YES (30.0/4.0)
|   |   |   |   |   |   amc > 7.986459: YES (26.0)
|   |   |   cbm > 5.882244: YES (144.0/20.0)
|   amc > 117.609506
|   |   amc <= 430.454862
|   |   |   dit <= 1.650303
|   |   |   |   amc <= 181.704652: YES (9.0)
|   |   |   |   amc > 181.704652: NO (3.0)
|   |   |   dit > 1.650303
|   |   |   |   amc <= 138.940642
|   |   |   |   |   dit <= 2.475454: NO (2.0)
|   |   |   |   |   dit > 2.475454: YES (10.0/1.0)
|   |   |   |   amc > 138.940642: YES (120.0/1.0)
|   |   amc > 430.454862: NO (13.0/2.0)

Number of Leaves  : 	304

Size of the tree : 	607


Correctly Classified Instances        2677               55.6896 %
Incorrectly Classified Instances      2130               44.3104 %
Kappa statistic                          0.1168
Mean absolute error                      0.4618
Root mean squared error                  0.5839
Relative absolute error                110.2033 %
Root relative squared error            127.5824 %
Coverage of cases (0.95 level)          86.8525 %
Mean rel. region size (0.95 level)      86.9877 %
Total Number of Instances             4807     

=== Confusion Matrix ===

    a    b   <-- classified as
 1812 1559 |    a = NO
  571  865 |    b = YES

=== Detailed Accuracy By Class ===

                 TP Rate  FP Rate  Precision  Recall   F-Measure  MCC      ROC Area  PRC Area  Class
                 0.538    0.398    0.760      0.538    0.630      0.128    0.576     0.747     NO
                 0.602    0.462    0.357      0.602    0.448      0.128    0.576     0.340     YES
Weighted Avg.    0.557    0.417    0.640      0.557    0.576      0.128    0.576     0.625     

