Classifier...: weka.classifiers.trees.J48 -C 0.25 -M 2
Training file: C:\Users\HP\Desktop\AbdulAli\Baseline\Configuration3\dataK=10\3tr.csv

Testing file: C:\Users\HP\Desktop\AbdulAli\Baseline\Configuration3\dataK=10\3test.csv

J48 pruned tree
------------------

amc <= 4.626309
|   rfc <= 3.828641
|   |   cbo <= 0
|   |   |   amc <= 0.182322: NO (221.0/13.0)
|   |   |   amc > 0.182322
|   |   |   |   amc <= 4.258648
|   |   |   |   |   loc <= 5.669881: NO (161.0/46.0)
|   |   |   |   |   loc > 5.669881: YES (8.0/1.0)
|   |   |   |   amc > 4.258648
|   |   |   |   |   dam <= 0.342945: NO (8.0/1.0)
|   |   |   |   |   dam > 0.342945: YES (18.0)
|   |   cbo > 0
|   |   |   lcom3 <= 0.105361: NO (249.0/62.0)
|   |   |   lcom3 > 0.105361
|   |   |   |   cbm <= 1.791759
|   |   |   |   |   dit <= 1.098612
|   |   |   |   |   |   moa <= 0.693147
|   |   |   |   |   |   |   npm <= 1.609438
|   |   |   |   |   |   |   |   moa <= 0
|   |   |   |   |   |   |   |   |   rfc <= 3.688879
|   |   |   |   |   |   |   |   |   |   wmc <= 1.791759
|   |   |   |   |   |   |   |   |   |   |   dit <= 0.693147
|   |   |   |   |   |   |   |   |   |   |   |   ce <= 0.693147
|   |   |   |   |   |   |   |   |   |   |   |   |   dam <= 0.640037
|   |   |   |   |   |   |   |   |   |   |   |   |   |   lcom3 <= 0.847298
|   |   |   |   |   |   |   |   |   |   |   |   |   |   |   dam <= 0.17185
|   |   |   |   |   |   |   |   |   |   |   |   |   |   |   |   cam <= 0.473784
|   |   |   |   |   |   |   |   |   |   |   |   |   |   |   |   |   rfc <= 2.70805: NO (20.0/8.0)
|   |   |   |   |   |   |   |   |   |   |   |   |   |   |   |   |   rfc > 2.70805: YES (2.0)
|   |   |   |   |   |   |   |   |   |   |   |   |   |   |   |   cam > 0.473784: YES (7.0/1.0)
|   |   |   |   |   |   |   |   |   |   |   |   |   |   |   dam > 0.17185: YES (6.0)
|   |   |   |   |   |   |   |   |   |   |   |   |   |   lcom3 > 0.847298: NO (369.0/128.0)
|   |   |   |   |   |   |   |   |   |   |   |   |   dam > 0.640037
|   |   |   |   |   |   |   |   |   |   |   |   |   |   cam <= 0.650588: NO (37.0/4.0)
|   |   |   |   |   |   |   |   |   |   |   |   |   |   cam > 0.650588: YES (3.0)
|   |   |   |   |   |   |   |   |   |   |   |   ce > 0.693147
|   |   |   |   |   |   |   |   |   |   |   |   |   npm <= 1.386294
|   |   |   |   |   |   |   |   |   |   |   |   |   |   lcom3 <= 0.581922: NO (25.0/6.0)
|   |   |   |   |   |   |   |   |   |   |   |   |   |   lcom3 > 0.581922
|   |   |   |   |   |   |   |   |   |   |   |   |   |   |   lcom3 <= 0.799165: YES (11.0/2.0)
|   |   |   |   |   |   |   |   |   |   |   |   |   |   |   lcom3 > 0.799165
|   |   |   |   |   |   |   |   |   |   |   |   |   |   |   |   wmc <= 1.386294
|   |   |   |   |   |   |   |   |   |   |   |   |   |   |   |   |   cam <= 0.532805: YES (52.0/19.0)
|   |   |   |   |   |   |   |   |   |   |   |   |   |   |   |   |   cam > 0.532805
|   |   |   |   |   |   |   |   |   |   |   |   |   |   |   |   |   |   cam <= 0.619039: NO (17.0/3.0)
|   |   |   |   |   |   |   |   |   |   |   |   |   |   |   |   |   |   cam > 0.619039
|   |   |   |   |   |   |   |   |   |   |   |   |   |   |   |   |   |   |   wmc <= 0.693147: NO (35.0/13.0)
|   |   |   |   |   |   |   |   |   |   |   |   |   |   |   |   |   |   |   wmc > 0.693147: YES (4.0)
|   |   |   |   |   |   |   |   |   |   |   |   |   |   |   |   wmc > 1.386294: NO (13.0/2.0)
|   |   |   |   |   |   |   |   |   |   |   |   |   npm > 1.386294: YES (17.0/6.0)
|   |   |   |   |   |   |   |   |   |   |   dit > 0.693147
|   |   |   |   |   |   |   |   |   |   |   |   cbo <= 1.098612
|   |   |   |   |   |   |   |   |   |   |   |   |   noc <= 0
|   |   |   |   |   |   |   |   |   |   |   |   |   |   ic <= 0: YES (19.0/6.0)
|   |   |   |   |   |   |   |   |   |   |   |   |   |   ic > 0: NO (13.0/3.0)
|   |   |   |   |   |   |   |   |   |   |   |   |   noc > 0: YES (4.0)
|   |   |   |   |   |   |   |   |   |   |   |   cbo > 1.098612
|   |   |   |   |   |   |   |   |   |   |   |   |   ca <= 0.693147
|   |   |   |   |   |   |   |   |   |   |   |   |   |   cbo <= 1.609438
|   |   |   |   |   |   |   |   |   |   |   |   |   |   |   mfa <= 0.635388: NO (38.0/2.0)
|   |   |   |   |   |   |   |   |   |   |   |   |   |   |   mfa > 0.635388: YES (4.0)
|   |   |   |   |   |   |   |   |   |   |   |   |   |   cbo > 1.609438: NO (57.0/9.0)
|   |   |   |   |   |   |   |   |   |   |   |   |   ca > 0.693147
|   |   |   |   |   |   |   |   |   |   |   |   |   |   max_cc <= 1.098612
|   |   |   |   |   |   |   |   |   |   |   |   |   |   |   max_cc <= 0: YES (6.0/2.0)
|   |   |   |   |   |   |   |   |   |   |   |   |   |   |   max_cc > 0: NO (27.0/6.0)
|   |   |   |   |   |   |   |   |   |   |   |   |   |   max_cc > 1.098612: YES (10.0/1.0)
|   |   |   |   |   |   |   |   |   |   wmc > 1.791759
|   |   |   |   |   |   |   |   |   |   |   ic <= 0
|   |   |   |   |   |   |   |   |   |   |   |   cam <= 0.405465
|   |   |   |   |   |   |   |   |   |   |   |   |   max_cc <= 1.609438
|   |   |   |   |   |   |   |   |   |   |   |   |   |   cam <= 0.293547: NO (13.0/2.0)
|   |   |   |   |   |   |   |   |   |   |   |   |   |   cam > 0.293547: YES (65.0/30.0)
|   |   |   |   |   |   |   |   |   |   |   |   |   max_cc > 1.609438: YES (7.0/1.0)
|   |   |   |   |   |   |   |   |   |   |   |   cam > 0.405465: NO (6.0)
|   |   |   |   |   |   |   |   |   |   |   ic > 0: YES (6.0/1.0)
|   |   |   |   |   |   |   |   |   rfc > 3.688879: NO (25.0/3.0)
|   |   |   |   |   |   |   |   moa > 0
|   |   |   |   |   |   |   |   |   ic <= 0
|   |   |   |   |   |   |   |   |   |   noc <= 0
|   |   |   |   |   |   |   |   |   |   |   rfc <= 3.555348
|   |   |   |   |   |   |   |   |   |   |   |   npm <= 0
|   |   |   |   |   |   |   |   |   |   |   |   |   lcom3 <= 0.622111: YES (3.0/1.0)
|   |   |   |   |   |   |   |   |   |   |   |   |   lcom3 > 0.622111: NO (11.0/1.0)
|   |   |   |   |   |   |   |   |   |   |   |   npm > 0
|   |   |   |   |   |   |   |   |   |   |   |   |   dit <= 0.693147
|   |   |   |   |   |   |   |   |   |   |   |   |   |   lcom3 <= 0.312375
|   |   |   |   |   |   |   |   |   |   |   |   |   |   |   cbo <= 1.386294: YES (3.0/1.0)
|   |   |   |   |   |   |   |   |   |   |   |   |   |   |   cbo > 1.386294: NO (14.0/1.0)
|   |   |   |   |   |   |   |   |   |   |   |   |   |   lcom3 > 0.312375
|   |   |   |   |   |   |   |   |   |   |   |   |   |   |   ca <= 0: NO (47.0/19.0)
|   |   |   |   |   |   |   |   |   |   |   |   |   |   |   ca > 0: YES (39.0/14.0)
|   |   |   |   |   |   |   |   |   |   |   |   |   dit > 0.693147
|   |   |   |   |   |   |   |   |   |   |   |   |   |   mfa <= 0.534082: YES (11.0/4.0)
|   |   |   |   |   |   |   |   |   |   |   |   |   |   mfa > 0.534082: NO (3.0)
|   |   |   |   |   |   |   |   |   |   |   rfc > 3.555348: YES (9.0/1.0)
|   |   |   |   |   |   |   |   |   |   noc > 0
|   |   |   |   |   |   |   |   |   |   |   wmc <= 1.386294: YES (3.0)
|   |   |   |   |   |   |   |   |   |   |   wmc > 1.386294
|   |   |   |   |   |   |   |   |   |   |   |   noc <= 1.791759: NO (4.0/1.0)
|   |   |   |   |   |   |   |   |   |   |   |   noc > 1.791759: YES (3.0/1.0)
|   |   |   |   |   |   |   |   |   ic > 0
|   |   |   |   |   |   |   |   |   |   cbm <= 0.693147: NO (10.0)
|   |   |   |   |   |   |   |   |   |   cbm > 0.693147
|   |   |   |   |   |   |   |   |   |   |   ce <= 1.386294: YES (3.0)
|   |   |   |   |   |   |   |   |   |   |   ce > 1.386294
|   |   |   |   |   |   |   |   |   |   |   |   max_cc <= 2.564949: NO (7.0/2.0)
|   |   |   |   |   |   |   |   |   |   |   |   max_cc > 2.564949: YES (2.0)
|   |   |   |   |   |   |   npm > 1.609438
|   |   |   |   |   |   |   |   ce <= 1.609438
|   |   |   |   |   |   |   |   |   max_cc <= 1.609438
|   |   |   |   |   |   |   |   |   |   loc <= 5.950643
|   |   |   |   |   |   |   |   |   |   |   ic <= 0
|   |   |   |   |   |   |   |   |   |   |   |   dam <= 0.653926
|   |   |   |   |   |   |   |   |   |   |   |   |   moa <= 0
|   |   |   |   |   |   |   |   |   |   |   |   |   |   dam <= 0.488353: NO (207.0/87.0)
|   |   |   |   |   |   |   |   |   |   |   |   |   |   dam > 0.488353: YES (12.0/3.0)
|   |   |   |   |   |   |   |   |   |   |   |   |   moa > 0
|   |   |   |   |   |   |   |   |   |   |   |   |   |   lcom3 <= 0.518956: NO (6.0)
|   |   |   |   |   |   |   |   |   |   |   |   |   |   lcom3 > 0.518956: YES (20.0/6.0)
|   |   |   |   |   |   |   |   |   |   |   |   dam > 0.653926
|   |   |   |   |   |   |   |   |   |   |   |   |   noc <= 0.693147: NO (135.0/39.0)
|   |   |   |   |   |   |   |   |   |   |   |   |   noc > 0.693147
|   |   |   |   |   |   |   |   |   |   |   |   |   |   cam <= 0.367725: NO (8.0)
|   |   |   |   |   |   |   |   |   |   |   |   |   |   cam > 0.367725: YES (5.0)
|   |   |   |   |   |   |   |   |   |   |   ic > 0
|   |   |   |   |   |   |   |   |   |   |   |   ic <= 0.693147
|   |   |   |   |   |   |   |   |   |   |   |   |   moa <= 0
|   |   |   |   |   |   |   |   |   |   |   |   |   |   lcom <= 1.386294: YES (14.0/5.0)
|   |   |   |   |   |   |   |   |   |   |   |   |   |   lcom > 1.386294: NO (30.0/11.0)
|   |   |   |   |   |   |   |   |   |   |   |   |   moa > 0
|   |   |   |   |   |   |   |   |   |   |   |   |   |   rfc <= 2.890372: YES (4.0)
|   |   |   |   |   |   |   |   |   |   |   |   |   |   rfc > 2.890372
|   |   |   |   |   |   |   |   |   |   |   |   |   |   |   cam <= 0.263966: YES (3.0/1.0)
|   |   |   |   |   |   |   |   |   |   |   |   |   |   |   cam > 0.263966: NO (9.0/1.0)
|   |   |   |   |   |   |   |   |   |   |   |   ic > 0.693147
|   |   |   |   |   |   |   |   |   |   |   |   |   wmc <= 2.079442: NO (3.0/1.0)
|   |   |   |   |   |   |   |   |   |   |   |   |   wmc > 2.079442: YES (2.0)
|   |   |   |   |   |   |   |   |   |   loc > 5.950643
|   |   |   |   |   |   |   |   |   |   |   lcom3 <= 0.200671: NO (3.0)
|   |   |   |   |   |   |   |   |   |   |   lcom3 > 0.200671
|   |   |   |   |   |   |   |   |   |   |   |   noc <= 0
|   |   |   |   |   |   |   |   |   |   |   |   |   npm <= 2.70805: YES (18.0/3.0)
|   |   |   |   |   |   |   |   |   |   |   |   |   npm > 2.70805: NO (5.0/1.0)
|   |   |   |   |   |   |   |   |   |   |   |   noc > 0: YES (13.0/2.0)
|   |   |   |   |   |   |   |   |   max_cc > 1.609438
|   |   |   |   |   |   |   |   |   |   mfa <= 0.356675
|   |   |   |   |   |   |   |   |   |   |   cbo <= 0.693147
|   |   |   |   |   |   |   |   |   |   |   |   lcom <= 1.94591: YES (3.0/1.0)
|   |   |   |   |   |   |   |   |   |   |   |   lcom > 1.94591: NO (11.0)
|   |   |   |   |   |   |   |   |   |   |   cbo > 0.693147
|   |   |   |   |   |   |   |   |   |   |   |   noc <= 0.693147
|   |   |   |   |   |   |   |   |   |   |   |   |   noc <= 0
|   |   |   |   |   |   |   |   |   |   |   |   |   |   max_cc <= 2.564949: YES (101.0/34.0)
|   |   |   |   |   |   |   |   |   |   |   |   |   |   max_cc > 2.564949: NO (7.0/1.0)
|   |   |   |   |   |   |   |   |   |   |   |   |   noc > 0: YES (17.0/2.0)
|   |   |   |   |   |   |   |   |   |   |   |   noc > 0.693147
|   |   |   |   |   |   |   |   |   |   |   |   |   lcom3 <= 0.586114: NO (12.0/3.0)
|   |   |   |   |   |   |   |   |   |   |   |   |   lcom3 > 0.586114: YES (3.0)
|   |   |   |   |   |   |   |   |   |   mfa > 0.356675: NO (19.0/4.0)
|   |   |   |   |   |   |   |   ce > 1.609438
|   |   |   |   |   |   |   |   |   ce <= 2.397895
|   |   |   |   |   |   |   |   |   |   ic <= 0
|   |   |   |   |   |   |   |   |   |   |   rfc <= 3.713572: YES (85.0/21.0)
|   |   |   |   |   |   |   |   |   |   |   rfc > 3.713572: NO (8.0/2.0)
|   |   |   |   |   |   |   |   |   |   ic > 0: YES (28.0/4.0)
|   |   |   |   |   |   |   |   |   ce > 2.397895
|   |   |   |   |   |   |   |   |   |   moa <= 0
|   |   |   |   |   |   |   |   |   |   |   max_cc <= 1.098612: NO (19.0/4.0)
|   |   |   |   |   |   |   |   |   |   |   max_cc > 1.098612
|   |   |   |   |   |   |   |   |   |   |   |   mfa <= 0.498991: YES (7.0/1.0)
|   |   |   |   |   |   |   |   |   |   |   |   mfa > 0.498991: NO (2.0)
|   |   |   |   |   |   |   |   |   |   moa > 0
|   |   |   |   |   |   |   |   |   |   |   dam <= 0.251314: NO (2.0)
|   |   |   |   |   |   |   |   |   |   |   dam > 0.251314: YES (11.0/2.0)
|   |   |   |   |   |   moa > 0.693147
|   |   |   |   |   |   |   cbo <= 2.639057
|   |   |   |   |   |   |   |   noc <= 0
|   |   |   |   |   |   |   |   |   ic <= 0
|   |   |   |   |   |   |   |   |   |   dit <= 0.693147: YES (117.0/54.0)
|   |   |   |   |   |   |   |   |   |   dit > 0.693147
|   |   |   |   |   |   |   |   |   |   |   ca <= 1.386294
|   |   |   |   |   |   |   |   |   |   |   |   loc <= 5.857933: YES (16.0/3.0)
|   |   |   |   |   |   |   |   |   |   |   |   loc > 5.857933: NO (7.0/1.0)
|   |   |   |   |   |   |   |   |   |   |   ca > 1.386294: NO (4.0)
|   |   |   |   |   |   |   |   |   ic > 0
|   |   |   |   |   |   |   |   |   |   ic <= 0.693147
|   |   |   |   |   |   |   |   |   |   |   ca <= 0: NO (4.0)
|   |   |   |   |   |   |   |   |   |   |   ca > 0
|   |   |   |   |   |   |   |   |   |   |   |   cam <= 0.357415
|   |   |   |   |   |   |   |   |   |   |   |   |   lcom3 <= 0.271934
|   |   |   |   |   |   |   |   |   |   |   |   |   |   cbo <= 1.609438: YES (2.0)
|   |   |   |   |   |   |   |   |   |   |   |   |   |   cbo > 1.609438: NO (2.0)
|   |   |   |   |   |   |   |   |   |   |   |   |   lcom3 > 0.271934: YES (19.0/3.0)
|   |   |   |   |   |   |   |   |   |   |   |   cam > 0.357415: NO (11.0/3.0)
|   |   |   |   |   |   |   |   |   |   ic > 0.693147: YES (2.0)
|   |   |   |   |   |   |   |   noc > 0
|   |   |   |   |   |   |   |   |   moa <= 1.386294
|   |   |   |   |   |   |   |   |   |   rfc <= 3.713572: NO (19.0/5.0)
|   |   |   |   |   |   |   |   |   |   rfc > 3.713572: YES (2.0)
|   |   |   |   |   |   |   |   |   moa > 1.386294: YES (4.0/1.0)
|   |   |   |   |   |   |   cbo > 2.639057
|   |   |   |   |   |   |   |   ca <= 4.248495: YES (42.0/5.0)
|   |   |   |   |   |   |   |   ca > 4.248495: NO (4.0)
|   |   |   |   |   dit > 1.098612
|   |   |   |   |   |   dam <= 0.594707
|   |   |   |   |   |   |   lcom3 <= 0.938514
|   |   |   |   |   |   |   |   mfa <= 0.655202
|   |   |   |   |   |   |   |   |   cbo <= 2.70805: NO (62.0/18.0)
|   |   |   |   |   |   |   |   |   cbo > 2.70805: YES (9.0/2.0)
|   |   |   |   |   |   |   |   mfa > 0.655202
|   |   |   |   |   |   |   |   |   dam <= 0.167054
|   |   |   |   |   |   |   |   |   |   lcom3 <= 0.753772: NO (23.0/9.0)
|   |   |   |   |   |   |   |   |   |   lcom3 > 0.753772
|   |   |   |   |   |   |   |   |   |   |   cam <= 0.310155: NO (2.0)
|   |   |   |   |   |   |   |   |   |   |   cam > 0.310155: YES (38.0/4.0)
|   |   |   |   |   |   |   |   |   dam > 0.167054: YES (35.0/1.0)
|   |   |   |   |   |   |   lcom3 > 0.938514
|   |   |   |   |   |   |   |   lcom <= 0.693147
|   |   |   |   |   |   |   |   |   max_cc <= 1.791759
|   |   |   |   |   |   |   |   |   |   loc <= 2.639057: NO (136.0/41.0)
|   |   |   |   |   |   |   |   |   |   loc > 2.639057
|   |   |   |   |   |   |   |   |   |   |   rfc <= 1.609438: YES (6.0)
|   |   |   |   |   |   |   |   |   |   |   rfc > 1.609438: NO (84.0/27.0)
|   |   |   |   |   |   |   |   |   max_cc > 1.791759: YES (7.0/2.0)
|   |   |   |   |   |   |   |   lcom > 0.693147: NO (286.0/99.0)
|   |   |   |   |   |   dam > 0.594707
|   |   |   |   |   |   |   mfa <= 0.659811
|   |   |   |   |   |   |   |   lcom3 <= 0.585801
|   |   |   |   |   |   |   |   |   max_cc <= 1.791759: NO (188.0/25.0)
|   |   |   |   |   |   |   |   |   max_cc > 1.791759
|   |   |   |   |   |   |   |   |   |   moa <= 0
|   |   |   |   |   |   |   |   |   |   |   avg_cc <= 0.896741: NO (3.0/1.0)
|   |   |   |   |   |   |   |   |   |   |   avg_cc > 0.896741: YES (4.0)
|   |   |   |   |   |   |   |   |   |   moa > 0: NO (25.0/5.0)
|   |   |   |   |   |   |   |   lcom3 > 0.585801
|   |   |   |   |   |   |   |   |   ce <= 0.693147: YES (3.0)
|   |   |   |   |   |   |   |   |   ce > 0.693147
|   |   |   |   |   |   |   |   |   |   dit <= 1.386294: NO (25.0/7.0)
|   |   |   |   |   |   |   |   |   |   dit > 1.386294
|   |   |   |   |   |   |   |   |   |   |   max_cc <= 0.693147: YES (3.0)
|   |   |   |   |   |   |   |   |   |   |   max_cc > 0.693147: NO (16.0/6.0)
|   |   |   |   |   |   |   mfa > 0.659811
|   |   |   |   |   |   |   |   noc <= 0.693147: NO (139.0/49.0)
|   |   |   |   |   |   |   |   noc > 0.693147: YES (8.0/1.0)
|   |   |   |   cbm > 1.791759
|   |   |   |   |   ca <= 0
|   |   |   |   |   |   moa <= 0
|   |   |   |   |   |   |   dam <= 0.548566
|   |   |   |   |   |   |   |   lcom3 <= 0.938514
|   |   |   |   |   |   |   |   |   lcom3 <= 0.505095: NO (3.0/1.0)
|   |   |   |   |   |   |   |   |   lcom3 > 0.505095: YES (14.0)
|   |   |   |   |   |   |   |   lcom3 > 0.938514: NO (175.0/82.0)
|   |   |   |   |   |   |   dam > 0.548566: NO (23.0/8.0)
|   |   |   |   |   |   moa > 0: NO (52.0/17.0)
|   |   |   |   |   ca > 0
|   |   |   |   |   |   npm <= 1.098612: YES (32.0/1.0)
|   |   |   |   |   |   npm > 1.098612
|   |   |   |   |   |   |   ic <= 1.386294
|   |   |   |   |   |   |   |   dam <= 0.621688
|   |   |   |   |   |   |   |   |   loc <= 3.7612
|   |   |   |   |   |   |   |   |   |   lcom3 <= 0.938514: YES (2.0)
|   |   |   |   |   |   |   |   |   |   lcom3 > 0.938514: NO (13.0/1.0)
|   |   |   |   |   |   |   |   |   loc > 3.7612
|   |   |   |   |   |   |   |   |   |   dit <= 1.386294: YES (64.0/8.0)
|   |   |   |   |   |   |   |   |   |   dit > 1.386294
|   |   |   |   |   |   |   |   |   |   |   dit <= 1.791759
|   |   |   |   |   |   |   |   |   |   |   |   lcom <= 3.178054
|   |   |   |   |   |   |   |   |   |   |   |   |   lcom <= 2.833213
|   |   |   |   |   |   |   |   |   |   |   |   |   |   ca <= 0.693147
|   |   |   |   |   |   |   |   |   |   |   |   |   |   |   dam <= 0.251314
|   |   |   |   |   |   |   |   |   |   |   |   |   |   |   |   lcom3 <= 0.938514: YES (4.0)
|   |   |   |   |   |   |   |   |   |   |   |   |   |   |   |   lcom3 > 0.938514: NO (10.0/3.0)
|   |   |   |   |   |   |   |   |   |   |   |   |   |   |   dam > 0.251314: NO (4.0/1.0)
|   |   |   |   |   |   |   |   |   |   |   |   |   |   ca > 0.693147: YES (24.0/4.0)
|   |   |   |   |   |   |   |   |   |   |   |   |   lcom > 2.833213: NO (4.0)
|   |   |   |   |   |   |   |   |   |   |   |   lcom > 3.178054: YES (9.0)
|   |   |   |   |   |   |   |   |   |   |   dit > 1.791759: NO (4.0/1.0)
|   |   |   |   |   |   |   |   dam > 0.621688
|   |   |   |   |   |   |   |   |   rfc <= 3.555348: NO (78.0/28.0)
|   |   |   |   |   |   |   |   |   rfc > 3.555348
|   |   |   |   |   |   |   |   |   |   moa <= 0.693147: YES (19.0/3.0)
|   |   |   |   |   |   |   |   |   |   moa > 0.693147: NO (22.0/10.0)
|   |   |   |   |   |   |   ic > 1.386294
|   |   |   |   |   |   |   |   noc <= 0.693147: YES (26.0/2.0)
|   |   |   |   |   |   |   |   noc > 0.693147
|   |   |   |   |   |   |   |   |   cbo <= 2.564949: YES (3.0)
|   |   |   |   |   |   |   |   |   cbo > 2.564949: NO (2.0)
|   rfc > 3.828641
|   |   cbm <= 2.079442
|   |   |   wmc <= 3.7612
|   |   |   |   npm <= 2.302585
|   |   |   |   |   moa <= 1.386294
|   |   |   |   |   |   npm <= 0
|   |   |   |   |   |   |   loc <= 6.694562: YES (17.0)
|   |   |   |   |   |   |   loc > 6.694562: NO (2.0)
|   |   |   |   |   |   npm > 0
|   |   |   |   |   |   |   max_cc <= 2.639057
|   |   |   |   |   |   |   |   ce <= 3.332205
|   |   |   |   |   |   |   |   |   moa <= 0.693147
|   |   |   |   |   |   |   |   |   |   cbo <= 1.94591: NO (10.0/2.0)
|   |   |   |   |   |   |   |   |   |   cbo > 1.94591
|   |   |   |   |   |   |   |   |   |   |   lcom <= 1.609438: NO (14.0/4.0)
|   |   |   |   |   |   |   |   |   |   |   lcom > 1.609438: YES (72.0/15.0)
|   |   |   |   |   |   |   |   |   moa > 0.693147
|   |   |   |   |   |   |   |   |   |   ca <= 2.944439: YES (43.0/6.0)
|   |   |   |   |   |   |   |   |   |   ca > 2.944439: NO (2.0)
|   |   |   |   |   |   |   |   ce > 3.332205: NO (8.0/2.0)
|   |   |   |   |   |   |   max_cc > 2.639057: NO (28.0/11.0)
|   |   |   |   |   moa > 1.386294: YES (28.0/4.0)
|   |   |   |   npm > 2.302585: YES (428.0/191.0)
|   |   |   wmc > 3.7612
|   |   |   |   dit <= 1.386294
|   |   |   |   |   cbo <= 2.397895
|   |   |   |   |   |   avg_cc <= 0.686978: NO (4.0)
|   |   |   |   |   |   avg_cc > 0.686978
|   |   |   |   |   |   |   moa <= 0: YES (14.0/2.0)
|   |   |   |   |   |   |   moa > 0
|   |   |   |   |   |   |   |   noc <= 0.693147: NO (9.0/2.0)
|   |   |   |   |   |   |   |   noc > 0.693147: YES (2.0)
|   |   |   |   |   cbo > 2.397895: YES (129.0/20.0)
|   |   |   |   dit > 1.386294
|   |   |   |   |   rfc <= 4.795791: NO (6.0/1.0)
|   |   |   |   |   rfc > 4.795791: YES (4.0)
|   |   cbm > 2.079442: YES (199.0/39.0)
amc > 4.626309
|   ic <= 0
|   |   avg_cc <= 0.336472
|   |   |   amc <= 6.831954
|   |   |   |   loc <= 7.025538
|   |   |   |   |   lcom3 <= 0.76214: YES (54.0/15.0)
|   |   |   |   |   lcom3 > 0.76214: NO (12.0/2.0)
|   |   |   |   loc > 7.025538: YES (28.0)
|   |   |   amc > 6.831954: NO (11.0/1.0)
|   |   avg_cc > 0.336472: YES (228.0/13.0)
|   ic > 0
|   |   cam <= 0.421213
|   |   |   loc <= 8.070594: YES (28.0/3.0)
|   |   |   loc > 8.070594: NO (6.0/1.0)
|   |   cam > 0.421213: NO (12.0/2.0)

Number of Leaves  : 	171

Size of the tree : 	341


Correctly Classified Instances        4333               61.1487 %
Incorrectly Classified Instances      2753               38.8513 %
Kappa statistic                          0.1779
Mean absolute error                      0.4429
Root mean squared error                  0.5157
Relative absolute error                100.5942 %
Root relative squared error            109.92   %
Coverage of cases (0.95 level)          97.7844 %
Mean rel. region size (0.95 level)      98.0313 %
Total Number of Instances             7086     

=== Confusion Matrix ===

    a    b   <-- classified as
 3060 1708 |    a = NO
 1045 1273 |    b = YES

=== Detailed Accuracy By Class ===

                 TP Rate  FP Rate  Precision  Recall   F-Measure  MCC      ROC Area  PRC Area  Class
                 0.642    0.451    0.745      0.642    0.690      0.181    0.613     0.741     NO
                 0.549    0.358    0.427      0.549    0.480      0.181    0.613     0.412     YES
Weighted Avg.    0.611    0.421    0.641      0.611    0.621      0.181    0.613     0.633     

