Classifier...: weka.classifiers.trees.J48 -C 0.25 -M 2
Training file: C:\Users\HP\Desktop\AbdulAli\Camruz\Configuration2\dataK=3\13tr.csv

Testing file: C:\Users\HP\Desktop\AbdulAli\Camruz\Configuration2\dataK=3\13test.csv

J48 pruned tree
------------------

loc <= 5.346623
|   cbo <= 0
|   |   avg_cc <= 0.653938
|   |   |   noc <= 0
|   |   |   |   max_cc <= 0: NO (89.0/32.0)
|   |   |   |   max_cc > 0
|   |   |   |   |   avg_cc <= 0.336472: YES (6.0)
|   |   |   |   |   avg_cc > 0.336472
|   |   |   |   |   |   loc <= 4.909409: NO (56.0/17.0)
|   |   |   |   |   |   loc > 4.909409: YES (3.0)
|   |   |   noc > 0
|   |   |   |   loc <= 2.797178: NO (3.0)
|   |   |   |   loc > 2.797178: YES (10.0/2.0)
|   |   avg_cc > 0.653938: NO (372.0/66.0)
|   cbo > 0
|   |   ic <= 1.386294
|   |   |   dit <= 1.94591
|   |   |   |   lcom3 <= 0.072865
|   |   |   |   |   noc <= 0
|   |   |   |   |   |   cbo <= 1.94591: NO (139.0/24.0)
|   |   |   |   |   |   cbo > 1.94591
|   |   |   |   |   |   |   amc <= 1.789909: YES (7.0/1.0)
|   |   |   |   |   |   |   amc > 1.789909
|   |   |   |   |   |   |   |   wmc <= 1.349927
|   |   |   |   |   |   |   |   |   npm <= 0.847298: YES (2.0)
|   |   |   |   |   |   |   |   |   npm > 0.847298
|   |   |   |   |   |   |   |   |   |   dit <= 0.693147: NO (4.0/1.0)
|   |   |   |   |   |   |   |   |   |   dit > 0.693147: YES (5.0/1.0)
|   |   |   |   |   |   |   |   wmc > 1.349927: NO (70.0/18.0)
|   |   |   |   |   noc > 0: NO (17.0/2.0)
|   |   |   |   lcom3 > 0.072865
|   |   |   |   |   max_cc <= 1.791759
|   |   |   |   |   |   cbm <= 1.791759
|   |   |   |   |   |   |   moa <= 0
|   |   |   |   |   |   |   |   cbm <= 1.609438
|   |   |   |   |   |   |   |   |   dam <= 1.045502
|   |   |   |   |   |   |   |   |   |   dam <= 0.485508
|   |   |   |   |   |   |   |   |   |   |   lcom3 <= 0.906019
|   |   |   |   |   |   |   |   |   |   |   |   mfa <= 0.468855
|   |   |   |   |   |   |   |   |   |   |   |   |   dit <= 0.693147
|   |   |   |   |   |   |   |   |   |   |   |   |   |   npm <= 2.100061
|   |   |   |   |   |   |   |   |   |   |   |   |   |   |   noc <= 0
|   |   |   |   |   |   |   |   |   |   |   |   |   |   |   |   wmc <= 1.637609
|   |   |   |   |   |   |   |   |   |   |   |   |   |   |   |   |   ce <= -0.287682
|   |   |   |   |   |   |   |   |   |   |   |   |   |   |   |   |   |   loc <= 1.698566: NO (3.0)
|   |   |   |   |   |   |   |   |   |   |   |   |   |   |   |   |   |   loc > 1.698566
|   |   |   |   |   |   |   |   |   |   |   |   |   |   |   |   |   |   |   cam <= 0.389082
|   |   |   |   |   |   |   |   |   |   |   |   |   |   |   |   |   |   |   |   cbo <= 1.386294: YES (4.0/1.0)
|   |   |   |   |   |   |   |   |   |   |   |   |   |   |   |   |   |   |   |   cbo > 1.386294: NO (2.0)
|   |   |   |   |   |   |   |   |   |   |   |   |   |   |   |   |   |   |   cam > 0.389082: YES (7.0/1.0)
|   |   |   |   |   |   |   |   |   |   |   |   |   |   |   |   |   ce > -0.287682: NO (9.0/1.0)
|   |   |   |   |   |   |   |   |   |   |   |   |   |   |   |   wmc > 1.637609
|   |   |   |   |   |   |   |   |   |   |   |   |   |   |   |   |   lcom3 <= 0.76667
|   |   |   |   |   |   |   |   |   |   |   |   |   |   |   |   |   |   max_cc <= 1.386294: NO (29.0/11.0)
|   |   |   |   |   |   |   |   |   |   |   |   |   |   |   |   |   |   max_cc > 1.386294: YES (2.0)
|   |   |   |   |   |   |   |   |   |   |   |   |   |   |   |   |   lcom3 > 0.76667: YES (6.0)
|   |   |   |   |   |   |   |   |   |   |   |   |   |   |   noc > 0: YES (4.0/1.0)
|   |   |   |   |   |   |   |   |   |   |   |   |   |   npm > 2.100061: YES (44.0/19.0)
|   |   |   |   |   |   |   |   |   |   |   |   |   dit > 0.693147
|   |   |   |   |   |   |   |   |   |   |   |   |   |   lcom3 <= 0.842974: NO (56.0/15.0)
|   |   |   |   |   |   |   |   |   |   |   |   |   |   lcom3 > 0.842974
|   |   |   |   |   |   |   |   |   |   |   |   |   |   |   noc <= 0: YES (10.0)
|   |   |   |   |   |   |   |   |   |   |   |   |   |   |   noc > 0: NO (6.0/2.0)
|   |   |   |   |   |   |   |   |   |   |   |   mfa > 0.468855: YES (16.0)
|   |   |   |   |   |   |   |   |   |   |   lcom3 > 0.906019: NO (1410.0/470.0)
|   |   |   |   |   |   |   |   |   |   dam > 0.485508
|   |   |   |   |   |   |   |   |   |   |   cam <= 0.484392
|   |   |   |   |   |   |   |   |   |   |   |   ca <= 1.791759
|   |   |   |   |   |   |   |   |   |   |   |   |   ce <= -0.287682: YES (6.0)
|   |   |   |   |   |   |   |   |   |   |   |   |   ce > -0.287682
|   |   |   |   |   |   |   |   |   |   |   |   |   |   mfa <= 0.46684
|   |   |   |   |   |   |   |   |   |   |   |   |   |   |   avg_cc <= 0.405465: YES (5.0/1.0)
|   |   |   |   |   |   |   |   |   |   |   |   |   |   |   avg_cc > 0.405465
|   |   |   |   |   |   |   |   |   |   |   |   |   |   |   |   noc <= 0
|   |   |   |   |   |   |   |   |   |   |   |   |   |   |   |   |   loc <= 4.096461: YES (2.0)
|   |   |   |   |   |   |   |   |   |   |   |   |   |   |   |   |   loc > 4.096461: NO (21.0/5.0)
|   |   |   |   |   |   |   |   |   |   |   |   |   |   |   |   noc > 0
|   |   |   |   |   |   |   |   |   |   |   |   |   |   |   |   |   lcom3 <= 0.621049: YES (6.0/1.0)
|   |   |   |   |   |   |   |   |   |   |   |   |   |   |   |   |   lcom3 > 0.621049: NO (5.0/1.0)
|   |   |   |   |   |   |   |   |   |   |   |   |   |   mfa > 0.46684: YES (5.0)
|   |   |   |   |   |   |   |   |   |   |   |   ca > 1.791759: YES (17.0/1.0)
|   |   |   |   |   |   |   |   |   |   |   cam > 0.484392: NO (4.0)
|   |   |   |   |   |   |   |   |   dam > 1.045502
|   |   |   |   |   |   |   |   |   |   ca <= 0.405465: NO (83.0/12.0)
|   |   |   |   |   |   |   |   |   |   ca > 0.405465
|   |   |   |   |   |   |   |   |   |   |   cbm <= 0.693147
|   |   |   |   |   |   |   |   |   |   |   |   npm <= 1.540445
|   |   |   |   |   |   |   |   |   |   |   |   |   avg_cc <= 0.895394: NO (94.0/26.0)
|   |   |   |   |   |   |   |   |   |   |   |   |   avg_cc > 0.895394: YES (4.0)
|   |   |   |   |   |   |   |   |   |   |   |   npm > 1.540445
|   |   |   |   |   |   |   |   |   |   |   |   |   ce <= 1.098612
|   |   |   |   |   |   |   |   |   |   |   |   |   |   ce <= -0.287682
|   |   |   |   |   |   |   |   |   |   |   |   |   |   |   lcom3 <= 0.4726
|   |   |   |   |   |   |   |   |   |   |   |   |   |   |   |   dit <= 0.693147
|   |   |   |   |   |   |   |   |   |   |   |   |   |   |   |   |   npm <= 1.763589: YES (4.0)
|   |   |   |   |   |   |   |   |   |   |   |   |   |   |   |   |   npm > 1.763589
|   |   |   |   |   |   |   |   |   |   |   |   |   |   |   |   |   |   ic <= 0: NO (27.0/10.0)
|   |   |   |   |   |   |   |   |   |   |   |   |   |   |   |   |   |   ic > 0: YES (6.0/1.0)
|   |   |   |   |   |   |   |   |   |   |   |   |   |   |   |   dit > 0.693147: NO (6.0/1.0)
|   |   |   |   |   |   |   |   |   |   |   |   |   |   |   lcom3 > 0.4726: NO (16.0/3.0)
|   |   |   |   |   |   |   |   |   |   |   |   |   |   ce > -0.287682: NO (81.0/17.0)
|   |   |   |   |   |   |   |   |   |   |   |   |   ce > 1.098612
|   |   |   |   |   |   |   |   |   |   |   |   |   |   mfa <= 0.314218: YES (22.0/6.0)
|   |   |   |   |   |   |   |   |   |   |   |   |   |   mfa > 0.314218: NO (16.0/3.0)
|   |   |   |   |   |   |   |   |   |   |   cbm > 0.693147: NO (43.0/18.0)
|   |   |   |   |   |   |   |   cbm > 1.609438: NO (83.0/21.0)
|   |   |   |   |   |   |   moa > 0
|   |   |   |   |   |   |   |   ce <= 1.504077
|   |   |   |   |   |   |   |   |   dit <= 1.386294
|   |   |   |   |   |   |   |   |   |   ic <= 0
|   |   |   |   |   |   |   |   |   |   |   dit <= 0.693147: NO (236.0/101.0)
|   |   |   |   |   |   |   |   |   |   |   dit > 0.693147
|   |   |   |   |   |   |   |   |   |   |   |   noc <= 1.791759
|   |   |   |   |   |   |   |   |   |   |   |   |   avg_cc <= 0.581936: NO (21.0/6.0)
|   |   |   |   |   |   |   |   |   |   |   |   |   avg_cc > 0.581936: YES (21.0/6.0)
|   |   |   |   |   |   |   |   |   |   |   |   noc > 1.791759: NO (3.0)
|   |   |   |   |   |   |   |   |   |   ic > 0
|   |   |   |   |   |   |   |   |   |   |   cam <= 0.311259
|   |   |   |   |   |   |   |   |   |   |   |   rfc <= 3.148201: YES (10.0)
|   |   |   |   |   |   |   |   |   |   |   |   rfc > 3.148201
|   |   |   |   |   |   |   |   |   |   |   |   |   noc <= 0.693147
|   |   |   |   |   |   |   |   |   |   |   |   |   |   lcom3 <= 0.486461: NO (21.0/5.0)
|   |   |   |   |   |   |   |   |   |   |   |   |   |   lcom3 > 0.486461
|   |   |   |   |   |   |   |   |   |   |   |   |   |   |   mfa <= 0.416149: YES (8.0)
|   |   |   |   |   |   |   |   |   |   |   |   |   |   |   mfa > 0.416149
|   |   |   |   |   |   |   |   |   |   |   |   |   |   |   |   lcom <= 2.890372: YES (2.0)
|   |   |   |   |   |   |   |   |   |   |   |   |   |   |   |   lcom > 2.890372: NO (3.0)
|   |   |   |   |   |   |   |   |   |   |   |   |   noc > 0.693147: NO (3.0)
|   |   |   |   |   |   |   |   |   |   |   cam > 0.311259
|   |   |   |   |   |   |   |   |   |   |   |   avg_cc <= 0.772467: NO (33.0/3.0)
|   |   |   |   |   |   |   |   |   |   |   |   avg_cc > 0.772467
|   |   |   |   |   |   |   |   |   |   |   |   |   ce <= 0.81093: NO (9.0/2.0)
|   |   |   |   |   |   |   |   |   |   |   |   |   ce > 0.81093: YES (3.0)
|   |   |   |   |   |   |   |   |   dit > 1.386294: NO (22.0/5.0)
|   |   |   |   |   |   |   |   ce > 1.504077
|   |   |   |   |   |   |   |   |   dit <= 1.098612
|   |   |   |   |   |   |   |   |   |   dam <= 0.63908
|   |   |   |   |   |   |   |   |   |   |   ic <= 0.693147
|   |   |   |   |   |   |   |   |   |   |   |   ce <= 1.791759
|   |   |   |   |   |   |   |   |   |   |   |   |   moa <= 0.693147: NO (14.0/5.0)
|   |   |   |   |   |   |   |   |   |   |   |   |   moa > 0.693147: YES (5.0/1.0)
|   |   |   |   |   |   |   |   |   |   |   |   ce > 1.791759: NO (3.0)
|   |   |   |   |   |   |   |   |   |   |   ic > 0.693147: YES (2.0)
|   |   |   |   |   |   |   |   |   |   dam > 0.63908: YES (51.0/12.0)
|   |   |   |   |   |   |   |   |   dit > 1.098612
|   |   |   |   |   |   |   |   |   |   mfa <= 0.451246: NO (37.0/7.0)
|   |   |   |   |   |   |   |   |   |   mfa > 0.451246: YES (35.0/11.0)
|   |   |   |   |   |   cbm > 1.791759
|   |   |   |   |   |   |   ca <= 1.098612
|   |   |   |   |   |   |   |   npm <= 1.252763
|   |   |   |   |   |   |   |   |   lcom <= 0.693147
|   |   |   |   |   |   |   |   |   |   cbm <= 2.564949: YES (29.0/11.0)
|   |   |   |   |   |   |   |   |   |   cbm > 2.564949: NO (6.0/1.0)
|   |   |   |   |   |   |   |   |   lcom > 0.693147: YES (99.0/49.0)
|   |   |   |   |   |   |   |   npm > 1.252763
|   |   |   |   |   |   |   |   |   ca <= 0.405465
|   |   |   |   |   |   |   |   |   |   dam <= 0.74841
|   |   |   |   |   |   |   |   |   |   |   lcom3 <= 0.906019: YES (9.0/1.0)
|   |   |   |   |   |   |   |   |   |   |   lcom3 > 0.906019: NO (96.0/32.0)
|   |   |   |   |   |   |   |   |   |   dam > 0.74841: NO (32.0/9.0)
|   |   |   |   |   |   |   |   |   ca > 0.405465
|   |   |   |   |   |   |   |   |   |   moa <= 0
|   |   |   |   |   |   |   |   |   |   |   mfa <= 0.472584
|   |   |   |   |   |   |   |   |   |   |   |   lcom3 <= 0.906019
|   |   |   |   |   |   |   |   |   |   |   |   |   dam <= 0.65678: YES (10.0)
|   |   |   |   |   |   |   |   |   |   |   |   |   dam > 0.65678: NO (14.0/3.0)
|   |   |   |   |   |   |   |   |   |   |   |   lcom3 > 0.906019: NO (26.0/5.0)
|   |   |   |   |   |   |   |   |   |   |   mfa > 0.472584: YES (3.0)
|   |   |   |   |   |   |   |   |   |   moa > 0
|   |   |   |   |   |   |   |   |   |   |   lcom3 <= 0.389499: YES (3.0)
|   |   |   |   |   |   |   |   |   |   |   lcom3 > 0.389499
|   |   |   |   |   |   |   |   |   |   |   |   ce <= 1.791759
|   |   |   |   |   |   |   |   |   |   |   |   |   dam <= 1.059392: YES (2.0)
|   |   |   |   |   |   |   |   |   |   |   |   |   dam > 1.059392: NO (7.0/3.0)
|   |   |   |   |   |   |   |   |   |   |   |   ce > 1.791759: NO (2.0)
|   |   |   |   |   |   |   ca > 1.098612
|   |   |   |   |   |   |   |   dam <= 1.059392: YES (59.0/15.0)
|   |   |   |   |   |   |   |   dam > 1.059392: NO (32.0/11.0)
|   |   |   |   |   max_cc > 1.791759
|   |   |   |   |   |   ca <= 3.044522
|   |   |   |   |   |   |   dam <= 0.97601
|   |   |   |   |   |   |   |   moa <= 0
|   |   |   |   |   |   |   |   |   noc <= 0.693147
|   |   |   |   |   |   |   |   |   |   noc <= 0
|   |   |   |   |   |   |   |   |   |   |   dam <= 0.592677: NO (61.0/28.0)
|   |   |   |   |   |   |   |   |   |   |   dam > 0.592677
|   |   |   |   |   |   |   |   |   |   |   |   npm <= 0.847298
|   |   |   |   |   |   |   |   |   |   |   |   |   rfc <= 3.202268: NO (2.0)
|   |   |   |   |   |   |   |   |   |   |   |   |   rfc > 3.202268: YES (7.0/2.0)
|   |   |   |   |   |   |   |   |   |   |   |   npm > 0.847298: YES (7.0)
|   |   |   |   |   |   |   |   |   |   noc > 0
|   |   |   |   |   |   |   |   |   |   |   dam <= 0.606136: YES (4.0)
|   |   |   |   |   |   |   |   |   |   |   dam > 0.606136: NO (3.0/1.0)
|   |   |   |   |   |   |   |   |   noc > 0.693147
|   |   |   |   |   |   |   |   |   |   lcom3 <= 0.777539: YES (2.0)
|   |   |   |   |   |   |   |   |   |   lcom3 > 0.777539: NO (6.0)
|   |   |   |   |   |   |   |   moa > 0: YES (29.0/8.0)
|   |   |   |   |   |   |   dam > 0.97601: NO (70.0/27.0)
|   |   |   |   |   |   ca > 3.044522: YES (12.0/1.0)
|   |   |   dit > 1.94591: YES (26.0/9.0)
|   |   ic > 1.386294
|   |   |   dam <= 1.045502: YES (15.0/2.0)
|   |   |   dam > 1.045502
|   |   |   |   dit <= 1.94591
|   |   |   |   |   loc <= 5.195073: NO (7.0/2.0)
|   |   |   |   |   loc > 5.195073: YES (2.0)
|   |   |   |   dit > 1.94591: YES (3.0/1.0)
loc > 5.346623
|   wmc <= 1.349927
|   |   ic <= 0: YES (92.0/7.0)
|   |   ic > 0: NO (6.0/1.0)
|   wmc > 1.349927
|   |   amc <= 5.26847
|   |   |   cbm <= 2.197225
|   |   |   |   wmc <= 4.101462
|   |   |   |   |   cbo <= 2.079442
|   |   |   |   |   |   mfa <= 0.449504
|   |   |   |   |   |   |   dit <= 1.098612
|   |   |   |   |   |   |   |   ce <= 0.405465
|   |   |   |   |   |   |   |   |   wmc <= 3.141686
|   |   |   |   |   |   |   |   |   |   max_cc <= 1.94591
|   |   |   |   |   |   |   |   |   |   |   lcom3 <= 0.149826: NO (7.0)
|   |   |   |   |   |   |   |   |   |   |   lcom3 > 0.149826
|   |   |   |   |   |   |   |   |   |   |   |   cam <= 0.46192
|   |   |   |   |   |   |   |   |   |   |   |   |   amc <= 2.830339: NO (14.0/2.0)
|   |   |   |   |   |   |   |   |   |   |   |   |   amc > 2.830339
|   |   |   |   |   |   |   |   |   |   |   |   |   |   cbo <= 1.94591: YES (50.0/20.0)
|   |   |   |   |   |   |   |   |   |   |   |   |   |   cbo > 1.94591: NO (3.0)
|   |   |   |   |   |   |   |   |   |   |   |   cam > 0.46192: NO (6.0)
|   |   |   |   |   |   |   |   |   |   max_cc > 1.94591: NO (69.0/11.0)
|   |   |   |   |   |   |   |   |   wmc > 3.141686
|   |   |   |   |   |   |   |   |   |   moa <= 1.609438
|   |   |   |   |   |   |   |   |   |   |   ce <= -0.287682: YES (40.0/15.0)
|   |   |   |   |   |   |   |   |   |   |   ce > -0.287682
|   |   |   |   |   |   |   |   |   |   |   |   dam <= 0.470004: NO (4.0)
|   |   |   |   |   |   |   |   |   |   |   |   dam > 0.470004
|   |   |   |   |   |   |   |   |   |   |   |   |   moa <= 0
|   |   |   |   |   |   |   |   |   |   |   |   |   |   ic <= 0
|   |   |   |   |   |   |   |   |   |   |   |   |   |   |   lcom <= 5.560682: NO (2.0)
|   |   |   |   |   |   |   |   |   |   |   |   |   |   |   lcom > 5.560682: YES (8.0/1.0)
|   |   |   |   |   |   |   |   |   |   |   |   |   |   ic > 0: YES (3.0/1.0)
|   |   |   |   |   |   |   |   |   |   |   |   |   moa > 0
|   |   |   |   |   |   |   |   |   |   |   |   |   |   cbo <= 1.098612: YES (2.0)
|   |   |   |   |   |   |   |   |   |   |   |   |   |   cbo > 1.098612: NO (10.0/3.0)
|   |   |   |   |   |   |   |   |   |   moa > 1.609438: NO (6.0)
|   |   |   |   |   |   |   |   ce > 0.405465
|   |   |   |   |   |   |   |   |   noc <= 0
|   |   |   |   |   |   |   |   |   |   dit <= 0.693147
|   |   |   |   |   |   |   |   |   |   |   max_cc <= 2.302585
|   |   |   |   |   |   |   |   |   |   |   |   ic <= 0
|   |   |   |   |   |   |   |   |   |   |   |   |   max_cc <= 2.079442
|   |   |   |   |   |   |   |   |   |   |   |   |   |   cbo <= 1.791759
|   |   |   |   |   |   |   |   |   |   |   |   |   |   |   loc <= 6.399046: NO (67.0/24.0)
|   |   |   |   |   |   |   |   |   |   |   |   |   |   |   loc > 6.399046: YES (9.0)
|   |   |   |   |   |   |   |   |   |   |   |   |   |   cbo > 1.791759
|   |   |   |   |   |   |   |   |   |   |   |   |   |   |   rfc <= 2.896886: NO (4.0)
|   |   |   |   |   |   |   |   |   |   |   |   |   |   |   rfc > 2.896886: YES (44.0/15.0)
|   |   |   |   |   |   |   |   |   |   |   |   |   max_cc > 2.079442
|   |   |   |   |   |   |   |   |   |   |   |   |   |   rfc <= 3.971401: YES (3.0)
|   |   |   |   |   |   |   |   |   |   |   |   |   |   rfc > 3.971401: NO (18.0/1.0)
|   |   |   |   |   |   |   |   |   |   |   |   ic > 0: NO (8.0/1.0)
|   |   |   |   |   |   |   |   |   |   |   max_cc > 2.302585
|   |   |   |   |   |   |   |   |   |   |   |   avg_cc <= 0.925766: NO (4.0)
|   |   |   |   |   |   |   |   |   |   |   |   avg_cc > 0.925766
|   |   |   |   |   |   |   |   |   |   |   |   |   wmc <= 4.079956
|   |   |   |   |   |   |   |   |   |   |   |   |   |   cbo <= 1.791759
|   |   |   |   |   |   |   |   |   |   |   |   |   |   |   wmc <= 2.330756: NO (4.0/1.0)
|   |   |   |   |   |   |   |   |   |   |   |   |   |   |   wmc > 2.330756: YES (34.0/2.0)
|   |   |   |   |   |   |   |   |   |   |   |   |   |   cbo > 1.791759
|   |   |   |   |   |   |   |   |   |   |   |   |   |   |   lcom <= 3.988984: YES (9.0/2.0)
|   |   |   |   |   |   |   |   |   |   |   |   |   |   |   lcom > 3.988984: NO (5.0)
|   |   |   |   |   |   |   |   |   |   |   |   |   wmc > 4.079956: NO (3.0)
|   |   |   |   |   |   |   |   |   |   dit > 0.693147
|   |   |   |   |   |   |   |   |   |   |   cbo <= 1.94591
|   |   |   |   |   |   |   |   |   |   |   |   max_cc <= 2.397895
|   |   |   |   |   |   |   |   |   |   |   |   |   moa <= 1.098612
|   |   |   |   |   |   |   |   |   |   |   |   |   |   ce <= 1.504077
|   |   |   |   |   |   |   |   |   |   |   |   |   |   |   cam <= 0.18666: NO (10.0/1.0)
|   |   |   |   |   |   |   |   |   |   |   |   |   |   |   cam > 0.18666
|   |   |   |   |   |   |   |   |   |   |   |   |   |   |   |   max_cc <= 0.693147
|   |   |   |   |   |   |   |   |   |   |   |   |   |   |   |   |   wmc <= 2.5539
|   |   |   |   |   |   |   |   |   |   |   |   |   |   |   |   |   |   lcom3 <= 0.37297: NO (2.0)
|   |   |   |   |   |   |   |   |   |   |   |   |   |   |   |   |   |   lcom3 > 0.37297: YES (3.0)
|   |   |   |   |   |   |   |   |   |   |   |   |   |   |   |   |   wmc > 2.5539: NO (3.0)
|   |   |   |   |   |   |   |   |   |   |   |   |   |   |   |   max_cc > 0.693147: YES (39.0/12.0)
|   |   |   |   |   |   |   |   |   |   |   |   |   |   ce > 1.504077: YES (7.0)
|   |   |   |   |   |   |   |   |   |   |   |   |   moa > 1.098612: NO (8.0/2.0)
|   |   |   |   |   |   |   |   |   |   |   |   max_cc > 2.397895: NO (11.0/1.0)
|   |   |   |   |   |   |   |   |   |   |   cbo > 1.94591: NO (13.0/2.0)
|   |   |   |   |   |   |   |   |   noc > 0
|   |   |   |   |   |   |   |   |   |   ca <= 1.098612: YES (3.0)
|   |   |   |   |   |   |   |   |   |   ca > 1.098612
|   |   |   |   |   |   |   |   |   |   |   noc <= 1.098612
|   |   |   |   |   |   |   |   |   |   |   |   max_cc <= 1.791759
|   |   |   |   |   |   |   |   |   |   |   |   |   dit <= 0.693147
|   |   |   |   |   |   |   |   |   |   |   |   |   |   wmc <= 2.64921: YES (4.0/1.0)
|   |   |   |   |   |   |   |   |   |   |   |   |   |   wmc > 2.64921: NO (2.0)
|   |   |   |   |   |   |   |   |   |   |   |   |   dit > 0.693147: YES (4.0)
|   |   |   |   |   |   |   |   |   |   |   |   max_cc > 1.791759: NO (12.0/3.0)
|   |   |   |   |   |   |   |   |   |   |   noc > 1.098612: YES (2.0)
|   |   |   |   |   |   |   dit > 1.098612
|   |   |   |   |   |   |   |   max_cc <= 1.94591: NO (93.0/20.0)
|   |   |   |   |   |   |   |   max_cc > 1.94591
|   |   |   |   |   |   |   |   |   cbo <= 1.94591
|   |   |   |   |   |   |   |   |   |   dit <= 1.609438
|   |   |   |   |   |   |   |   |   |   |   dit <= 1.386294
|   |   |   |   |   |   |   |   |   |   |   |   rfc <= 3.895415: NO (4.0)
|   |   |   |   |   |   |   |   |   |   |   |   rfc > 3.895415: YES (3.0)
|   |   |   |   |   |   |   |   |   |   |   dit > 1.386294
|   |   |   |   |   |   |   |   |   |   |   |   wmc <= 3.386809: YES (2.0)
|   |   |   |   |   |   |   |   |   |   |   |   wmc > 3.386809: NO (3.0/1.0)
|   |   |   |   |   |   |   |   |   |   dit > 1.609438: NO (2.0)
|   |   |   |   |   |   |   |   |   cbo > 1.94591: YES (7.0/1.0)
|   |   |   |   |   |   mfa > 0.449504
|   |   |   |   |   |   |   noc <= 0
|   |   |   |   |   |   |   |   ce <= 1.098612
|   |   |   |   |   |   |   |   |   dam <= 1.036737
|   |   |   |   |   |   |   |   |   |   loc <= 5.6986: NO (8.0)
|   |   |   |   |   |   |   |   |   |   loc > 5.6986: YES (53.0/14.0)
|   |   |   |   |   |   |   |   |   dam > 1.036737
|   |   |   |   |   |   |   |   |   |   mfa <= 0.469937: YES (23.0/1.0)
|   |   |   |   |   |   |   |   |   |   mfa > 0.469937: NO (3.0/1.0)
|   |   |   |   |   |   |   |   ce > 1.098612: NO (5.0/1.0)
|   |   |   |   |   |   |   noc > 0: YES (7.0)
|   |   |   |   |   cbo > 2.079442
|   |   |   |   |   |   dit <= 1.098612
|   |   |   |   |   |   |   dit <= 0.693147
|   |   |   |   |   |   |   |   noc <= 1.098612
|   |   |   |   |   |   |   |   |   cam <= 0.419854: YES (371.0/120.0)
|   |   |   |   |   |   |   |   |   cam > 0.419854
|   |   |   |   |   |   |   |   |   |   cbo <= 2.70805: NO (15.0/2.0)
|   |   |   |   |   |   |   |   |   |   cbo > 2.70805: YES (3.0)
|   |   |   |   |   |   |   |   noc > 1.098612
|   |   |   |   |   |   |   |   |   max_cc <= 2.890372: NO (26.0/11.0)
|   |   |   |   |   |   |   |   |   max_cc > 2.890372: YES (5.0)
|   |   |   |   |   |   |   dit > 0.693147
|   |   |   |   |   |   |   |   npm <= 2.926739
|   |   |   |   |   |   |   |   |   cbo <= 2.564949
|   |   |   |   |   |   |   |   |   |   amc <= 4.175125
|   |   |   |   |   |   |   |   |   |   |   wmc <= 2.330756: NO (6.0/1.0)
|   |   |   |   |   |   |   |   |   |   |   wmc > 2.330756
|   |   |   |   |   |   |   |   |   |   |   |   ca <= 2.484907
|   |   |   |   |   |   |   |   |   |   |   |   |   lcom3 <= 0.441666
|   |   |   |   |   |   |   |   |   |   |   |   |   |   moa <= 0.693147: YES (7.0/2.0)
|   |   |   |   |   |   |   |   |   |   |   |   |   |   moa > 0.693147: NO (3.0)
|   |   |   |   |   |   |   |   |   |   |   |   |   lcom3 > 0.441666: YES (29.0/2.0)
|   |   |   |   |   |   |   |   |   |   |   |   ca > 2.484907: NO (5.0/1.0)
|   |   |   |   |   |   |   |   |   |   amc > 4.175125: NO (6.0/1.0)
|   |   |   |   |   |   |   |   |   cbo > 2.564949: YES (46.0/5.0)
|   |   |   |   |   |   |   |   npm > 2.926739
|   |   |   |   |   |   |   |   |   cbo <= 2.397895: YES (13.0/1.0)
|   |   |   |   |   |   |   |   |   cbo > 2.397895
|   |   |   |   |   |   |   |   |   |   rfc <= 5.241436: NO (67.0/30.0)
|   |   |   |   |   |   |   |   |   |   rfc > 5.241436: YES (6.0)
|   |   |   |   |   |   dit > 1.098612
|   |   |   |   |   |   |   amc <= 4.344701
|   |   |   |   |   |   |   |   lcom <= 2.079442
|   |   |   |   |   |   |   |   |   cbm <= 1.791759
|   |   |   |   |   |   |   |   |   |   ca <= 1.791759
|   |   |   |   |   |   |   |   |   |   |   ca <= 1.504077: NO (48.0/12.0)
|   |   |   |   |   |   |   |   |   |   |   ca > 1.504077
|   |   |   |   |   |   |   |   |   |   |   |   lcom3 <= 0.470344: YES (4.0)
|   |   |   |   |   |   |   |   |   |   |   |   lcom3 > 0.470344: NO (3.0/1.0)
|   |   |   |   |   |   |   |   |   |   ca > 1.791759: NO (28.0/2.0)
|   |   |   |   |   |   |   |   |   cbm > 1.791759
|   |   |   |   |   |   |   |   |   |   ic <= 0.693147: YES (12.0/4.0)
|   |   |   |   |   |   |   |   |   |   ic > 0.693147
|   |   |   |   |   |   |   |   |   |   |   dam <= 0.756863: YES (2.0)
|   |   |   |   |   |   |   |   |   |   |   dam > 0.756863
|   |   |   |   |   |   |   |   |   |   |   |   dam <= 0.931558: NO (4.0/1.0)
|   |   |   |   |   |   |   |   |   |   |   |   dam > 0.931558
|   |   |   |   |   |   |   |   |   |   |   |   |   ca <= 1.098612: YES (17.0/5.0)
|   |   |   |   |   |   |   |   |   |   |   |   |   ca > 1.098612
|   |   |   |   |   |   |   |   |   |   |   |   |   |   ca <= 3.931826: NO (14.0/2.0)
|   |   |   |   |   |   |   |   |   |   |   |   |   |   ca > 3.931826: YES (2.0)
|   |   |   |   |   |   |   |   lcom > 2.079442
|   |   |   |   |   |   |   |   |   cbm <= 1.791759
|   |   |   |   |   |   |   |   |   |   rfc <= 4.416712
|   |   |   |   |   |   |   |   |   |   |   max_cc <= 2.564949
|   |   |   |   |   |   |   |   |   |   |   |   mfa <= 0.349309
|   |   |   |   |   |   |   |   |   |   |   |   |   npm <= 2.456736
|   |   |   |   |   |   |   |   |   |   |   |   |   |   amc <= 3.374601: YES (4.0)
|   |   |   |   |   |   |   |   |   |   |   |   |   |   amc > 3.374601: NO (3.0/1.0)
|   |   |   |   |   |   |   |   |   |   |   |   |   npm > 2.456736: NO (37.0/8.0)
|   |   |   |   |   |   |   |   |   |   |   |   mfa > 0.349309: YES (82.0/35.0)
|   |   |   |   |   |   |   |   |   |   |   max_cc > 2.564949
|   |   |   |   |   |   |   |   |   |   |   |   cbm <= 1.609438: NO (12.0)
|   |   |   |   |   |   |   |   |   |   |   |   cbm > 1.609438
|   |   |   |   |   |   |   |   |   |   |   |   |   loc <= 5.88822: NO (2.0)
|   |   |   |   |   |   |   |   |   |   |   |   |   loc > 5.88822: YES (2.0)
|   |   |   |   |   |   |   |   |   |   rfc > 4.416712
|   |   |   |   |   |   |   |   |   |   |   cbm <= 1.609438
|   |   |   |   |   |   |   |   |   |   |   |   dit <= 1.386294
|   |   |   |   |   |   |   |   |   |   |   |   |   moa <= 0: YES (17.0/3.0)
|   |   |   |   |   |   |   |   |   |   |   |   |   moa > 0
|   |   |   |   |   |   |   |   |   |   |   |   |   |   wmc <= 3.583519
|   |   |   |   |   |   |   |   |   |   |   |   |   |   |   cbm <= 1.386294
|   |   |   |   |   |   |   |   |   |   |   |   |   |   |   |   ce <= 2.484907
|   |   |   |   |   |   |   |   |   |   |   |   |   |   |   |   |   ca <= 1.098612
|   |   |   |   |   |   |   |   |   |   |   |   |   |   |   |   |   |   rfc <= 4.477337: NO (2.0)
|   |   |   |   |   |   |   |   |   |   |   |   |   |   |   |   |   |   rfc > 4.477337
|   |   |   |   |   |   |   |   |   |   |   |   |   |   |   |   |   |   |   cam <= 0.155305: NO (3.0/1.0)
|   |   |   |   |   |   |   |   |   |   |   |   |   |   |   |   |   |   |   cam > 0.155305: YES (8.0)
|   |   |   |   |   |   |   |   |   |   |   |   |   |   |   |   |   ca > 1.098612: YES (5.0)
|   |   |   |   |   |   |   |   |   |   |   |   |   |   |   |   ce > 2.484907: NO (4.0)
|   |   |   |   |   |   |   |   |   |   |   |   |   |   |   cbm > 1.386294: YES (6.0)
|   |   |   |   |   |   |   |   |   |   |   |   |   |   wmc > 3.583519
|   |   |   |   |   |   |   |   |   |   |   |   |   |   |   moa <= 1.098612
|   |   |   |   |   |   |   |   |   |   |   |   |   |   |   |   cbo <= 3.332205
|   |   |   |   |   |   |   |   |   |   |   |   |   |   |   |   |   cam <= 0.151248: YES (3.0)
|   |   |   |   |   |   |   |   |   |   |   |   |   |   |   |   |   cam > 0.151248
|   |   |   |   |   |   |   |   |   |   |   |   |   |   |   |   |   |   lcom3 <= 0.615894: YES (3.0/1.0)
|   |   |   |   |   |   |   |   |   |   |   |   |   |   |   |   |   |   lcom3 > 0.615894: NO (2.0)
|   |   |   |   |   |   |   |   |   |   |   |   |   |   |   |   cbo > 3.332205: NO (2.0)
|   |   |   |   |   |   |   |   |   |   |   |   |   |   |   moa > 1.098612: NO (8.0/1.0)
|   |   |   |   |   |   |   |   |   |   |   |   dit > 1.386294
|   |   |   |   |   |   |   |   |   |   |   |   |   ca <= 2.197225
|   |   |   |   |   |   |   |   |   |   |   |   |   |   wmc <= 3.141686
|   |   |   |   |   |   |   |   |   |   |   |   |   |   |   dam <= 0.862224: YES (2.0)
|   |   |   |   |   |   |   |   |   |   |   |   |   |   |   dam > 0.862224: NO (3.0)
|   |   |   |   |   |   |   |   |   |   |   |   |   |   wmc > 3.141686: YES (20.0/1.0)
|   |   |   |   |   |   |   |   |   |   |   |   |   ca > 2.197225: NO (2.0)
|   |   |   |   |   |   |   |   |   |   |   cbm > 1.609438: NO (5.0/1.0)
|   |   |   |   |   |   |   |   |   cbm > 1.791759
|   |   |   |   |   |   |   |   |   |   amc <= 2.818169: NO (7.0/1.0)
|   |   |   |   |   |   |   |   |   |   amc > 2.818169
|   |   |   |   |   |   |   |   |   |   |   amc <= 3.297202: YES (28.0/1.0)
|   |   |   |   |   |   |   |   |   |   |   amc > 3.297202
|   |   |   |   |   |   |   |   |   |   |   |   cbm <= 2.079442
|   |   |   |   |   |   |   |   |   |   |   |   |   cbm <= 1.94591
|   |   |   |   |   |   |   |   |   |   |   |   |   |   noc <= 0: NO (10.0/3.0)
|   |   |   |   |   |   |   |   |   |   |   |   |   |   noc > 0: YES (4.0/1.0)
|   |   |   |   |   |   |   |   |   |   |   |   |   cbm > 1.94591
|   |   |   |   |   |   |   |   |   |   |   |   |   |   ca <= 1.504077: NO (6.0/1.0)
|   |   |   |   |   |   |   |   |   |   |   |   |   |   ca > 1.504077
|   |   |   |   |   |   |   |   |   |   |   |   |   |   |   avg_cc <= 1.760991: YES (7.0)
|   |   |   |   |   |   |   |   |   |   |   |   |   |   |   avg_cc > 1.760991: NO (3.0/1.0)
|   |   |   |   |   |   |   |   |   |   |   |   cbm > 2.079442
|   |   |   |   |   |   |   |   |   |   |   |   |   mfa <= 0.402798: YES (9.0/1.0)
|   |   |   |   |   |   |   |   |   |   |   |   |   mfa > 0.402798
|   |   |   |   |   |   |   |   |   |   |   |   |   |   dit <= 1.791759: YES (5.0/1.0)
|   |   |   |   |   |   |   |   |   |   |   |   |   |   dit > 1.791759: NO (2.0)
|   |   |   |   |   |   |   amc > 4.344701
|   |   |   |   |   |   |   |   cam <= 0.39478: YES (35.0/3.0)
|   |   |   |   |   |   |   |   cam > 0.39478
|   |   |   |   |   |   |   |   |   loc <= 6.360116: YES (2.0)
|   |   |   |   |   |   |   |   |   loc > 6.360116: NO (5.0/1.0)
|   |   |   |   wmc > 4.101462: YES (162.0/37.0)
|   |   |   cbm > 2.197225
|   |   |   |   ca <= 1.098612
|   |   |   |   |   ca <= 0.405465
|   |   |   |   |   |   wmc <= 2.64921
|   |   |   |   |   |   |   wmc <= 2.330756
|   |   |   |   |   |   |   |   dit <= 1.386294: YES (3.0)
|   |   |   |   |   |   |   |   dit > 1.386294
|   |   |   |   |   |   |   |   |   dit <= 1.791759: NO (7.0/2.0)
|   |   |   |   |   |   |   |   |   dit > 1.791759: YES (3.0/1.0)
|   |   |   |   |   |   |   wmc > 2.330756: NO (5.0)
|   |   |   |   |   |   wmc > 2.64921: YES (5.0/1.0)
|   |   |   |   |   ca > 0.405465
|   |   |   |   |   |   rfc <= 3.868747: NO (5.0/1.0)
|   |   |   |   |   |   rfc > 3.868747: YES (30.0/6.0)
|   |   |   |   ca > 1.098612: YES (187.0/28.0)
|   |   amc > 5.26847
|   |   |   loc <= 6.959181: NO (13.0/1.0)
|   |   |   loc > 6.959181
|   |   |   |   lcom <= 2.484907
|   |   |   |   |   amc <= 6.339313: YES (34.0/2.0)
|   |   |   |   |   amc > 6.339313: NO (16.0/2.0)
|   |   |   |   lcom > 2.484907: YES (110.0)

Number of Leaves  : 	236

Size of the tree : 	471


Correctly Classified Instances        1227               40.562  %
Incorrectly Classified Instances      1798               59.438  %
Kappa statistic                         -0.1517
Mean absolute error                      0.5438
Root mean squared error                  0.6233
Relative absolute error                115.4136 %
Root relative squared error            128.4147 %
Coverage of cases (0.95 level)          90.1157 %
Mean rel. region size (0.95 level)      90.7603 %
Total Number of Instances             3025     

=== Confusion Matrix ===

    a    b   <-- classified as
  694 1182 |    a = NO
  616  533 |    b = YES

=== Detailed Accuracy By Class ===

                 TP Rate  FP Rate  Precision  Recall   F-Measure  MCC      ROC Area  PRC Area  Class
                 0.370    0.536    0.530      0.370    0.436      -0.163   0.416     0.573     NO
                 0.464    0.630    0.311      0.464    0.372      -0.163   0.416     0.332     YES
Weighted Avg.    0.406    0.572    0.447      0.406    0.412      -0.163   0.416     0.482     

