Classifier...: weka.classifiers.trees.J48 -C 0.25 -M 2
Training file: C:\Users\HP\Desktop\AbdulAli\Camruz\Configuration1\dataK=2\12tr.csv

Testing file: C:\Users\HP\Desktop\AbdulAli\Camruz\Configuration1\dataK=2\12test.csv

J48 pruned tree
------------------

mfa <= 0.408542
|   rfc <= 3.98486
|   |   dit <= 1.098612
|   |   |   noc <= 1.098612
|   |   |   |   cbm <= 1.386294
|   |   |   |   |   cbm <= 0.693147
|   |   |   |   |   |   mfa <= 0.167774
|   |   |   |   |   |   |   moa <= 0.693147
|   |   |   |   |   |   |   |   lcom <= 4.744932
|   |   |   |   |   |   |   |   |   moa <= 0
|   |   |   |   |   |   |   |   |   |   rfc <= 1.810109: YES (72.0/5.0)
|   |   |   |   |   |   |   |   |   |   rfc > 1.810109
|   |   |   |   |   |   |   |   |   |   |   rfc <= 2.397895
|   |   |   |   |   |   |   |   |   |   |   |   npm <= 1.435085: NO (7.0/1.0)
|   |   |   |   |   |   |   |   |   |   |   |   npm > 1.435085
|   |   |   |   |   |   |   |   |   |   |   |   |   cbo <= 2.302585: YES (10.0)
|   |   |   |   |   |   |   |   |   |   |   |   |   cbo > 2.302585
|   |   |   |   |   |   |   |   |   |   |   |   |   |   cam <= 0.331276: NO (2.0)
|   |   |   |   |   |   |   |   |   |   |   |   |   |   cam > 0.331276
|   |   |   |   |   |   |   |   |   |   |   |   |   |   |   loc <= 1.681759: NO (3.0/1.0)
|   |   |   |   |   |   |   |   |   |   |   |   |   |   |   loc > 1.681759: YES (3.0)
|   |   |   |   |   |   |   |   |   |   |   rfc > 2.397895
|   |   |   |   |   |   |   |   |   |   |   |   rfc <= 3.419547: YES (73.0/6.0)
|   |   |   |   |   |   |   |   |   |   |   |   rfc > 3.419547
|   |   |   |   |   |   |   |   |   |   |   |   |   cbo <= 1.098612: NO (5.0)
|   |   |   |   |   |   |   |   |   |   |   |   |   cbo > 1.098612: YES (18.0/2.0)
|   |   |   |   |   |   |   |   |   moa > 0
|   |   |   |   |   |   |   |   |   |   avg_cc <= 0.624172: YES (16.0/1.0)
|   |   |   |   |   |   |   |   |   |   avg_cc > 0.624172
|   |   |   |   |   |   |   |   |   |   |   rfc <= 2.685577: NO (7.0/2.0)
|   |   |   |   |   |   |   |   |   |   |   rfc > 2.685577: YES (21.0/2.0)
|   |   |   |   |   |   |   |   lcom > 4.744932: YES (36.0)
|   |   |   |   |   |   |   moa > 0.693147
|   |   |   |   |   |   |   |   loc <= 2.993945: NO (4.0)
|   |   |   |   |   |   |   |   loc > 2.993945: YES (43.0/6.0)
|   |   |   |   |   |   mfa > 0.167774
|   |   |   |   |   |   |   dam <= 0.872274
|   |   |   |   |   |   |   |   ca <= 1.098612
|   |   |   |   |   |   |   |   |   max_cc <= 0.693147
|   |   |   |   |   |   |   |   |   |   avg_cc <= 0.543603: NO (8.0/2.0)
|   |   |   |   |   |   |   |   |   |   avg_cc > 0.543603: YES (2.0)
|   |   |   |   |   |   |   |   |   max_cc > 0.693147: NO (6.0)
|   |   |   |   |   |   |   |   ca > 1.098612: YES (19.0)
|   |   |   |   |   |   |   dam > 0.872274: YES (8.0)
|   |   |   |   |   cbm > 0.693147
|   |   |   |   |   |   max_cc <= 2.197225
|   |   |   |   |   |   |   loc <= 3.7612: NO (4.0)
|   |   |   |   |   |   |   loc > 3.7612
|   |   |   |   |   |   |   |   lcom3 <= 0.425188
|   |   |   |   |   |   |   |   |   moa <= 0.693147
|   |   |   |   |   |   |   |   |   |   ic <= 0.693147: YES (9.0)
|   |   |   |   |   |   |   |   |   |   ic > 0.693147
|   |   |   |   |   |   |   |   |   |   |   rfc <= 3.419547: YES (2.0)
|   |   |   |   |   |   |   |   |   |   |   rfc > 3.419547: NO (3.0)
|   |   |   |   |   |   |   |   |   moa > 0.693147: NO (6.0/1.0)
|   |   |   |   |   |   |   |   lcom3 > 0.425188: YES (10.0)
|   |   |   |   |   |   max_cc > 2.197225: NO (3.0)
|   |   |   |   cbm > 1.386294: YES (28.0)
|   |   |   noc > 1.098612
|   |   |   |   cbm <= 1.098612
|   |   |   |   |   dit <= 0.693147
|   |   |   |   |   |   ce <= 0.470004
|   |   |   |   |   |   |   ca <= 2.014903: YES (2.0)
|   |   |   |   |   |   |   ca > 2.014903: NO (9.0/1.0)
|   |   |   |   |   |   ce > 0.470004
|   |   |   |   |   |   |   noc <= 2.197225: YES (5.0)
|   |   |   |   |   |   |   noc > 2.197225: NO (3.0/1.0)
|   |   |   |   |   dit > 0.693147: NO (3.0)
|   |   |   |   cbm > 1.098612: YES (4.0)
|   |   dit > 1.098612
|   |   |   ca <= 1.504077
|   |   |   |   cam <= 0.391626
|   |   |   |   |   dit <= 1.386294
|   |   |   |   |   |   wmc <= 2.736221
|   |   |   |   |   |   |   npm <= 2.282382
|   |   |   |   |   |   |   |   wmc <= 2.043074: YES (3.0/1.0)
|   |   |   |   |   |   |   |   wmc > 2.043074: NO (4.0)
|   |   |   |   |   |   |   npm > 2.282382: YES (3.0)
|   |   |   |   |   |   wmc > 2.736221: NO (5.0)
|   |   |   |   |   dit > 1.386294: YES (3.0)
|   |   |   |   cam > 0.391626: NO (13.0)
|   |   |   ca > 1.504077: YES (11.0)
|   rfc > 3.98486: YES (185.0/1.0)
mfa > 0.408542: YES (423.0/5.0)

Number of Leaves  : 	43

Size of the tree : 	85


Correctly Classified Instances        2481               64.0754 %
Incorrectly Classified Instances      1391               35.9246 %
Kappa statistic                         -0.0264
Mean absolute error                      0.372 
Root mean squared error                  0.5805
Relative absolute error                 83.9534 %
Root relative squared error            123.328  %
Coverage of cases (0.95 level)          73.2438 %
Mean rel. region size (0.95 level)      67.0842 %
Total Number of Instances             3872     

=== Confusion Matrix ===

    a    b   <-- classified as
 2428  161 |    a = NO
 1230   53 |    b = YES

=== Detailed Accuracy By Class ===

                 TP Rate  FP Rate  Precision  Recall   F-Measure  MCC      ROC Area  PRC Area  Class
                 0.938    0.959    0.664      0.938    0.777      -0.043   0.380     0.608     NO
                 0.041    0.062    0.248      0.041    0.071      -0.043   0.380     0.289     YES
Weighted Avg.    0.641    0.662    0.526      0.641    0.543      -0.043   0.380     0.503     

